tree
version=v4
num_class=1
num_tree_per_iteration=1
label_index=0
max_feature_idx=41
objective=binary sigmoid:1
feature_names=dist_ema_fast dist_ema_slow dist_ema_trend dist_ema_200 ema_fast_slow_ratio ema_slow_trend_ratio rsi rsi_delta macd_hist macd_hist_delta adx stoch_k stoch_d stoch_k_minus_d rsi_slope_3d macd_hist_slope_3d adx_slope_3d stoch_k_slope_3d vol_ratio_slope_3d atr_pct bb_width bb_pctb rvol_5 rvol_20 vol_ratio vol_delta vol_trend ret_1d ret_3d ret_5d ret_10d ret_20d ema50_slope ema200_slope higher_high_5 higher_low_5 dist_to_support dist_to_resistance entry_score day_of_week spy_sma200_dist vixy_relative
feature_infos=[-0.88047152757644653:0.4875151515007019] [-0.89400458335876465:0.76895833015441895] [-0.90141791105270386:1.1927715539932251] [-0.90569072961807251:2.6778063774108887] [-0.60347378253936768:0.26220744848251343] [-0.63411891460418701:0.33237341046333313] [7.5988736152648926:89.56707763671875] [-57.008754730224609:28.406278610229492] [-197.04545593261719:53.395503997802734] [-99.670982360839844:23.154708862304688] [6.4042677879333496:76.904464721679688] [0:100] [0.034256916493177414:99.84002685546875] [-64.694847106933594:58.8792724609375] [-60.237251281738281:36.339035034179688] [-185.67686462402344:68.547607421875] [-9.521052360534668:12.828498840332031] [-99.568702697753906:97.747108459472656] [-8.6434249877929688:8.880615234375] [0.0065359659492969513:0.98628544807434082] [0.016309330239892006:6.0319781303405762] [-0.58364927768707275:1.5484404563903809] [0.010538822039961815:6.5317540168762207] [0.05466320738196373:3.2970728874206543] [0.04358387365937233:9.2728176116943359] [0.03690551221370697:16.377595901489258] [0.22362680733203888:3.2437946796417236] [-0.90080970525741577:0.5560266375541687] [-0.90817838907241821:0.75229358673095703] [-0.9105563759803772:1.0542452335357666] [-0.91309112310409546:1.692307710647583] [-0.92180204391479492:2.0914826393127441] [-0.16430160403251648:0.25672763586044312] [-0.086273729801177979:0.24709126353263855] [0:1] [0:1] [-8.7345666885375977:0.68826532363891602] [-0.28792133927345276:11.952662467956543] [0:12] [0:4] [-0.13476203382015228:0.14829014241695404] [-0.20094062387943268:2.0429816246032715]
tree_sizes=13169 13339 13356 13253 13345 13255 13321 13345 13291 13301 13255 13312 13387 13386 13326 13356 13309 13326 13295 13295 13344 13289 13355 13388 13386 13381 13391 13407 13363 13397 13373 13245 13350 13309 13345 13259 13328 13377 13413 13346 13320 13356 13408 13415 13401 13404 13429 13398 13366 13284 13325 13308 13455 13310 13365 13308 13385 13381 13384 13360 13451 13363 13376 13402 13363 13387 13346 13390 13396 13490 13373 13424 13392 13447 13375 13452 13421 13383 13329 13374 13403 13435 13428 13416 13355 13418 13429 13414 13449 13328 13379 13430 13449 13400 13460 13458 13422 13456 13434 13393

Tree=0
num_leaves=123
num_cat=0
split_feature=23 23 23 23 40 40 40 32 40 4 32 33 40 23 40 26 40 33 3 28 21 33 40 23 40 8 4 3 13 28 33 40 40 4 40 14 5 29 8 8 15 40 8 26 4 15 40 8 40 26 26 17 15 23 23 26 23 27 32 37 6 37 33 37 1 40 40 16 16 40 5 33 32 4 13 23 8 6 8 26 37 15 15 26 28 15 4 14 29 32 40 15 8 16 15 37 27 40 40 4 37 23 17 23 26 25 27 16 40 40 5 40 3 37 3 8 29 40 29 17 40 28
split_gain=3406.53 855.707 386.356 260.125 184.392 164.882 141.813 156.323 120.369 119.041 122.314 118.837 129.958 111.683 111.339 109.192 108.886 94.8276 86.6425 83.6219 88.294 78.7681 83.0698 76.3911 74.4709 74.0415 72.5812 64.7324 62.852 66.5337 62.0714 83.539 61.7143 60.3045 56.5468 70.7682 56.5242 54.4764 54.0858 54.0225 53.9514 52.749 56.0305 52.4294 51.0219 72.0687 50.9113 75.6665 54.6794 50.12 49.1355 48.2152 78.5534 65.3485 99.166 52.3579 63.8385 51.8669 51.4241 50.4253 81.0869 46.0732 44.2713 58.0651 43.7954 43.3603 42.9318 41.3926 46.053 40.8647 44.9825 40.3146 38.399 37.5645 40.6524 55.8953 36.7022 65.1052 59.9021 49.5009 36.3048 36.1413 35.9206 35.8127 35.3649 34.8514 34.0982 47.1092 63.5744 34.0204 33.3623 33.1042 37.9922 39.2957 39.6007 34.4229 32.5481 32.5085 32.3659 32.991 32.2357 32.0304 31.7052 33.1699 32.1182 31.7049 31.6813 31.396 31.1583 30.6317 30.4563 46.2223 33.154 35.1513 30.002 31.5224 29.5465 29.0953 29.0593 29.0539 60.6942 28.8403
threshold=0.31525118649005895 0.16441441327333453 0.48310232162475591 0.23069943487644198 -0.032725065946578973 0.057168101891875274 0.069662529975175871 -0.0041361199691891662 0.11022156104445459 0.010112055111676456 -0.019450356252491471 0.01723164971917868 0.065867461264133467 0.13511217385530475 0.10961809381842615 0.93766492605209362 0.11775959655642511 -0.034967806190252297 0.13094370067119601 -0.047762272879481309 0.37490046024322515 0.025144935585558418 0.011739695444703104 0.40427573025226599 0.068318143486976637 0.76574072241783153 0.010493665467947723 -0.17855339497327802 8.1079101562500018 -0.0076325244735926381 0.016785103827714924 0.036457758396863944 0.11060167849063875 -0.015040856320410965 0.11775959655642511 -2.1725779771804805 0.016732378862798217 -0.071682643145322786 0.17845241725444796 -3.3342865705490108 2.2100280523300175 0.11060167849063875 16.354369163513187 0.42265462875366216 0.01643793843686581 -0.93504726886749256 0.051500396803021438 -0.44206893444061274 0.094171788543462767 0.73731794953346264 1.1649744510650637 -12.041293144226072 0.98912978172302257 0.42007498443126684 0.36940868198871618 0.89364224672317516 0.36404410004615789 -0.0062249703332781783 0.002872408134862781 0.057720081880688674 31.536379814147953 0.16419257968664172 0.012178341392427685 0.025793713517487053 0.0021537325810641055 0.049224035814404495 0.02927674446254969 -4.2863614559173575 4.8843846321105966 0.045537682250142104 0.0085760173387825506 0.012359172105789186 -0.035342143848538392 0.024192217737436298 16.834149360656742 0.39200200140476232 1.0000000180025095e-35 41.786565780639656 -0.48482909798622126 0.5888814926147462 0.088871840387582793 -2.8033568859100337 2.6615546941757207 1.2699243426322939 0.0013667099992744627 -0.47924734652042383 -0.020826407708227631 -10.378224372863768 -0.015428183600306509 -0.011901858262717722 0.13487257063388827 -0.20732708275318143 -1.6239302754402158 -3.4339507818222041 2.2100280523300175 0.025793713517487053 0.0096555990166962164 0.035477923229336746 0.093338664621114745 -0.0078159640543162805 0.042196147143840797 0.34896844625473028 -31.630596160888668 0.76726707816123974 1.1529032588005068 0.86798334121704113 -0.02043457422405481 -4.6258957386016837 0.02927674446254969 0.04312661103904248 -0.002619646722450852 0.095429994165897383 0.053512539714574821 0.12673672288656238 0.012736726552248003 0.35710033774375921 0.056847471743822105 0.085307680070400252 -0.0034197934437543149 -0.16269530355930326 0.051500396803021438 -0.041450928896665566
decision_type=2 2 2 2 2 2 2 2 2 2 2 2 2 2 2 2 2 2 2 2 2 2 2 2 2 2 2 2 2 2 2 2 2 2 2 2 2 2 2 2 2 2 2 2 2 2 2 2 2 2 2 2 2 2 2 2 2 2 2 2 2 2 2 2 2 2 2 2 2 2 2 2 2 2 2 2 2 2 2 2 2 2 2 2 2 2 2 2 2 2 2 2 2 2 2 2 2 2 2 2 2 2 2 2 2 2 2 2 2 2 2 2 2 2 2 2 2 2 2 2 2 2
left_child=1 13 6 8 15 9 24 72 17 10 -5 12 -7 32 19 -4 85 -3 39 81 37 22 -19 90 28 26 -20 -24 51 -30 50 -32 33 -1 35 -34 -13 89 -28 -14 65 42 107 -41 45 -23 47 -29 -48 71 109 55 53 54 66 86 58 -56 -57 -54 -61 73 -35 -64 -45 69 -53 -38 82 -12 -71 -25 80 74 -31 -76 78 -78 83 -80 -8 102 118 -39 -46 -10 -2 -88 -89 -21 91 96 -93 95 -95 -94 98 -55 -9 -100 -43 -74 103 104 -6 -70 -17 -15 -62 -11 112 -112 -103 -114 115 -18 -52 -82 -69 120 -67 -91
right_child=2 3 4 5 14 11 7 23 16 30 40 36 18 41 -16 106 114 21 25 20 -22 44 27 49 -26 -27 38 46 29 61 31 -33 34 62 -36 -37 67 76 -40 43 -42 100 -44 64 84 -47 48 -49 -50 -51 116 52 59 97 57 56 -58 -59 -60 60 108 -63 63 -65 -66 119 -68 68 105 70 -72 -73 101 -75 75 -77 77 -79 79 -81 117 -83 -84 -85 -86 -87 87 88 -90 121 -92 92 93 94 -96 -97 -98 -99 99 -101 -102 110 -104 -105 -106 -107 -108 -109 -110 -111 111 -113 113 -115 -116 -117 -118 -119 -120 -121 -122 -123
leaf_value=-0.77693041742799884 -0.75642668303791982 -0.77586252625209806 -0.81789117950356316 -0.82496065591074552 -0.76568156824288502 -0.8282229561059048 -0.77281844377880315 -0.81890825149598767 -0.80179932682474397 -0.80850772100799384 -0.77877595427827095 -0.83483880435790203 -0.77362210116969798 -0.78526803320588012 -0.76166838238361745 -0.8053863623284061 -0.83267008429562173 -0.78508978801083151 -0.82085635617873942 -0.76592376624655756 -0.77458461755138941 -0.77388589026474264 -0.84151273762710255 -0.82310141544826765 -0.83065454508268788 -0.82952663385789471 -0.76704376949900299 -0.78795123222663177 -0.76275162121984852 -0.77572774095733088 -0.83270075427571588 -0.77478648399617323 -0.82803944715125999 -0.83387260832191523 -0.82955355861452507 -0.77885947082417961 -0.81695421183887718 -0.79915713463828153 -0.80714377687506467 -0.75743657533734454 -0.81705567256772016 -0.80842421947874621 -0.75794744902604749 -0.80331855402664265 -0.80845913694898808 -0.83970413359003893 -0.81527658324417929 -0.81197098777180166 -0.80664566264688364 -0.77704268106398666 -0.80672726884501944 -0.79591983889182771 -0.76687663693062091 -0.80607738334676815 -0.81012802835055231 -0.76803224689548466 -0.81144355834954807 -0.7779969445690188 -0.81094593679963611 -0.7609615586962617 -0.7920789028089219 -0.82733965118693797 -0.8261840600935435 -0.77289135812166621 -0.7951958159985959 -0.75951077663816546 -0.82347704502569186 -0.79221038676431466 -0.84087156724742085 -0.82721259913821543 -0.7791926199634911 -0.78031594052808106 -0.78281653059636247 -0.81396242986204226 -0.77845797694744012 -0.82068999275258214 -0.81859845298490164 -0.76723443364963317 -0.81430550604131335 -0.76922100449468156 -0.77782951041408832 -0.76614992398808901 -0.82222842788721595 -0.77734646572292587 -0.76468220027425482 -0.77694305560633325 -0.75906081461973318 -0.81167854605535783 -0.77343230533769458 -0.76467488260201477 -0.76537122149037118 -0.76859711171503853 -0.78107052509864217 -0.78830769150505842 -0.82141976043607023 -0.83518014239874871 -0.7870244481088805 -0.83289327266861812 -0.74975068720538263 -0.80162127369967473 -0.78327792021455234 -0.76744281386236657 -0.80402358593604661 -0.75656315272625552 -0.81302849967659974 -0.79324636722758157 -0.77371148904881781 -0.81849860178770506 -0.82832055832113294 -0.83467451823149785 -0.81578832335425966 -0.76880892441392334 -0.77200461404330323 -0.82864663478051215 -0.80070459482705081 -0.78838792713701999 -0.75798525187765442 -0.82129433329166213 -0.7770953258339901 -0.75908939252037888 -0.81255722298963351 -0.80812539685552975
leaf_weight=8.1200450211763364 22.98479101061821 36.72188426554203 59.6420578956604 23.658999912440777 10.761709019541742 67.322056040167809 22.768314674496651 46.36677759885788 29.046815246343613 41.04665669798851 262.69770134985447 9.6809456050395948 36.010811105370522 11.549178361892698 278.20206002891064 17.41050498187542 28.326121032238007 54.205932155251503 45.612395659089088 76.82099699229002 1052.3636281713843 12.214043423533441 25.950608536601067 18.119418099522591 20.04232482612133 66.781034484505653 27.48025444149971 99.015956602990627 51.130394235253334 101.50642911344767 12.135177224874495 50.646684005856514 18.603764533996582 349.94181772321463 40.410597681999207 30.491964995861053 16.222334131598473 129.82215734571218 27.298600479960442 12.314506202936171 13.634037330746649 67.834305509924889 6.3308743238449088 519.51034690439701 9.9834419414401037 14.442662999033926 639.96029916405678 112.52690280228853 538.12294469773769 275.08659157156944 11.779012419283392 34.594877131283283 39.803150601685047 30.979840956628323 27.557492390275002 35.903868995606899 63.259462393820286 79.842233821749687 16.772100538015366 17.486132428050041 16.543901339173317 11.309079989790915 30.994876317679882 11.047128885984419 555.21765974164009 20.787767380475998 64.546863608062267 72.782657355070114 9.0252961367368716 15.414089292287828 15.399068199098108 16.667344316840172 109.04260061681271 16.859790056943893 26.751673832535744 22.93777085095644 37.695933684706688 13.217910975217817 10.50603513419628 87.393138229846954 9.0613641440868395 445.25475763529539 8.419402673840521 40.240771889686584 33.831724397838116 119.85126924514771 22.886617511510849 35.247876666486263 35.047465585172176 9.6987467110157031 18.164936199784279 31.823922827839851 6.8323110342025783 292.72948294878006 14.74105830490589 14.625185400247572 53.895446941256523 41.961683318018913 5.3044949471950522 81.143344730138779 29.719611898064613 369.06246809661388 19.88883875310421 23.885260611772537 12.469624772667883 14.485963106155394 53.612485870718956 448.16035647690296 22.066069841384888 31.020261913537979 14.303299918770788 19.008087888360023 10.145577594637873 7.3874761909246436 78.311544269323349 8.1369957327842695 9.1895212531089765 18.517247170209885 197.35785010457039 74.313114926218987 15.239036306738852 17.795029275119305
leaf_count=14 39 41 528 41 23 369 76 198 113 294 747 26 68 52 728 139 199 361 182 176 2570 15 45 67 55 245 66 241 90 257 48 69 82 1423 365 80 68 378 101 16 35 340 5 1706 38 37 2711 518 1796 833 40 228 98 196 104 105 234 225 53 16 109 38 159 33 1769 23 199 252 32 38 27 76 264 67 89 93 101 18 23 171 16 950 22 84 75 299 38 100 74 16 97 57 20 1016 59 73 159 110 6 322 102 736 75 33 35 41 317 1895 52 63 41 46 23 27 514 53 21 49 526 77 44 61
internal_value=-0.792839 -0.804023 -0.780549 -0.799919 -0.774921 -0.795411 -0.786384 -0.782574 -0.805512 -0.786375 -0.781064 -0.798617 -0.801235 -0.820082 -0.773589 -0.798096 -0.793011 -0.807608 -0.79982 -0.775262 -0.777704 -0.808371 -0.809367 -0.787928 -0.792853 -0.813182 -0.802395 -0.810302 -0.791938 -0.783005 -0.801468 -0.78612 -0.827061 -0.830415 -0.812163 -0.797672 -0.787806 -0.78548 -0.786866 -0.797824 -0.778556 -0.814005 -0.816814 -0.798634 -0.787727 -0.80987 -0.809713 -0.800687 -0.811342 -0.779911 -0.81192 -0.795343 -0.799816 -0.80521 -0.799456 -0.788145 -0.797776 -0.78616 -0.781529 -0.784188 -0.79663 -0.788829 -0.831546 -0.812383 -0.799114 -0.777234 -0.813773 -0.786347 -0.784675 -0.781341 -0.803494 -0.802849 -0.774499 -0.786185 -0.78303 -0.798126 -0.789645 -0.80543 -0.786678 -0.774148 -0.791543 -0.768246 -0.782408 -0.793944 -0.774456 -0.781733 -0.77861 -0.784179 -0.792484 -0.772836 -0.792336 -0.793247 -0.789684 -0.791752 -0.789924 -0.817542 -0.800178 -0.821385 -0.805582 -0.798333 -0.800673 -0.772893 -0.782306 -0.773326 -0.790946 -0.8119 -0.781352 -0.817644 -0.813016 -0.819651 -0.770337 -0.789238 -0.768732 -0.796363 -0.80772 -0.822547 -0.784941 -0.807323 -0.781135 -0.766392 -0.781704 -0.792474
internal_weight=9885.84 5176.34 4709.5 4123.13 2396.68 2282.48 2312.82 1454.8 1840.65 596.961 441.144 1685.52 1357.55 1053.2 2266.02 130.665 263.673 1576.98 1290.23 1987.81 1475.55 1540.25 1469.78 875.5 858.022 167.172 100.391 1415.58 837.98 230.495 155.817 62.7819 489.61 400.104 89.5063 49.0957 327.974 423.191 54.7789 1123.05 417.485 563.594 466.04 1087.04 70.4719 26.6567 1389.63 211.543 1178.08 309.873 93.0355 607.484 375.382 279.483 206.541 232.102 115.935 107.4 52.676 95.8993 56.0961 179.365 391.984 42.042 1074.73 403.851 99.1417 318.294 302.071 293.511 30.8132 34.7868 579.296 168.056 151.196 49.6894 318.876 50.9138 267.962 97.8992 50.3469 512.26 278.56 170.063 43.8152 148.898 116.167 93.182 70.2953 104.315 565.627 547.462 360.752 328.928 307.471 21.4575 186.71 72.9415 132.815 86.4478 97.5539 528.95 67.0054 47.1166 23.2313 23.5113 71.023 459.71 38.61 72.0669 419.907 33.3114 386.596 17.5331 114.775 36.4631 20.9685 27.5786 270.141 110.34 36.0268 27.4938
internal_count=32018 18662 13356 14112 6426 7056 6930 4261 7056 1567 1032 5489 4522 4550 5442 984 1178 5878 4153 4714 3598 5837 5672 2983 2669 594 349 5311 2614 634 535 117 2156 1629 527 162 967 1028 167 3559 991 2394 1952 3491 165 52 5266 759 4507 976 418 1980 1337 1062 756 643 392 329 158 275 177 544 1615 192 3475 956 427 941 873 812 65 143 1278 506 439 182 775 119 656 194 141 1116 800 462 113 412 251 212 174 253 2007 1910 1225 1168 1075 93 685 306 526 328 442 1137 166 91 58 73 456 1947 161 357 873 87 786 50 766 252 61 65 778 144 67 77
is_linear=0
shrinkage=1


Tree=1
num_leaves=123
num_cat=0
split_feature=19 19 19 19 40 40 41 3 40 40 40 41 37 40 41 41 6 40 40 32 11 40 41 10 26 19 23 40 40 41 19 8 40 33 26 41 31 33 41 32 8 24 33 41 32 33 33 15 15 33 40 2 41 10 41 6 41 40 25 15 11 24 26 36 6 40 24 40 40 36 40 36 8 19 6 18 33 40 36 41 41 41 3 21 23 5 40 40 41 3 41 40 23 41 8 41 6 32 7 40 18 23 29 14 23 33 6 31 31 33 33 5 24 40 18 7 41 5 41 10 14 40
split_gain=4076.1 921.911 370.378 306.371 171.182 153.167 135.596 112.962 100.511 94.0201 91.1725 100.817 90.2448 90.2445 79.3191 92.7987 79.2585 71.6081 94.6437 70.8922 69.2757 67.0255 61.704 61.1139 77.7403 62.4066 64.9824 57.202 86.3713 90.8618 84.4574 59.7774 57.1433 58.9613 55.9017 55.8472 55.7071 54.4963 58.4164 57.7791 54.3371 67.7739 52.9486 52.58 51.2143 71.6623 50.3082 58.879 49.0258 48.891 48.0284 46.1382 59.8851 44.9979 44.5494 55.8947 48.3452 57.6783 47.3415 46.2028 44.2332 50.7137 43.0194 43.3084 42.7203 42.2493 46.2053 41.8037 77.6426 41.3562 41.241 40.8001 39.6258 38.9148 90.8091 45.769 38.6125 38.6067 37.9743 37.8894 98.2852 58.128 57.8681 57.8101 68.1488 56.3947 56.3164 56.6513 55.1541 54.5115 44.2316 37.3051 36.7124 35.4109 34.9419 34.4832 34.1696 34.0584 37.4769 37.4583 33.3708 47.1274 33.0188 42.3621 32.9119 38.7598 44.3097 55.4881 32.843 32.7262 74.4696 32.6199 32.5535 32.4025 31.8253 31.8201 35.5904 35.6922 31.3687 30.9335 33.0209 30.8675
threshold=0.027652796357870105 0.020112834870815281 0.012340522371232511 0.039837021380662925 0.10961809381842615 0.11022156104445459 -0.056943099945783608 -0.12331994250416754 0.11022156104445459 0.002342019928619266 -0.032725065946578973 0.40941449999809271 0.041682517156004913 0.070500560104846968 -0.0012504997430369256 0.023690758273005489 24.085818290710453 0.094171788543462767 0.10167237743735315 0.02520257513970137 91.63181304931642 0.11775959655642511 -0.075907070189714418 25.525414466857914 1.1978983879089358 0.020836109295487407 0.32819445431232458 0.038532512262463577 0.074615154415369048 0.14408847689628604 0.069857791066169753 0.050464916974306114 0.081075403839349761 0.0088420109823346155 0.65889421105384838 -0.061225574463605874 0.023091788403689865 0.01285462034866214 0.007561680395156146 0.0064743394032120713 -2.65628969669342 0.97317939996719371 0.017666478641331199 -0.025875728577375409 -0.001262659963686019 0.0028907855739817028 0.024014777503907684 -0.097883641719818101 0.069923203438520445 0.0049221233930438766 -0.075051207095384584 -0.0045027167070657006 -0.08863509818911551 23.21546840667725 -0.010738861747086046 47.103181838989265 -0.027416866272687909 0.0995374731719494 1.136313319206238 0.27023780345916754 15.134444236755373 0.82140979170799266 1.1017217636108401 0.092015944421291365 31.536379814147953 0.002342019928619266 1.2980820536613467 0.079133454710245146 0.084710069000720992 0.024347819387912754 0.11060167849063875 0.095473080873489394 1.5283817052841189 0.079683169722557082 19.976944923400882 -0.54759389162063588 -0.0088766845874488336 0.091932572424411788 0.014229441061615946 -0.0012504997430369256 -0.013860341161489485 0.021680974401533607 0.12398953735828401 0.026899532414972786 0.31525118649005895 0.014378444291651251 1.0000000180025095e-35 0.027643014676868919 0.14408847689628604 -0.0016316017718054352 0.22149588167667392 0.14232447743415835 0.37709765136241918 -0.06758148223161696 6.1235344409942636 0.035531876608729369 58.886816024780281 0.0037793391384184365 3.1705297231674199 0.1182958520948887 -0.12063022702932356 0.31525118649005895 0.032041797414422042 -2.7603349685668941 0.27265620231628424 0.019561481662094597 72.688613891601577 -0.010367782786488531 0.30980560183525091 0.0052083649206906566 0.015270651783794166 -0.00028592618764378125 0.99335119128227245 0.089849296957254424 -0.27813373506069178 1.7112348079681399 -0.087329268455505357 0.0024696165928617124 0.090538453310728087 32.715717315673835 -7.1015722751617423 0.11202384158968927
decision_type=2 2 2 2 2 2 2 2 2 2 2 2 2 2 2 2 2 2 2 2 2 2 2 2 2 2 2 2 2 2 2 2 2 2 2 2 2 2 2 2 2 2 2 2 2 2 2 2 2 2 2 2 2 2 2 2 2 2 2 2 2 2 2 2 2 2 2 2 2 2 2 2 2 2 2 2 2 2 2 2 2 2 2 2 2 2 2 2 2 2 2 2 2 2 2 2 2 2 2 2 2 2 2 2 2 2 2 2 2 2 2 2 2 2 2 2 2 2 2 2 2 2
left_child=1 2 70 8 10 9 12 13 16 95 11 50 32 -8 54 119 -2 44 22 65 23 102 71 24 25 77 43 31 29 30 -29 48 -3 92 51 -23 69 39 -39 -24 49 46 -35 -27 76 72 64 -48 -17 -25 -5 52 -18 -28 56 58 73 108 -56 -57 -26 -62 63 -44 -42 -14 115 -30 -69 112 -1 -19 93 74 -12 -76 -11 96 -75 80 83 100 113 -36 89 -86 90 -88 -89 -85 -83 -37 111 -46 -47 -4 -9 99 -99 -72 109 -102 103 -7 -22 106 107 -106 -58 -81 -111 121 -15 -82 -20 -67 -117 -118 -50 -16 -121 -34
right_child=3 6 5 4 -6 21 7 20 -10 17 14 -13 19 36 15 27 34 18 114 -21 104 35 37 40 60 26 53 28 67 -31 -32 -33 33 42 79 91 -38 38 -40 -41 41 -43 62 -45 45 94 47 -49 118 -51 -52 -53 -54 -55 55 59 57 -59 -60 -61 61 -63 -64 -65 -66 66 -68 68 -70 -71 97 -73 -74 78 75 -77 -78 -79 -80 81 82 86 -84 84 85 -87 87 88 -90 -91 -92 -93 -94 -95 -96 -97 -98 98 -100 -101 101 -103 -104 -105 105 -107 -108 -109 -110 110 -112 -113 -114 -115 -116 116 117 -119 -120 120 -122 -123
leaf_value=-0.021986750967351823 -0.0098976901994590662 -0.00034940021437622037 0.044187491833178723 -0.01650528712848004 0.05253824071699148 0.010874191455722972 -0.018725012478671081 -0.012762309834219387 0.039626332206760997 0.026952008186443527 -0.024651470411939248 0.050383047386028716 0.037994739225433456 -0.02528044473300942 0.051784503675828909 0.04420357277332311 0.0502168025774802 -0.011791948471157327 -0.014555159811516009 0.058836630069738403 0.03667850864963236 0.026077706868324287 0.015007713439076175 -0.00090036152002671344 -0.0067389038067674108 0.016291519106288069 -0.0037314324637971689 0.023383877350488063 0.059617116712354132 -0.011342402411863977 0.041967440366347829 0.054535058174212912 0.0077884274291711089 -0.0034984326365454705 0.045363264379009137 -0.0045098027911918102 -0.022426325070041178 0.037922250575813402 -0.006001330188622543 -0.012883671473070676 0.044446912280507483 0.018282500660379373 0 0.029834094311535997 0.029688179883851726 -0.0057922743218412594 0.0025242419403276161 0.043582641215504023 -0.012961182000985434 0.039668150939802235 0.016544484076188169 -0.0048648025454348992 0.0079683386459896716 0.030425939557740173 -0.016998669773151818 0.042620455233761879 0.048986689167421396 0.011743327006287291 0.024217042977213967 0.00075906503888848495 -0.016127737545825315 0.017713770746813004 -0.00448549843969982 0.035462003562893439 -0.004623316530164223 -0.015554994651526049 0.011707950335026541 -0.0019359685318782755 0.043658624710837153 0.042043482822847963 0.044393892072815432 0.025943042188608927 -0.016268610840578398 0.010623757232686401 0.014856315667312466 0.032242355866735808 -0.014636104940010431 0.023349214414660136 0.045346099714828558 0.038145812520974036 -0.020911988445934181 -0.0091868100604208768 0.025163849443042119 -0.0026167978101720437 0.03333704234640375 0.019961148879144346 0.047333273609073315 0.028201883676908748 0.0067782850566033871 0.022463145807983507 0.031680044119246194 0.031360825349080121 -0.012895844885845789 0.0070679782451805832 0.044119126017298359 -0.0051855210463303174 0.03083548112633875 -0.020758801240493636 0.024106030089937943 -0.019206767908835055 0.017415474347491581 0.048767974101705927 -0.0023069760946268698 0.032840345499788655 0.049910045365052759 0.04096075473160677 0.041495988439497214 -0.0033472405564192683 0.018339747706125589 -0.021227500374137603 0.037641326495322369 0.033439756563020041 0.023901633128227785 0.013801750768533844 -0.00028138426754845439 -0.018612771349929433 -0.010320107416381901 0.033674954815539213 0.026569747357253537 0.0049881659670058262 0.042518784710672788 0.047263920545933195
leaf_weight=336.28408616781235 24.303337246179581 98.2014274969697 25.035987414419655 24.032997123897076 266.69924502819777 54.676691986620426 57.733179405331612 39.460427336394787 233.49348067492247 9.1262437105178815 12.177807494997976 29.183358788490295 9.1284423694014531 8.5340767502784747 272.20495028793812 74.347485929727554 20.664054311811924 62.286834850907326 84.106673091650009 7.3713873624801627 123.76356345415115 38.705381646752357 155.66934262961149 15.310848489403723 46.3921959400177 148.51294779032469 49.090252205729485 271.66070194542408 52.955191783607006 21.784561887383461 155.90768739581108 121.99850502610207 47.898140877485275 79.291171632707119 57.317584790289402 122.65288380533457 11.898426569998263 63.349207833409309 14.509911194443701 36.242405414581299 7.3398355618119231 194.31106179207563 18.01497857272625 549.29870520532131 39.708140194416046 603.72292628139257 36.823263339698315 22.888728968799114 10.195438496768473 46.748323433101177 63.222210839390755 40.32504791021347 39.753872141242027 22.174627214670181 23.217345900833607 43.911337830126286 162.2292650565505 22.465089149773121 21.209063179790974 14.384341880679129 19.141046568751335 195.23763279616833 23.596027068793774 52.857569567859173 178.41958998143673 130.19613727927208 47.476681046187878 16.452794328331947 127.49869461357594 27.119077377021313 10.018165543675421 13.898074619472025 19.862351171672344 14.913975879549978 71.064650870859623 493.86787681281567 222.65914049744606 32.504441045224667 111.89718019962311 52.563536234200001 35.388583540916443 29.571388497948647 28.560565389692783 59.369904085993767 297.47542078047991 225.91594313830137 57.93820184469223 624.84883131086826 53.087915562093258 80.846538744866848 16.289525076746941 12.740338072180746 9.3946550264954549 95.694502390921116 5.601383611559867 6.8878249973058692 8.6880003884434682 41.351434104144573 8.8808344230055791 5.6159717738628379 23.551202438771725 128.53274967521429 18.637105889618397 104.78496160358191 9.2278406322002393 28.952332258224487 17.399971984326839 49.020455032587051 16.296976171433926 14.626025661826132 20.303687393665314 111.04114103317261 14.16762427985668 15.069395191967486 245.18865842372179 18.24007822573185 11.657106161117555 18.838087290525436 33.389074712991714 10.793445095419882 110.67368778586388 9.6864918917417508
leaf_count=1408 71 683 137 231 617 211 144 168 806 52 29 146 53 36 426 167 51 182 320 10 340 210 537 60 182 669 240 403 68 140 183 85 136 246 112 866 29 122 80 182 12 576 54 1303 141 2654 121 36 36 129 465 235 184 65 66 93 242 88 30 39 82 612 81 107 656 485 160 55 446 68 21 40 91 28 239 1509 972 121 268 120 119 268 75 213 1026 875 123 1012 360 268 102 81 36 510 18 61 27 256 37 56 62 225 83 258 23 77 41 198 28 40 35 264 52 44 1012 68 45 45 121 20 158 28
internal_value=0.0196336 0.0071871 -0.00162129 0.0327469 0.0372899 0.00180349 0.0153508 0.0180383 0.0271767 -0.000670131 0.0355945 0.0182059 0.00773539 -0.000710128 0.0364758 0.0398047 0.0256786 -0.00132351 0.00368989 -0.00204271 0.0192597 0.0137926 0.0109904 0.0177881 0.0204128 0.0233487 0.0251052 0.0361799 0.0330356 0.0281485 0.030181 0.0446119 0.013033 0.0167935 0.026133 0.00491719 0.0160007 0.0154798 0.0296252 0.00969491 0.0119624 0.00946456 0.00844193 0.0269645 -0.00472986 -0.00222331 0.00244873 0.0184113 0.0342704 0.0295203 0.00734134 0.0115002 0.0225659 0.00677686 0.0322386 0.0195702 0.0336669 0.0424267 0.00248276 0.0324415 0.0108125 0.0146513 0.0185554 0.0263489 -0.00263612 -0.0039865 -0.00571857 0.0441427 0.0383872 0.0253542 -0.0191497 -0.00479241 0.00986808 0.031153 0.0289008 0.0300709 -0.0129604 0.00649053 0.0413318 0.0269376 0.0236276 0.0295214 0.00236321 0.0259462 0.0242556 0.0275804 0.026846 0.0281867 0.0265371 0.0117823 0.00514194 -0.00106887 0.0248957 0.0137669 -0.00531871 0.0332639 -0.00471182 -0.00453242 -0.0126518 0.0209938 0.0382141 0.0439709 0.0224194 0.0253638 0.0296113 0.0211646 0.0134703 0.00494554 0.0462385 0.0281055 0.0127433 0.0270531 0.00502838 -0.010372 -0.00395371 -0.0103912 0.00322568 0.016574 0.0171227 0.0479416 0.0392558 0.0145843
internal_weight=9961.38 5110.95 2457.9 4850.43 2670.63 2055.75 2653.05 1960.16 2179.8 1703.55 2403.94 116.439 692.89 119.452 2287.5 1279.86 1946.3 1671.63 675.251 242.908 1840.71 352.197 345.956 1612.34 1110.5 849.729 769.077 886.19 646.26 449.353 427.568 239.931 449.982 351.78 1922 174.099 61.7192 269.771 77.8591 191.912 501.842 439.782 173.76 697.812 996.375 764.589 245.471 59.712 117.932 62.0592 87.2552 100.743 60.4179 71.2649 1007.63 102.722 904.913 200.991 44.4264 58.2957 260.771 214.379 94.4686 70.8725 185.759 235.537 226.408 196.907 143.951 49.8208 402.15 76.1849 155.265 703.921 577.11 564.933 231.785 80.6529 126.811 1821.26 799.944 1021.31 79.0185 720.925 663.608 523.391 781.736 735.875 677.937 140.216 45.8609 135.393 178.02 135.403 609.324 31.9238 48.1484 65.8664 50.2323 15.6341 239.577 152.084 178.099 159.462 228.364 104.601 75.6483 58.2483 178.526 87.4932 34.9297 168.626 22.7017 50.458 329.295 178.931 48.7353 30.4952 43.5845 393.672 121.467 57.5846
internal_count=32018 19166 10598 12852 6426 8820 8568 6067 6426 7111 5809 842 2501 329 4967 2308 5620 6913 2475 866 5738 1709 1143 5059 3469 2593 2277 1704 1295 726 586 409 1635 952 5549 1157 185 921 202 719 1590 1401 488 1972 4438 3414 825 157 324 189 696 470 235 305 2659 228 2431 358 96 132 876 694 242 161 668 856 803 569 501 156 1778 222 742 2073 1777 1748 1024 316 296 5079 2732 2347 238 2494 2382 1901 1865 1495 1372 481 370 947 464 651 2672 198 195 370 293 77 482 287 552 469 679 339 262 221 270 195 75 428 88 163 1332 643 158 90 157 604 178 164
is_linear=0
shrinkage=0.0199696


Tree=2
num_leaves=123
num_cat=0
split_feature=19 19 19 19 40 40 41 3 40 40 40 40 41 11 22 41 41 40 40 11 40 10 41 24 10 26 19 12 28 12 33 36 31 41 22 33 32 41 8 24 0 40 40 32 33 40 33 4 33 26 40 33 41 4 40 12 36 11 24 40 19 40 17 4 17 28 9 36 41 40 12 40 41 36 40 7 8 41 8 41 26 33 40 26 4 40 19 3 40 5 33 4 3 40 36 41 17 0 41 9 41 8 4 33 40 41 41 17 29 29 41 31 12 26 31 11 10 8 19 27 41 17
split_gain=3830.65 878.546 358.471 284.241 157.24 146.295 128.245 107.045 93.2795 89.2135 86.7882 84.7059 94.1771 80.2218 73.5679 73.1772 85.1902 68.8169 90.5218 64.9054 63.3795 62.5685 58.768 57.7362 57.5598 73.1525 58.6828 55.9004 67.2738 55.5115 54.2652 53.1683 53.1471 53.0293 51.45 51.2359 55.2539 54.86 51.1636 64.3398 50.0295 49.8531 54.3325 49.5718 68.7609 48.8778 56.3906 55.3656 48.0024 47.0688 46.0098 45.8244 45.0155 60.5217 44.7228 50.5847 47.2736 42.1886 48.4259 41.776 41.0185 40.3258 74.585 39.762 39.6753 49.5488 39.5423 39.0561 38.6716 53.3543 41.3479 56.2352 44.19 38.6513 38.4713 38.0801 54.8362 38.0153 37.9652 37.2696 40.4461 37.1117 36.7281 36.4065 44.3677 39.1111 36.0797 35.9396 38.9687 35.9306 45.6831 48.8501 40.6624 48.5754 36.3539 35.3113 34.8067 34.6415 34.4881 33.6163 33.3362 33.1482 38.3759 33.1261 33.0779 32.985 32.637 32.5043 31.9495 31.369 30.3441 30.1923 29.5457 29.5125 39.852 29.0892 28.1637 28.0564 40.5922 31.0682 27.7819 27.5699
threshold=0.027652796357870105 0.020112834870815281 0.012340522371232511 0.039837021380662925 0.10961809381842615 0.11022156104445459 -0.056943099945783608 -0.12331994250416754 0.11022156104445459 0.002342019928619266 0.070500560104846968 -0.032725065946578973 0.40941449999809271 62.272422790527351 0.26099912822246557 -0.0012504997430369256 0.023690758273005489 0.094171788543462767 0.10167237743735315 91.63181304931642 0.11775959655642511 10.253387451171877 -0.075907070189714418 0.66826689243316661 25.525414466857914 1.1978983879089358 0.020836109295487407 48.717153549194343 -0.032276846468448632 15.407578468322756 0.027887420728802684 0.07051334530115129 0.023091788403689865 -0.061225574463605874 0.11609445139765741 0.01285462034866214 0.0064743394032120713 0.007561680395156146 -2.65628969669342 0.97317939996719371 -0.051115717738866799 0.1183823272585869 0.11359268799424173 -0.001262659963686019 0.0028907855739817028 -0.0095814047381281835 0.0090380767360329645 0.010493665467947723 0.024014777503907684 0.89364224672317516 -0.075051207095384584 0.0049221233930438766 -0.010738861747086046 -0.01782488543540239 0.069662529975175871 71.355831146240249 0.095473080873489394 15.134444236755373 0.82140979170799266 0.093338664621114745 0.052189089357852943 0.11060167849063875 16.789537429809574 -0.011377437505871056 -12.897620201110838 0.030950380489230159 -0.80433276295661915 0.095473080873489394 -0.027416866272687909 0.0995374731719494 13.111936092376711 0.1006184220314026 -0.075302243232727037 0.024347819387912754 1.0000000180025095e-35 -2.4679116010665889 -3.3342865705490108 0.053703585639595992 1.5283817052841189 -0.072773404419422136 1.2446875572204592 -0.0088766845874488336 0.091932572424411788 0.65889421105384838 -0.052986018359661095 0.10311501100659372 0.030576993711292747 0.031696459278464324 0.12916906923055652 0.042571177706122405 0.031846409663558013 -0.00017435036716051397 0.12398953735828401 0.068906027823686614 0.033501068130135543 0.060739997774362571 -6.8461866378784171 0.015516426879912617 -0.0060794509481638661 -0.073497246950864778 -0.06758148223161696 6.1235344409942636 0.026769370771944526 0.017666478641331199 0.06661767885088922 -0.062831822782754884 0.030969119630753997 -26.863867759704586 -0.014128690119832752 0.032697577029466636 0.030969119630753997 0.30980560183525091 23.422630310058597 0.66422972083091747 0.090230382978916182 58.693038940429695 32.715717315673835 -0.81245657801628102 0.017515436746180061 0.018328860402107242 -0.047780036926269524 -17.192948341369625
decision_type=2 2 2 2 2 2 2 2 2 2 2 2 2 2 2 2 2 2 2 2 2 2 2 2 2 2 2 2 2 2 2 2 2 2 2 2 2 2 2 2 2 2 2 2 2 2 2 2 2 2 2 2 2 2 2 2 2 2 2 2 2 2 2 2 2 2 2 2 2 2 2 2 2 2 2 2 2 2 2 2 2 2 2 2 2 2 2 2 2 2 2 2 2 2 2 2 2 2 2 2 2 2 2 2 2 2 2 2 2 2 2 2 2 2 2 2 2 2 2 2 2 2
left_child=1 2 61 8 11 9 13 10 14 63 -8 12 50 23 21 34 116 43 22 24 64 -2 67 -3 25 26 82 28 110 -30 59 -31 73 -22 -13 36 -24 -37 51 48 -23 42 -28 81 78 -15 105 -48 104 103 -5 -26 68 98 75 66 -57 -27 -59 74 106 112 -63 -4 108 -66 -56 -19 70 111 71 -36 -72 107 -25 121 -77 -78 100 80 -61 -11 115 -16 -85 89 -87 -35 -89 92 91 -91 93 -86 -94 -68 -58 -50 -54 -71 -45 102 -46 -49 -40 113 -29 -12 -7 -55 -18 -70 -1 -47 -115 -9 -17 -20 120 -120 -119 -42
right_child=3 6 5 4 -6 20 7 19 -10 17 32 15 -14 45 83 16 27 18 117 -21 33 40 35 30 38 57 41 60 29 31 -32 -33 -34 87 52 37 -38 -39 39 -41 54 -43 -44 44 101 46 47 49 97 -51 -52 -53 53 109 55 56 96 58 -60 79 -62 62 -64 -65 65 -67 95 -69 69 99 72 -73 -74 -75 -76 76 77 -79 -80 -81 -82 -83 -84 84 85 86 -88 88 -90 90 -92 -93 94 -95 -96 -97 -98 -99 -100 -101 -102 -103 -104 -105 -106 -107 -108 -109 -110 -111 -112 -113 -114 114 -116 -117 -118 118 119 -121 -122 -123
leaf_value=0.0043894411008118337 0.048934439612505723 -0.0199285620485888 -0.012989458279070287 -0.016280346418016407 0.050533124236810667 -0.014141802615336535 -0.018488303951959703 -0.017388385070672488 0.038275710948428014 0.026142824998799715 0.044992408798459629 -0.0088926349709703423 0.04848461394296711 -0.022513497488676794 0.0053514374059386097 0.049812336330380562 0.013396321487616514 -0.011609568015767081 0.013037400063169897 0.028704601156132221 0.025304867067170892 -0.028088219356305098 0.014623397879048877 0.042547028119120964 -0.00088269223449857239 -0.0066215676087368197 0.024009158405153601 0.0086698224530672267 0.037434251299973173 0.0011746323033520608 0.053895281367097543 0.024843592810234787 -0.022172323094765415 -0.013695966906426193 0.007910420714357793 0.036639199451026526 -0.012690047847339823 -0.0058951804527458867 -0.012973893660434386 0.017794124834445205 -0.022085189413149655 -0.00036744827818986555 0.046937293701197001 0.028766065335427311 -0.0038113641492513442 0.043129155900494598 -0.014214814457093067 0.0061739066134823507 0.005092099887747171 0.0020294372909054779 0.016112616604675094 0.038309952558569588 -0.017377536434816061 0.041066241009272149 -0.016776097433133939 -0.023535830294745909 -0.013649312743623142 -0.01590508698652535 0.017243640385972481 -0.0054090174972118788 0.047597827054166257 -0.017422904157162109 0.03055524307875929 0.042867753743969901 0.030722596833373656 -0.014866221129618291 0.032904065644147003 0.025176768040325211 0.047164830092764377 -0.018227775941980894 0.037955279044740886 0.040588277999251618 0.026934230867904842 0.040566991375924483 -0.011987309969712772 -0.02835586425139908 0.0095577874578867822 0.027255873585574526 -0.016045744816640041 0.028405504862981368 0.031503588004615557 -0.014426564335758807 0.022682692117624352 -0.014960134565114537 0.024250358835217457 -0.002596593481905515 0.023745386894325402 -0.0066323228745879112 0.020933423595835554 0.057323228218778305 0.038637766990767153 0.012467731070522041 0.011606198267304831 0.033861030247793689 0.041946241882656603 -0.00013389552909228889 0.023538919570589741 0.036299478830833655 0.022118798330034179 0.031292159794086893 0.0069078895635409322 0.04252152760467507 -0.019395346687304558 0.035806142562377831 0.0042172518451767385 -0.0021675555055097667 0.037002929625076723 -0.0089583472919883573 0.019736673396317315 0.012211370113252419 0.038877658122960138 0.017852375826770878 -0.023072673703719071 0.024643723393601297 0.00017161583860546655 0.01423822657720588 0.037927955762946775 -0.019157467676273094 0 0.038546784361288111 -0.0029108941515583685 0.0094589653866652672
leaf_weight=15.876044303178785 26.667139381170273 52.925951920449734 6.0217328518629065 23.880129009485245 271.69249046593904 18.928657218813896 57.309041127562523 28.935168266296387 236.87050694227219 9.2200717628002149 6.0034007355570784 12.253408387303351 29.715150207281113 14.97945526987314 30.107414811849594 277.27824239432812 21.049694277346134 62.004902444779873 34.64231438934803 230.85172690451145 39.08721237629652 9.3184565007686597 156.56113642454147 5.4307889044284812 15.305644392967222 46.272759757936001 701.03543976694345 19.560532808303833 75.321706898510456 58.94232776761055 8.175911679863928 109.86802271008492 11.795516937971113 54.184092655777931 65.740671083331108 64.24913302063942 36.062522508203983 14.476663172245024 73.935093618929386 195.64377138763666 20.077847257256508 30.510958887636662 44.741268910467625 40.158194594085217 530.34209401160479 26.549181021749973 41.900734186172485 25.338400192558765 35.677649170160294 88.795473866164684 63.616528682410717 47.432172246277332 22.00111335515976 41.711831524968147 7.0270533561706534 13.560475051403044 11.848925590515135 19.02269534021616 196.5422407835722 57.507535830140114 193.50342005491257 48.145625419914722 17.589949227869511 26.296694122254848 124.27768811583519 10.023926757276056 184.64064139127731 14.033888667821882 165.10124822705984 8.8613137304782885 322.63012205809355 31.511483170092106 279.77153219282627 27.540701627731323 84.384368568658829 10.588885098695753 104.30439390987158 93.847326166927814 19.737430393695831 30.883791081607342 14.856259375810621 221.39506809413433 32.788664028048515 9.2899223640561086 458.99763413518667 28.934944905340672 68.430720806121826 39.843043319880962 41.304143071174622 10.558811411261557 46.258475326001644 138.82802069187164 18.227332852780819 405.12628398835659 173.27769660204649 13.30752597004175 57.295718379318714 24.43347080796957 14.656891874969004 13.701089493930338 95.954431168735027 5.6950516626238814 72.029798455536366 40.109178520739079 111.63263582438231 22.031335845589638 126.23969086259604 16.741818167269233 26.344846308231354 25.075180046260357 293.33020020276308 16.40661258995533 317.48298215866089 147.76634259521961 33.219214305281639 19.119118861854076 123.19477564096451 97.612379357218742 111.38557954877615 9.0363088771700841 76.119669750332832 24.148583717644215
leaf_count=97 33 183 56 231 617 89 144 131 806 52 10 26 146 149 162 426 29 182 149 679 210 32 537 29 60 182 1997 35 191 137 15 268 29 405 172 122 182 80 217 576 65 185 95 141 2451 55 145 100 110 316 465 129 59 85 25 37 55 82 612 165 205 310 60 142 342 37 414 40 242 44 826 47 1002 68 385 24 545 124 91 70 39 972 121 19 1380 106 242 302 240 16 120 460 44 1026 343 75 204 47 21 44 510 18 203 99 451 124 204 78 84 63 635 28 1311 460 167 64 178 355 424 22 382 69
internal_value=0.0191027 0.00702388 -0.00159109 0.0317116 0.0360546 0.00176545 0.0149576 0.0175589 0.0263682 -0.000657713 -0.000699082 0.0344353 0.0177216 0.00755758 0.024928 0.0352768 0.0384505 -0.00129846 0.0036095 0.0187394 0.0134474 0.0188836 0.0107244 -0.00134619 0.0173165 0.0198518 0.0226827 0.0349933 0.0310462 0.0230859 0.00349832 0.0166311 0.0155829 0.0048093 0.0312262 0.01508 0.00946448 0.0287075 0.0116711 0.00924293 0.0174101 0.0243729 0.0253967 -0.00464414 -0.00218075 0.0127124 0.0139727 0.00604675 0.00239762 0.0116076 0.00717187 0.0286109 0.0317229 0.0190436 0.0182107 0.0236281 0.0102806 0.0105511 0.0142777 0.00131729 0.041464 -0.018913 -0.00445064 0.0321908 0.0217886 0.0272547 0.0289708 -0.00470433 0.0331645 0.0409468 0.0308818 0.01859 0.0328516 0.0246136 -0.00859017 0.0120152 0.0155911 0.0179843 0.00963363 0.0100199 0.00205129 -0.0127662 0.00634452 0.0274327 0.0279159 0.0282177 0.0158283 -0.00104711 0.00729223 0.0291748 0.021168 0.0156987 0.0306503 0.0287664 0.0391044 0.0306392 0.0170398 0.0179242 -0.00134768 0.0114588 0.0134218 -0.00522318 -0.00568947 0.0244684 -0.00258556 0.0207064 0.0332619 0.00490866 0.00538035 0.0303651 0.0371995 0.0445639 -0.0217387 0.0231765 0.0202001 -0.00462426 0.0461788 -0.00388138 -0.00590368 0.00294862 -0.0120895 -0.00466616
internal_weight=10032.4 5124.25 2456.12 4908.16 2706.62 2057.03 2668.12 1973.27 2201.54 1703.04 119.39 2434.92 117.212 694.854 1964.67 2317.71 1298.29 1670.72 676.184 1853.88 353.994 576.633 347.388 254.165 1623.03 1118.97 857.131 897.816 558.512 244.132 201.239 168.81 62.0814 174.418 1019.42 271.349 192.624 78.7258 504.06 441.323 549.966 776.288 745.777 994.532 763.917 440.689 425.71 196.144 245.679 154.243 87.4967 62.7378 1007.17 103.445 540.647 287.68 82.7051 261.838 215.565 193.063 339.304 399.095 65.7356 32.3184 179.575 134.302 204.975 76.0388 903.724 204.07 699.654 97.2522 602.402 50.2859 89.8152 252.967 208.741 198.152 155.85 103.248 72.3638 230.615 80.843 1388.04 1357.93 1348.64 97.3657 135.331 81.1472 1251.27 195.645 149.387 1055.63 864.124 191.505 197.948 69.1446 60.1111 36.658 22.5624 136.113 608.067 602.372 65.4476 185.568 229.566 145.8 22.7452 45.2735 66.787 314.38 181.508 333.359 207.535 180.986 48.0543 400.473 328.796 294.154 120.422 173.732 44.2264
internal_count=32018 19166 10598 12852 6426 8820 8568 6067 6426 7111 329 5809 842 2501 5620 4967 2308 6913 2475 5738 1709 1702 1143 886 5059 3469 2593 1704 1260 596 703 405 185 1157 2659 921 719 202 1590 1401 1669 2277 2092 4438 3414 1615 1466 660 825 515 696 189 2633 228 1637 810 296 876 694 688 444 1778 370 198 552 379 514 222 2405 358 2047 219 1828 156 414 827 693 669 742 274 204 1024 316 3918 3756 3737 348 947 542 3389 596 476 2793 2406 387 489 259 157 80 88 651 2672 2654 199 668 806 239 88 173 148 664 270 1408 682 627 195 604 1332 1183 446 737 134
is_linear=0
shrinkage=0.0199696


Tree=3
num_leaves=123
num_cat=0
split_feature=19 19 19 19 33 22 4 4 33 20 37 26 5 23 22 10 31 19 14 19 20 5 9 10 4 30 10 26 9 26 23 31 20 31 19 13 26 14 6 7 15 30 18 16 16 33 23 26 20 14 37 20 31 23 5 10 10 22 27 5 5 20 10 33 38 33 23 15 20 6 33 33 23 23 15 23 9 30 25 20 20 33 31 19 31 33 23 23 37 6 14 11 19 38 10 18 14 22 7 14 15 23 10 20 15 25 16 15 14 0 15 16 23 31 1 15 30 26 13 14 30 33
split_gain=3605.44 837.593 346.966 265.306 90.0051 87.8495 84.392 66.3234 72.3233 61.1837 59.7604 58.9683 54.4499 53.8148 63.6129 50.2735 49.9786 49.0502 57.731 45.9392 67.977 60.229 53.5605 44.6434 44.4288 42.8542 42.3196 41.7362 49.2753 69.2444 67.7449 40.2907 46.8002 43.6111 40.1481 39.4903 39.1599 47.3358 38.7899 38.6842 44.8077 38.8837 37.6094 52.9126 40.0524 36.6706 64.6996 46.0989 46.0471 36.6414 80.5877 59.7907 42.2776 42.2314 50.2566 37.0414 36.363 35.9743 40.5358 35.3157 35.2324 38.036 35.8298 35.0234 33.8166 33.7947 33.5449 33.0597 33.0031 32.8376 55.037 89.7533 32.2259 48.665 41.9866 40.9703 48.9511 47.7615 31.5718 31.2543 58.7952 43.6675 82.823 32.4481 31.875 30.642 30.5173 29.5852 28.5636 28.2793 28.119 28.0745 27.9393 35.0871 27.4717 46.9403 27.115 26.5772 27.7133 26.1554 25.7382 57.2959 25.71 25.424 50.211 25.1789 24.6257 24.621 24.4618 23.8984 23.6645 23.5577 23.526 22.7982 23.5749 22.6722 33.1289 90.7411 22.6693 43.4313 22.348 22.1045
threshold=0.027652796357870105 0.020112834870815281 0.012340522371232511 0.041546221822500236 -0.014256014022976158 0.27534137666225439 -0.020826407708227631 0.030009303241968158 0.013240445405244829 0.043914943933486945 0.017770166508853439 0.60741326212883007 0.025875996798276905 0.28956316411495214 0.23138438910245898 11.248203277587892 -0.0015380334225483237 0.021894893608987335 10.741279602050783 0.069857791066169753 0.60188552737236034 -0.10788500681519507 0.0097220302559435385 16.678366661071781 -0.052986018359661095 -0.082904998213052736 24.460607528686527 1.1978983879089358 0.11852534487843515 0.6456015706062318 0.27265620231628424 0.12020573765039445 0.10298961773514749 0.085895892232656493 0.01455429056659341 -6.4201462268829337 1.0843683481216433 -4.274301052093505 24.085818290710453 -4.5235989093780509 1.2618458867073061 -0.15727121382951734 0.070266045629978194 -4.2863614559173575 -1.8685367107391355 0.0032831249991431837 0.29782381653785711 1.0180068612098696 0.078109029680490508 -5.2412610054016104 0.1673420071601868 0.4172732830047608 -0.11582027003169058 0.37709765136241918 0.030538466759026054 38.212442398071296 14.094863891601564 0.36145578324794775 0.0018140339525416496 -0.079516194760799394 -0.0052900284063071004 0.13862706720829013 21.999076843261722 0.018654208630323414 3.5000000000000004 0.010427093133330347 0.68175193667411815 -1.2347801923751829 0.033326679840683944 65.20245742797853 0.016992576420307163 0.012178341392427685 0.2394131273031235 0.18839797377586368 -0.91209837794303883 0.25963236391544348 0.08660569787025453 0.003206876572221518 0.94951355457305919 0.080923743546009078 0.064801722764968886 -0.011645860970020292 -0.16219748556613919 0.028295387513935569 -0.055559359490871423 -0.0048087651375681153 0.20928797125816348 0.49204915761947637 0.083351533859968199 31.984563827514652 12.04981851577759 19.632446289062504 0.029480797238647941 6.5000000000000009 12.096644401550295 0.09749543666839601 -12.998763084411619 0.32145640254020696 0.69881615042686474 8.7993626594543475 0.27861221134662634 0.30548378825187689 45.581478118896491 0.03162521310150624 0.64088040590286266 0.68869289755821239 -5.5082619190216056 1.4451750516891482 0.48980049788951879 0.019045047461986545 0.38363291323184973 -0.091077301651239381 0.093040764331817641 -0.076937023550271974 0.021566412411630157 1.4451750516891482 0.034968089312314994 1.2154417037963869 23.365493774414066 6.4110715389251718 -0.0087911766022443754 -0.012061271350830792
decision_type=2 2 2 2 2 2 2 2 2 2 2 2 2 2 2 2 2 2 2 2 2 2 2 2 2 2 2 2 2 2 2 2 2 2 2 2 2 2 2 2 2 2 2 2 2 2 2 2 2 2 2 2 2 2 2 2 2 2 2 2 2 2 2 2 2 2 2 2 2 2 2 2 2 2 2 2 2 2 2 2 2 2 2 2 2 2 2 2 2 2 2 2 2 2 2 2 2 2 2 2 2 2 2 2 2 2 2 2 2 2 2 2 2 2 2 2 2 2 2 2 2 2
left_child=1 2 65 5 6 15 89 8 12 -6 13 -10 16 67 -15 110 68 42 27 20 49 -22 -23 56 -7 39 -8 28 30 -30 -19 32 33 -25 94 92 37 -36 -26 -17 41 -41 72 -44 -45 46 48 59 -37 -5 52 53 -51 -52 55 -55 -13 102 -59 -48 -47 -62 -63 -33 -16 99 -53 -11 -4 105 71 -71 73 74 -12 77 -77 -74 -56 80 -40 97 -83 84 -84 -85 -38 -21 -46 -3 91 -70 120 113 95 -18 -75 -81 -99 -1 101 -66 -29 -101 -105 108 -100 -102 -69 -72 -2 -34 -67 -94 -115 -89 117 -117 -54 -120 -27 -68
right_child=3 4 7 19 9 24 26 -9 11 10 17 23 -14 14 64 25 34 18 -20 87 21 22 -24 31 38 35 -28 57 29 -31 -32 63 111 -35 36 45 86 -39 79 40 -42 -43 43 44 88 60 47 -49 -50 50 51 66 118 54 78 -57 -58 58 -60 -61 61 62 -64 -65 100 112 121 69 90 70 109 -73 75 96 -76 76 -78 -79 -80 81 -82 82 83 85 -86 -87 -88 115 -90 -91 -92 -93 93 -95 -96 -97 -98 98 106 103 107 -103 -104 104 -106 -107 -108 -109 -110 -111 -112 -113 -114 114 -116 116 -118 -119 119 -121 -122 -123
leaf_value=-0.022283670220851336 0.028738174872803456 -0.0081271238229523347 -0.021923015938760899 0.038917738090713014 0.045192946587038908 -0.0073046573012676879 0.014579504211534245 -0.01848006299728492 -0.019772108915691037 -0.011001846371376689 0.059457178533296656 -0.0092820174073609801 -0.013247968673446407 -0.0052749073613735055 -0.016509746022053001 0.042494144959344629 -0.019199805669698117 0.021062103137434129 -0.0051762506304962094 0.017732154001320232 -0.018793622369357804 -0.0074475664295345079 0.045099865146108198 0.0086648007220521857 -0.0050074922726234244 -0.023216470637286598 -0.02419312123924099 0.0017428800928919665 -0.012887702572813254 0.028025003980646838 0.0094164909863631921 0.045599279735897419 -0.021823950263769373 0.036070393446393914 -0.0035416179663130252 0.027372205631639571 0.005061616816390886 0.013443870154623956 0.0081773151172247482 0.026611468134187022 0.031715806371050467 -0.022107161871339584 0.048678334529926072 -0.0034741618036716521 0.02033020595844694 0.047661482992704507 0.043784255212919274 0.041467624107065212 -0.010369476003653863 0.00025471259990250548 -0.014332095531837332 0.052053131166946764 0.036886574195526267 0.028497752362640526 -0.028745842932360252 0.0090869197519380766 0.037271314876620186 0.0070217256238242895 0.032522994485623603 0.015861590879408784 0.034030552745148393 0.029892799332812241 0.0050012669154467842 -0.0051945002049517998 0.037247913451202284 0.023861880098703069 -0.00075806664496372875 0.039408818016801933 -0.0067025288616512453 0.020078845630315114 0 -0.020978018973747865 0.0027031261756358168 0.020395765707164525 0.0048151472224348766 -0.012349223925828927 0.020954503439658465 0.04427839829459046 0.014176162012620187 0.048362201445521315 0.045938025435049885 -0.022088577871633829 0.037041014544784361 0.01979980399770561 0.0055505707910220182 0.029507278678659658 -0.0120496951562545 0.041951860419194256 -0.0041117129326775142 0.03014209304224515 -0.020943400448113828 0.0023503512612181037 -0.0017117594881584286 -0.011832242929612123 -0.0080609717873162748 0.043172251768779084 -0.011646948541737314 0.039530331078067554 -0.027060567498970435 -0.025971721691249901 0.036645101849057254 -0.0034084481155237227 0.042726014612903568 0.038978055954358964 -0.020533356846558031 0.032684339962032023 0.025444960981452169 0.011065263144939922 -0.0014447704961983896 0.031928985938260435 0.058820007653583917 0.00091083276181539005 -0.01121072524998009 0.031654518913901052 0 -0.0075080900869369848 0.047691430584561836 0.043954318847992314 -0.013738602732982807 0.032788337619561896 0.0093629164747722309 0.04620230348953136
leaf_weight=325.31130619347095 29.119527608156204 10.007951080799101 33.477566793560982 496.82074752449989 27.357529386878014 13.230867341160772 13.747097685933111 62.688483722507954 25.573921643197536 10.157265424728392 7.8769310712814358 7.6884692907333365 109.18275997042656 61.448600634932518 9.7617288976907712 8.5803375840187055 7.9927704259753254 400.49429561197758 53.268360987305641 24.99634125828743 17.776001192629337 11.608647942543028 21.722871206700802 218.45310889929533 12.89493792504072 15.046331383287905 55.866526201367378 166.88945380598307 17.385555535554886 244.46098513156176 404.15723659098148 20.393634319305423 24.338288895785809 26.232756569981575 79.153615713119507 17.992627672851086 126.60587222129107 357.44866663962603 20.550694674253464 7.9241633489727965 11.456259369850157 34.23754595220089 16.305625885725021 54.089303344488144 122.26277040690184 35.217096954584122 20.614584714174271 44.779847577214241 45.377461142838001 13.753535374999045 12.437008686363695 44.784921400249004 871.32282484322786 240.19805559515953 11.125977396965029 48.53400956094265 40.077567532658577 57.821506693959236 45.123846061527729 178.39263715595007 103.94920656830072 42.753728456795216 52.263081267476082 6.9673563167452803 21.631123572587967 11.238096401095389 9.6447389572858828 8.4263933300972003 204.2810800075531 77.760388270020485 10.722897090017794 29.029328763484955 20.7608402967453 11.41764374822378 20.898390047252178 42.939240179955959 29.759917035698891 24.668650485575199 17.545752987265587 59.274785965681076 95.943784289062023 13.409422546625136 17.593615815043449 155.51550172269344 50.624841161072254 1019.1979741454124 61.800932846963406 581.12873430550098 21.913244105875492 29.262386552989483 28.527161508798599 411.09124998748302 13.514364041388033 14.774373151361941 125.30694276094437 11.591226600110529 114.12174867838621 95.304531134665012 3.5929382592439643 13.34561764448881 53.737082839012146 37.364495299756527 6.365845873951911 11.165280878543856 11.262712895870207 200.3008723333478 68.508402556180954 22.351121172308922 17.825824894011021 102.65960809588432 18.235358759760857 69.193818002939224 23.697610519826412 54.638532914221287 11.634796284139155 24.314224794507027 29.62982427328825 30.470572896301746 10.251637846231459 33.040646336972713 18.559929974377155 6.4213301911950103
leaf_count=1418 62 33 83 1054 47 29 80 185 54 53 11 52 602 323 45 12 35 1223 216 49 48 39 35 844 47 47 123 608 59 642 1276 43 105 73 380 32 568 1533 42 12 27 120 33 206 425 55 35 108 151 31 27 72 2045 698 28 109 107 219 128 659 219 137 227 45 50 56 49 15 938 299 29 113 75 27 80 192 85 47 38 140 187 68 28 618 163 2807 291 1270 88 47 134 1718 41 43 700 26 452 271 6 40 144 126 10 32 63 546 255 84 73 236 14 304 169 145 57 80 42 71 28 86 66 23
internal_value=0.0185961 0.00686594 -0.00156168 0.0307363 0.0145795 0.0259604 -0.00313796 0.00172828 0.00236757 0.0153325 0.0150081 0.00952759 0.000342845 0.0201881 0.0116398 0.0204074 0.0013742 0.0131791 0.0150893 0.0352233 0.0335648 0.0106021 0.0265403 0.0113617 0.0286162 0.0190941 -0.016411 0.0158998 0.0176998 0.0252751 0.0152237 0.00895496 0.00703613 0.0116394 0.00485893 0.0205694 0.00706005 0.0103446 0.0289163 0.00307295 -0.00307802 -0.0127418 0.0076857 0.0139486 0.011047 0.022943 0.0183265 0.0229996 0.000211165 0.0342062 0.0324249 0.0247422 0.0356485 0.0213336 0.0227588 0.0252653 0.0295959 0.0089174 0.0182854 0.0187991 0.0289603 0.025605 0.0162942 0.0323493 0.0188755 -0.0186808 0.0430713 0.0240286 -0.0025737 0.0248447 0.0192422 0.00883613 0.00272102 -0.00324502 0.020085 0.0105879 0.00116507 0.0254733 -0.00217946 0.0291953 0.0393521 0.0283914 0.0269092 0.0274449 0.0138022 0.0282297 -0.000505327 0.0396944 0.016555 0.0201683 -0.00155398 -0.000640795 0.0104758 0.0160558 -0.00457585 0.0172751 -0.00866257 0.0365672 0.0323371 -0.0204953 0.0214976 0.0113538 0.00330044 -0.00398877 0.0087086 0.0302503 0.0227058 0.0292468 0.0113442 0.0289655 0.0405122 -0.00491331 0 0.0213293 0.0261586 0.0405061 0.0304474 0.0209579 0.0361712 0.0215697 -0.0049669 0.017482
internal_weight=10098.7 5136.49 2454.09 4962.23 2682.4 2404.7 108.884 2058.07 1995.38 2573.52 2546.16 438.919 1556.46 663.177 206.294 779.062 1447.28 1882.98 1395.97 2557.53 1866.99 51.1075 33.3315 413.345 1625.64 731.707 69.6136 1342.7 1066.5 261.847 804.652 365.579 338.218 244.686 769.9 669.509 625.009 436.602 1612.41 62.1983 53.618 42.1617 487.014 214.571 198.265 541.34 307.157 243.787 63.3701 1815.88 1319.06 390.692 928.369 329.841 317.404 288.732 47.766 276.201 102.945 199.007 234.183 198.966 95.0168 27.361 144.846 396.021 60.851 456.883 677.377 446.725 220.172 106.79 272.443 154.315 28.7753 118.129 72.6992 45.4295 28.6717 1599.52 116.494 1483.02 1256.34 1242.93 68.2185 1174.71 188.407 690.54 144.176 39.2703 643.899 615.372 128.168 94.5621 144.891 19.584 125.539 226.681 167.406 361.085 135.084 58.9956 173.255 35.7736 22.428 226.553 72.1013 76.0882 26.2522 113.383 47.3549 93.5321 34.9357 79.7877 66.2733 665.543 84.4146 54.7848 914.615 43.2923 33.6063 16.0661
internal_count=32018 19166 10598 12852 8568 6930 283 8820 8635 8285 8238 1627 7008 2136 772 2269 6406 6102 4381 5922 4410 122 74 1573 4661 2193 203 4165 3200 701 2499 1414 1326 917 3533 2022 2772 1913 4632 171 159 132 1721 752 719 1623 985 802 183 4288 3234 1044 2190 900 873 807 159 965 347 694 638 583 364 88 449 1778 144 1364 2873 1311 677 412 969 570 91 399 277 122 66 4585 229 4356 3684 3616 191 3425 859 1512 513 80 2790 2656 399 286 761 61 479 672 532 1553 404 176 618 135 95 634 261 228 88 265 76 409 225 243 202 1463 193 151 2159 114 113 72
is_linear=0
shrinkage=0.0199696


Tree=4
num_leaves=123
num_cat=0
split_feature=19 19 19 19 40 40 41 3 40 40 40 37 40 41 6 32 40 40 41 40 40 6 40 40 11 22 41 40 8 41 3 13 32 22 29 4 8 3 24 30 14 22 40 13 32 40 40 32 27 16 40 5 40 19 8 15 32 8 32 40 41 4 40 13 39 40 5 17 30 29 40 24 41 40 40 40 4 5 39 9 40 16 4 23 8 8 0 8 41 41 30 41 9 24 29 40 19 9 22 9 15 29 22 23 30 3 5 41 5 17 13 19 8 23 3 11 8 19 27 41 9 16
split_gain=3398.32 798.844 335.871 248.329 142.641 139.041 120.251 97.5143 86.0603 84.8619 81.5496 81.4287 78.3715 87.0811 70.1586 67.914 67.113 86.1617 65.8618 79.1163 111.338 66.9292 62.8267 59.6654 59.3897 59.1663 57.0262 56.9937 56.9454 50.564 50.0716 49.2761 48.7543 48.7462 67.3286 47.684 71.2928 49.9996 67.5883 47.4456 46.8384 46.6063 45.0825 80.4941 69.558 58.5339 46.4465 46.2972 43.7004 43.441 43.4247 43.2203 42.5389 65.9438 54.007 54.8243 48.1767 42.4943 44.7905 41.9469 41.673 55.8961 39.0427 73.134 38.9604 37.9202 37.8412 36.9536 36.6079 36.0467 35.7694 35.867 35.1635 49.2153 34.5735 34.0838 36.5264 39.2307 40.2792 49.4155 39.4855 35.6987 34.018 33.8252 33.8177 33.4771 41.5302 33.317 32.9852 34.1383 32.9609 32.3874 31.5293 31.0697 30.9867 30.8207 30.6229 30.4709 30.3983 45.4947 30.0035 29.9444 37.0443 29.8105 33.0504 31.146 44.32 29.7258 29.447 36.5618 29.1433 28.321 34.8906 27.6151 27.439 27.3955 26.9715 38.7961 29.0959 26.9743 26.7297 26.5446
threshold=0.027652796357870105 0.020112834870815281 0.012340522371232511 0.039837021380662925 0.10961809381842615 0.11022156104445459 -0.055384417995810502 -0.12331994250416754 0.11022156104445459 0.011739695444703104 0.070500560104846968 0.043814530596137054 -0.032725065946578973 0.40941449999809271 24.085818290710453 0.02520257513970137 0.094171788543462767 0.10167237743735315 -0.0012504997430369256 0.067508082836866393 0.057168101891875274 55.617269515991218 0.065867461264133467 0.11775959655642511 91.63181304931642 0.26099912822246557 0.045781448483467109 0.081075403839349761 0.64100995659828197 -0.061225574463605874 0.12048631161451341 -7.9543769359588614 -0.001262659963686019 0.20732460170984271 -0.011793422047048805 0.023709885776042942 1.4038379192352297 0.26265236735343939 1.0767315030097964 0.044623816385865218 -6.1733553409576407 0.11609445139765741 0.057168101891875274 -8.2841863632202131 -0.010004969779402016 0.065285433083772673 0.11022156104445459 0.0020399749046191577 -0.050660356879234307 1.1576660275459292 -0.075051207095384584 0.025488186627626423 0.038532512262463577 0.069857791066169753 0.050464916974306114 0.069923203438520445 -0.051298068836331361 0.51823139190673839 0.01394164375960827 0.027643014676868919 -0.010738861747086046 -0.01782488543540239 0.11060167849063875 5.3872041702270517 2.5000000000000004 0.075699537992477431 0.051310729235410697 -12.897620201110838 -0.030295719392597672 0.032041797414422042 0.002342019928619266 1.2980820536613467 -0.027416866272687909 0.0995374731719494 0.14232447743415835 0.10311501100659372 -0.052986018359661095 -0.039563987404108041 2.5000000000000004 -0.55158933997154225 0.083589576184749617 0.33817483484745031 -0.011377437505871056 0.30367252230644232 -0.41439397633075709 -3.0313712358474727 -0.001980632077902555 -0.22606077045202252 -0.075907070189714418 -0.10718514025211333 0.072128202766180052 -0.0060794509481638661 -0.073497246950864778 1.2550201416015627 0.014408933464437725 0.094171788543462767 0.018596966750919822 -0.052972799167037003 0.33163462579250341 0.14125114679336551 0.27023780345916754 -0.0084272865206003172 0.17650509625673297 0.27265620231628424 0.12105325236916543 0.21380700170993808 0.0042895623482763776 -0.075302243232727037 0.071500413119792952 -14.872859954833983 1.3263362646102907 0.018017254769802097 -0.025832243263721463 0.31525118649005895 0.012736726552248003 16.959899902343754 -0.81245657801628102 0.017515436746180061 0.018328860402107242 -0.047780036926269524 -0.36665004491806025 3.3898606300354008
decision_type=2 2 2 2 2 2 2 2 2 2 2 2 2 2 2 2 2 2 2 2 2 2 2 2 2 2 2 2 2 2 2 2 2 2 2 2 2 2 2 2 2 2 2 2 2 2 2 2 2 2 2 2 2 2 2 2 2 2 2 2 2 2 2 2 2 2 2 2 2 2 2 2 2 2 2 2 2 2 2 2 2 2 2 2 2 2 2 2 2 2 2 2 2 2 2 2 2 2 2 2 2 2 2 2 2 2 2 2 2 2 2 2 2 2 2 2 2 2 2 2 2 2
left_child=1 2 62 8 12 9 11 10 14 82 -8 27 13 50 115 70 32 28 41 20 52 22 -22 67 35 31 108 -3 33 -25 87 -16 111 68 -35 36 42 38 -37 49 -40 -14 43 59 -45 47 -47 -44 -24 -12 -5 101 54 56 55 -20 -54 58 -53 -9 72 91 -1 -64 85 -38 83 96 -18 121 -13 110 84 -74 114 76 -27 98 79 -79 -80 -77 -4 88 97 -33 -87 -29 89 -32 -67 -62 -75 -42 -39 -73 -7 -43 -78 -100 -63 -34 -103 -26 105 106 -105 -86 -21 -110 -72 -11 -113 -88 -31 -2 -19 119 -119 -118 -56 -69
right_child=3 6 5 4 -6 23 7 24 -10 16 39 15 18 -15 25 -17 17 116 19 26 21 -23 48 29 103 75 -28 30 -30 74 66 64 51 34 -36 37 65 94 40 -41 93 60 45 44 -46 46 -48 -49 -50 -51 -52 57 53 -55 120 -57 -58 -59 -60 -61 61 100 63 -65 -66 90 -68 69 -70 -71 71 95 73 92 -76 81 77 78 80 -81 -82 -83 -84 -85 107 86 113 -89 -90 -91 -92 -93 -94 -95 -96 -97 -98 -99 99 -101 -102 102 -104 104 -106 -107 -108 -109 109 -111 -112 112 -114 -115 -116 -117 117 118 -120 -121 -122 -123
leaf_value=-0.02127026642079894 -0.025587369509785133 -0.0010744975965437478 -0.011382479156897145 -0.016510529664463727 0.047416542464072627 -0.0049072693926479199 -0.018126974373203361 0.033616141831568809 0.036168841630979713 -0.018736099101145685 0.034288598512131327 0.035106981737640382 -0.0088928875111311447 0.045479823367590377 0.0041374841533801665 0.056851870648784622 0.025752781703052022 0.012677785932947371 0.040954680288098587 0.04909532340389066 -0.014295072851485896 0.042853499515808288 0.051272038876590285 0.024556723307593752 0.033939676977247493 -0.013494647141659506 0.032041946074729766 0.048369969410103082 -0.0067278713145076576 -0.018651232140920321 0.0069946866656441908 -0.0051407849494014488 -0.0066520453516629319 -0.0037479760542802965 0.033641919396760922 -0.0091117357726876701 0.047514041962196656 -0.001435913304896963 0.042141439109614355 -0.027333781140476084 0.033348704231828494 0.030576495230939194 -0.024715812369717125 -0.0058885174842676843 0.029750664713595866 0.013187952540652623 0.025117642561379928 0.011782862657785645 0.0011426322435329189 -0.0039511968347722562 0.014815097549859735 -0.012512283896229907 -0.014017271119105425 0.041112828588022163 0.018345210352961345 0.01370294969082738 0.025878235878834345 -0.021458332050847951 0.0058801076511661755 -0.0013612660617420157 -0.017481752267299193 0.034904397304814115 -0.017141306005126693 0.030410062436639504 0.013292625070599204 0.030571717307756204 0.025225806438377314 0.03270059473771246 0.0031728981205604839 -0.00063796977125505575 -0.016896865819753377 -0.0089292507558377428 0.041859782495504573 -0.01843715819215648 0.029824100251484208 0.0050454753796577026 0.045627279114348412 0.042404192262391734 0.016823633381805869 0.026729947490998197 0.029839816602448267 0.029102176719736004 0.03682854752270287 0.022661354219199167 0.035842737131674053 0.035347568064619583 0.007063783495225814 0.019737078485729084 0.011772242640207703 -0.022322449022822197 -0.0060942096867368303 0.020523172441330107 0.029231512558367274 -0.011905974545608565 0.037747434635179503 0.023320989517264228 0.031258558432223686 0.013485365852481553 0.03925859454833161 0.010532108375194816 0.00088003552275648289 0.010122640759698185 -0.0031455849856076084 0.028351498970479956 0.038813291134797985 0.032979924863064093 -0.0080507682667406346 0.02623615513046245 0.016945976588371159 0.0437256407375929 -0.00012117599700560377 -0.012542890336981565 0.013820120057318301 0.025114985624331395 0.0017718187195170474 0.0185999468270884 -0.018924750185981117 0 0.036897967231934274 -0.0028854465470789692 0.052056366487216739 -0.0041348374169729862
leaf_weight=327.63448665291071 15.927103787660601 103.65284679085016 6.7941937297582617 24.035822086036205 279.42742189019918 32.404421664774418 56.631812393665314 16.803553089499474 242.11717376857996 133.71684740483761 36.819378338754177 8.7599747627973539 12.248825222253798 30.555323921144009 83.611769415438175 7.4557607024908057 36.162756644189358 34.833020403981209 85.066092990338802 299.39799864590168 41.217433720827103 20.093874640762806 12.989975370466711 39.455596275627613 127.4379850551486 8.5299301445484144 178.57223568111658 18.370548233389854 62.933915972709656 37.581012174487114 25.050578035414219 13.432494193315504 131.56896125525236 24.570407204329967 81.784885577857494 90.610961124300957 45.860969826579094 10.686306066811083 21.44592110812664 8.8955605477094633 8.9039834067225474 77.15427228063345 26.741872452199459 23.225970096886158 283.47796116024256 740.05541104078293 160.69050835072994 28.429846316576004 15.654803700745104 16.8969571813941 64.79324447363615 111.48055095970631 12.444801859557627 141.6888617053628 11.011410258710383 46.7680649086833 230.35021261870861 73.953380651772022 99.599406555294991 71.161566689610481 22.061537377536297 54.938253857195377 47.714701645076275 17.607807099819183 177.45952650904655 44.471801787614822 37.879543997347355 111.15919798612595 143.73063457012177 16.719996511936188 103.34148253500462 20.36730107665062 186.30141296237707 8.9115327596664446 12.973517678678034 61.557773493230343 78.449311435222626 95.698238044977188 294.04374638199806 586.53468741476536 140.59005718678236 42.223565101623535 32.578642979264259 26.637251891195774 292.98099540919065 126.03854701668024 48.709089525043964 181.15570943057537 39.972386501729488 41.422564923763275 12.051846027374266 14.958839789032934 14.028617970645426 18.627267733216286 28.122298717498779 27.255964457988739 12.968563035130499 96.432437211275101 59.409681499004364 36.439461536705494 13.38126354664564 199.35497347265482 143.5680390521884 20.685537345707417 26.502099424600601 22.088687427341938 37.013842009007931 248.43906429409981 29.251680679619312 77.30522845685482 70.531912505626678 63.924937710165977 28.913926668465137 122.70633188635111 84.843298271298409 8.4051039665937406 96.898837760090828 111.58475086838007 9.2009814754128438 76.077317468822002 128.79917843639851 7.9431323558092108
leaf_count=1408 55 716 63 231 617 136 144 90 806 550 82 50 26 146 246 9 103 149 202 369 198 39 15 210 337 18 575 34 249 286 71 31 650 90 164 356 80 51 55 18 30 195 146 113 684 2260 590 98 43 85 465 558 17 139 14 175 286 242 312 146 59 114 301 69 573 122 90 268 537 74 391 99 270 44 81 223 134 174 850 1653 421 144 185 105 751 247 145 454 131 113 46 21 44 56 68 68 37 251 147 110 34 978 644 74 69 64 128 850 40 71 245 320 134 433 580 16 355 424 22 382 125 37
internal_value=0.0181099 0.00671208 -0.00153289 0.0298136 0.0338199 0.00169168 0.0142142 0.0167435 0.0248572 -0.000675956 -0.000694175 0.00715154 0.0322916 0.0163582 0.0234832 -0.00235667 -0.00136668 0.0034635 0.0330897 0.0360626 0.0317026 0.010727 0.00135911 0.0130419 0.017863 0.0238997 0.0416123 0.0119368 0.0103771 0.00465605 0.0156004 0.0184336 -0.00469549 0.0141682 0.0249227 0.0165006 0.0177005 0.00667823 0.00103855 0.0149351 0.0199933 0.0292843 0.0164699 0.0221868 0.0270234 0.0141004 0.015326 -0.00575153 0.0241855 0.0220992 0.00624044 -0.00225642 0.034565 0.0302015 0.0407082 0.0313542 0.0237972 -0.00840698 -0.00379265 0.00522359 0.029747 0.0176526 -0.018453 -0.00418895 0.0208635 0.0338472 0.00759193 0.0210859 0.00776106 0.0263145 -0.00431319 -0.00591245 0.0311159 0.0384455 -0.00107986 0.026121 0.0270088 0.0272831 0.0258802 0.0289417 0.0210543 0.0149179 0.0282881 0.00250647 0.0289584 0.0251567 0.0265542 0.0224184 -0.00245664 -0.0111439 0.0226004 -0.0018895 0.0103351 0.00241905 0.0267357 0.00934662 0.00524132 0.0211328 0.0362214 0.0284296 0.0283682 0.00142006 0.00454248 0.0273345 0.0193317 0.0127492 0.00485085 0.031451 0.0458001 0.0364572 -0.010142 -0.0128338 -0.00423836 0.0200367 -0.00442723 -0.0099658 -0.00385692 -0.00584735 0.00277899 -0.0119211 0.0494644 0.0301709
internal_weight=10161.6 5148.43 2452.24 5013.14 2771.26 2059.28 2696.19 1984.34 2241.88 1703.23 119.244 711.854 2491.83 119.384 1999.77 237.712 1663.86 677.778 2372.45 1330.61 746.085 89.9561 69.8622 356.049 1865.1 1975.43 584.527 474.141 349.183 174.853 370.489 571.958 986.081 286.249 106.355 1631.37 1452.97 178.397 139.588 62.6119 48.9772 1041.84 1350.59 394.669 306.704 955.918 900.746 55.1717 28.6448 53.7163 88.8291 759.525 656.129 384.484 271.645 131.834 242.795 285.033 211.08 87.9651 1029.59 105.34 392.957 65.3225 488.346 102.385 170.962 181.195 179.893 135.822 230.257 221.497 924.248 209.242 135.398 1403.48 1299.7 1291.17 1116.87 682.233 434.634 103.781 39.3728 133.083 715.007 310.886 297.454 199.526 106.446 66.4731 56.5236 37.0204 22.9402 27.5313 38.8086 47.6233 45.373 173.587 174.298 95.8491 68.3195 474.492 342.923 233.728 106.29 79.7881 57.6994 541.42 405.955 106.557 173.873 226.556 92.8389 171.415 122.424 24.3322 328.595 293.762 120.786 172.976 139.811 119.102
internal_count=32018 19166 10598 12852 6426 8820 8568 5992 6426 7111 329 2576 5809 842 5620 862 6863 2475 4967 2308 1253 295 256 1709 5663 5549 1055 1714 1143 1157 998 1675 4388 894 254 4991 4375 616 497 185 141 2659 4127 1033 797 3094 2850 244 58 167 696 3384 958 442 516 377 303 1112 870 236 2633 228 1778 370 1429 248 510 552 640 379 853 803 2405 358 947 3874 3507 3489 3098 1827 1271 367 248 420 2047 856 825 488 315 184 168 80 88 86 119 167 173 446 391 257 148 2272 1622 672 335 266 202 1601 480 111 636 1004 454 578 866 71 1332 1183 446 737 139 305
is_linear=0
shrinkage=0.0199696


Tree=5
num_leaves=123
num_cat=0
split_feature=23 23 22 23 40 40 10 41 40 23 23 40 33 40 40 33 6 33 22 33 40 10 13 41 40 21 41 4 21 6 33 41 16 40 4 40 36 40 9 10 33 10 8 6 37 41 40 23 41 10 37 33 26 27 10 4 9 30 40 40 23 32 17 33 6 26 16 37 40 41 26 40 9 24 21 40 2 36 26 17 36 13 14 15 6 9 23 10 21 8 36 40 21 13 26 21 8 41 40 13 22 24 10 41 23 28 30 16 40 8 28 8 26 41 8 10 16 37 33 2 8 40
split_gain=2502.73 674.141 309.938 193.565 140.943 130.381 122.751 104.11 101.618 97.8538 96.8011 89.7242 88.179 103.265 77.2832 76.3744 68.6282 67.6209 67.4914 65.0233 70.9829 84.0312 64.1372 62.9532 60.8886 60.075 68.4423 57.7678 57.3243 56.9936 56.0904 55.7612 55.2616 54.3761 55.5595 53.159 52.9336 51.0466 71.4147 50.8322 84.2673 50.496 48.7425 47.1953 50.8203 49.4557 46.8194 80.6227 50.7814 52.8196 52.695 50.5925 47.2275 46.6113 46.19 45.4466 72.4529 44.8468 72.5802 46.4596 43.5448 43.1696 43.0029 41.3711 54.6611 40.8326 66.4261 45.6053 40.3951 52.2823 39.9219 39.5356 38.5222 50.2626 36.3392 36.1723 35.7643 35.4684 35.2757 34.7748 34.7068 38.3074 33.8943 36.0803 45.9757 33.4583 33.1329 37.8329 33.3362 44.2321 33.9485 33.2791 33.1211 32.7278 32.4316 32.0553 31.9318 31.5137 33.5417 31.4712 36.9418 32.9778 32.8547 59.9855 31.1925 30.7008 37.0596 30.6753 30.5494 30.3661 30.093 29.2989 36.5693 36.288 32.4011 30.2033 29.0797 29.0502 28.9307 31.3009 28.7821 28.4847
threshold=0.3111689984798432 0.16441441327333453 0.41036804020404821 0.23069943487644198 0.057168101891875274 -0.034661317244172089 23.523493766784672 -0.032259369269013398 0.11022156104445459 0.4879032969474793 0.13511217385530475 0.11775959655642511 0.01723164971917868 0.065867461264133467 0.10961809381842615 -0.034967806190252297 69.60889053344728 -0.015704892575740811 0.31445890665054327 0.025144935585558418 0.051500396803021438 23.045334815979007 -1.8859578967094419 0.087397892028093352 0.10961809381842615 0.56754523515701305 -0.07760008797049521 -0.0078159640543162805 0.87869554758071911 65.596687316894545 -0.019358256831765171 -0.098873194307088838 -2.7918955087661739 0.11060167849063875 -0.015040856320410965 0.11775959655642511 0.0061914683319628247 0.11775959655642511 -0.044149480760097497 23.21546840667725 0.016408229246735576 51.097208023071296 -6.0982296466827384 54.556196212768562 0.11160926893353464 -0.0012504997430369256 0.069662529975175871 0.37981407344341284 0.036772845312953002 25.979390144348148 0.11340469121932985 0.0033945896429941062 1.275627136230469 0.0036324549000710253 28.204545021057132 0.01643793843686581 -0.34537918865680689 -0.029610345140099522 0.091932572424411788 0.11060167849063875 0.43113428354263311 0.0078996033407747763 31.795536041259769 0.012178341392427685 50.079019546508796 1.09867399930954 0.46930685639381414 0.076613381505012526 -0.020812232047319409 0.21979761123657229 0.90401527285575878 0.10822451114654542 0.45324625074863439 0.94056066870689403 0.43145968019962316 0.055511813610792167 0.21212904155254367 0.016635540872812275 0.86822941899299633 37.708141326904304 0.049819553270936019 1.7760640382766726 -5.3578901290893546 0.26236903667449957 42.649446487426765 0.0066684326156973847 0.48310232162475591 15.155068874359133 0.14566648751497271 2.0433638095855717 -0.0038119317032396789 0.093010954558849349 1.0777969360351565 -3.4853899478912349 0.98656418919563305 0.39404222369194036 0.15085104107856753 -0.07760008797049521 0.13975900411605838 -8.2841863632202131 0.26433266699314123 0.86202353239059459 15.824954032897951 0.058744767680764205 0.31525118649005895 0.043096348643302924 -0.078564099967479692 3.7131122350692753 0.044754419475793845 0.60856431722641002 0.0013667099992744627 -1.8586038351058958 1.3348786234855654 -0.08863509818911551 0.0054718190804123887 17.13887977600098 1.6193189620971682 0.076613381505012526 0.013801728375256063 0.010773221962153913 -4.853667974472045 0.10696882009506227
decision_type=2 2 2 2 2 2 2 2 2 2 2 2 2 2 2 2 2 2 2 2 2 2 2 2 2 2 2 2 2 2 2 2 2 2 2 2 2 2 2 2 2 2 2 2 2 2 2 2 2 2 2 2 2 2 2 2 2 2 2 2 2 2 2 2 2 2 2 2 2 2 2 2 2 2 2 2 2 2 2 2 2 2 2 2 2 2 2 2 2 2 2 2 2 2 2 2 2 2 2 2 2 2 2 2 2 2 2 2 2 2 2 2 2 2 2 2 2 2 2 2 2 2
left_child=1 10 5 8 6 -2 7 96 15 46 33 77 13 -6 17 -3 42 31 22 20 30 25 54 32 68 26 -22 -25 -29 -27 -17 74 95 34 -1 117 -34 38 -35 61 -41 65 -15 44 -44 -45 48 111 50 62 78 -49 -53 109 104 56 -21 58 75 80 120 -32 -50 -36 -65 -14 67 -67 69 -11 -51 -54 121 76 -7 -12 79 -10 -4 -74 -59 -82 -24 -84 -85 -62 87 91 90 -90 -89 -20 -18 -23 118 -8 -5 -13 -99 100 101 -9 103 -101 -19 106 -72 108 -52 -38 -57 -48 113 -113 -115 -114 -60 -16 119 -83 -56 -70
right_child=2 3 9 4 12 14 23 99 11 24 57 97 41 16 35 19 92 18 86 55 21 93 82 27 -26 29 -28 28 -30 -31 39 -33 36 37 63 -37 53 -39 -40 40 -42 -43 43 45 -46 -47 47 51 49 70 107 52 71 -55 60 110 -58 59 116 -61 85 -63 -64 64 -66 66 -68 -69 72 -71 105 -73 73 -75 -76 -77 -78 -79 -80 -81 81 94 83 84 -86 -87 -88 88 89 -91 -92 -93 -94 -95 -96 -97 -98 98 -100 102 -102 -103 -104 -105 -106 -107 -108 -109 -110 -111 -112 112 115 114 -116 -117 -118 -119 -120 -121 -122 -123
leaf_value=0.034479836622243326 -0.0096431556358983987 0.032561609708603792 0.039342237285941523 -0.021931577949165053 -0.014972723261720933 -0.01778765679103975 0 -0.023810517201997353 0.0067322536159281979 0.0095795936454632896 0.027600593079124939 0.031588769810818547 0.024784934545582123 0.048810171755163022 0.03222037301373893 -0.027305180201684379 -0.014753395106035879 0.038695404337789459 0.042121506752887679 0.038456486398634658 -0.019593094896884607 -0.012982641367813753 0.036148918976009463 0.036709432711076198 0.044655994301888928 0.013312049253609204 0.0033425125633813092 -0.018321385667543971 0.034353293596128244 -0.01414339288080353 0.0092869703721435801 0.031078652890086489 0.042129146990965045 -0.017627854256151869 -0.01981446591841755 0.02199180640780924 -0.024704315267472202 -0.015957697097692087 0.032189651528412092 0.028905036706374163 -0.014988650813725791 0.053331082243364622 0.0061820644604115762 0.013137866961255925 0.019723102497923549 0.028011041706114511 0.03835060485376509 0.042134646971758456 0.039843362241031188 0.052933959365234672 0.020869851948741049 0.034223693339604185 -0.00068566520602862094 0.0090077919494585493 0.041601200872838848 0.0034796931861300188 -0.026981602485618657 -0.011028450594807985 0.03865444408399122 0.010036979493016632 0.0031138625372849342 -0.02667891709022235 0.00017933435690466713 0.049090300015381574 -0.009641228934550692 0.030600593156897272 -0.01099590302072545 -0.018433581084259271 0.036335921151580484 0.038200474583905901 0.015195317717298564 0.035483861345031703 0.016739917061811289 0.034372387532678357 0.02458740958065548 -0.020394485194168931 0.041481547455977319 0.032401266413311994 0.013185707121898885 -0.01597155415548716 -0.0075681221950122529 0.057834953768724974 0.013229681318993216 0.0066235589125007051 0.027066102723102167 0.049243543074061799 0.032524909402570683 0.002526433116455938 0.012992226881961831 0.038502369534383483 0.03752117302010672 0.0067243322570295647 0.015579444120904696 -0.0017221598688297558 -0.0029711679045877687 0.038701289218848578 0.015144299675213139 -0.003928694521270119 0.029631100335252319 -0.0047925946992073204 0.037903851543172107 0.023056246842776851 0.043908261555393034 0.039957393385288593 0.011604876548483451 0.035678076517507658 -0.018579148023435969 0.027143956194512302 -0.021069250752832964 0.0056416675096458606 0.043404478298597116 -0.0085193403948171202 0.035336140069735067 0.0093164447887477044 0.033276239578781772 -0.0065627290341115649 0 0.050130657156554174 0.044518589486371524 -0.00085740960929698283 -0.018027970440647544 0.020338711209634892
leaf_weight=8.2667908146977407 50.036246314644814 38.60142382979393 29.048865415155888 14.179003559052942 61.942517198622227 15.915277518332003 12.783065356314181 9.9114253073930758 26.874400943517685 63.484243899583817 8.1438314989209157 15.089022099971769 206.76010060310364 14.740979880094526 81.712518304586411 13.534935273230074 56.574573896825314 18.671914428472519 56.849100276827812 12.123542897403242 62.275543458759785 160.61376464366913 49.391281679272652 69.3826609775424 223.71108420938253 338.28537640720606 310.23537120223045 18.798463828861713 14.566871121525763 32.794496595859528 116.21293637156487 365.03815557807684 11.007268115878103 17.596392206847668 337.60628332197666 104.74691184610128 44.043163992464542 39.720903128385544 32.13947206735611 119.85819534212351 20.129732228815556 19.388513706624508 576.41926611214876 351.42858841270208 138.02665075659752 121.8774237409234 29.558720976114273 215.97951619327068 111.20961992442608 9.6606145575642568 8.6283577829599363 126.75678054243326 34.898090161383152 59.147051684558392 3.3591024726629248 10.172094985842703 15.15849009901285 232.74561669677496 34.458394937217236 86.8106899112463 27.40998125821352 14.934996969997881 12.573552183806894 7.7503065690398207 33.91800931096077 47.381081998348236 39.152557700872421 8.7631149068474752 1208.3686151579022 43.760837681591511 34.455751977860928 18.045788310468197 70.723962411284447 155.88350401073694 16.22171838581562 25.835726216435432 18.706203818321228 127.87878380715847 76.839626125991344 15.60014411062002 92.013291068375111 4.359845623373988 265.65153951197863 54.687777645885944 249.32486244291067 8.3166892975568754 167.27101022005081 14.162356697022913 246.65202139317989 30.983372613787651 61.037725701928139 13.767322190105913 18.990812569856644 292.74351274222136 31.828680396080017 28.103085495531559 26.471832163631916 87.171062059700489 13.730547182261942 17.133324153721333 27.902480572462082 14.893163949251173 175.74286349117756 37.098497986793518 229.79117719829082 14.025879122316836 20.657898902893066 9.8560861721634847 32.157640986144543 18.143802978098392 35.500675812363625 13.280929580330847 8.3951909095048887 33.686932578682899 75.530503176152706 37.089053794741631 9.8534751459956151 72.26019786298275 16.237919740378857 19.723638348281384 51.321306169033051 48.729127734899521
leaf_count=14 447 41 52 126 348 55 35 23 93 473 46 91 609 17 211 21 203 38 101 13 181 623 97 119 531 1196 1262 43 15 150 551 844 31 82 1423 490 127 365 80 402 48 21 1965 1072 327 383 60 426 247 15 54 338 110 186 4 38 39 953 88 393 112 120 36 13 179 124 140 31 2464 230 160 61 162 275 85 120 18 319 284 34 439 9 942 152 653 14 456 31 732 79 98 44 64 1118 152 58 184 590 85 57 59 36 302 51 792 32 72 13 63 48 75 35 21 120 205 116 54 107 35 105 183 134
internal_value=0.0176458 0.00786474 0.0276336 0.0114869 0.0154179 0.0221097 0.0237359 0.0321061 0.00671431 0.0320762 -0.00650629 0.0180366 0.0124122 0.0101467 0.0228344 0.00478468 0.0113711 0.0214582 0.0195552 0.00408923 0.00317608 0.00103648 0.0162551 0.0138973 0.034771 0.00517409 -0.000468771 0.0263088 0.00441763 0.010862 0.0121416 0.0288556 0.00648472 -0.0131238 -0.0163643 0.0331505 0.000148996 0.000817447 0.0143897 0.0141435 0.0225308 0.0218288 0.0125337 0.0120759 0.00881043 0.0169864 0.0268351 0.030314 0.0210636 0.0276997 0.0124188 0.0355436 0.0275723 -0.0035899 0.00922324 0.0225131 0.00178158 -0.000874219 0.0131254 -0.00315821 -0.00292 0.00512381 0.0358848 -0.017496 0.00108049 0.0197768 0.00881885 0.0227912 0.0334048 0.0213409 0.0147298 0.0114815 0.0342513 0.0271271 0.00333228 -0.00863276 0.0162895 0.0280002 0.0204454 0.010727 -0.00606623 0.00091628 0.0200901 0.0186821 0.0234176 0.0141026 0.0248919 0.0218558 0.0191308 0.0158712 0.031047 0.0353448 -0.00701459 -0.00573078 0.0118566 0.0267765 0.00199706 0.00466744 0.000553637 0.036405 0.0221051 0.00397766 0.0396438 0.0256606 0.0136767 0.00926142 0.00237751 -0.00419308 -0.011982 -0.0157112 0.0347046 0.0197941 0.0164757 0.0221566 0.0259667 0.000983769 0.030005 0.040684 0.0237752 0.00942016 -0.0142013 0.0357228
internal_weight=10219.6 5163.68 5055.88 4124.67 2260.75 2254.58 599.308 323.333 1863.92 2801.3 1039.01 270.744 1661.45 1340 2204.54 1593.18 1278.06 1945.82 1548.65 1554.57 1481.62 1196.95 957.926 275.975 1848.97 743.591 372.511 102.748 33.3653 371.08 284.671 397.175 173.227 476.998 387.541 258.72 132.341 89.4568 49.7359 271.136 139.988 321.445 1202.49 1187.75 714.446 473.306 952.335 593.222 359.114 202.583 156.531 395.68 179.701 121.334 338.87 72.9548 27.282 562.011 78.2914 483.72 90.4071 131.148 123.783 379.275 41.6683 302.057 95.2968 56.1442 1625.26 107.245 78.8001 52.9439 1518.01 260.914 32.137 33.9796 105.03 154.753 105.888 86.3241 396.909 164.163 619.055 569.664 304.013 35.7267 590.723 423.452 352.835 277.635 75.2001 70.6164 75.5654 453.357 72.1501 40.8862 40.6508 115.991 100.902 282.682 52.7071 24.8046 229.975 54.2318 248.463 69.1395 55.1137 50.6421 40.786 62.187 45.6728 197.541 167.983 122.498 109.217 45.4842 44.3119 153.973 40.3214 24.0835 54.6804 1257.1
internal_count=32018 18410 13608 13860 6804 6767 1500 838 7056 6841 4550 1178 5304 4379 6320 5878 4031 5512 4528 5837 5672 4530 2987 662 4321 2789 1443 177 58 1346 1142 984 485 2156 1629 808 392 527 162 1121 450 925 3764 3747 2292 1455 2520 1492 1028 562 466 935 509 361 1143 165 52 2394 308 2086 313 671 283 1615 192 904 295 155 3790 703 279 171 3087 489 140 166 214 412 336 196 1693 740 1844 1747 805 126 1541 1085 940 811 129 145 267 1741 301 93 310 766 675 528 118 59 410 108 830 264 232 130 117 175 113 557 497 360 325 137 142 318 149 114 187 2598
is_linear=0
shrinkage=0.0199696


Tree=6
num_leaves=123
num_cat=0
split_feature=22 20 22 37 40 40 40 41 10 33 2 8 41 33 40 26 40 33 39 40 40 22 9 37 29 26 4 40 40 20 37 33 8 26 37 20 33 40 36 40 20 3 36 20 40 36 7 4 9 10 40 4 33 17 22 40 36 40 40 41 13 38 37 41 41 29 6 8 41 33 41 14 4 40 4 10 26 10 29 36 40 8 9 9 14 20 29 41 8 41 24 22 6 3 41 41 33 9 33 20 13 24 22 4 41 20 40 40 13 8 22 8 37 7 29 41 36 6 26 2 32 17
split_gain=1993.48 431.271 334.846 223.86 136.64 142.029 122.523 100.871 106.836 97.8087 117.431 110.317 103.061 85.6401 82.1057 77.3982 78.7503 75.923 69.4639 69.5753 66.0904 76.0384 65.7931 64.0102 61.2646 72.0493 54.2657 53.4027 82.2943 88.5194 60.7122 57.6463 52.0168 51.6935 51.349 49.9208 47.8937 58.8045 45.3158 45.0768 44.4943 44.4783 44.0742 43.9948 43.8154 61.3508 47.0677 43.71 42.0696 95.2459 42.1408 42.0262 41.5768 41.4516 41.0225 41.2278 40.7861 40.2682 40.2234 39.9218 54.7851 38.4162 37.8766 46.1488 50.6249 37.6678 38.8438 37.4699 37.3503 37.074 36.9488 36.0609 35.3969 35.2255 36.1502 35.0591 34.7627 34.175 34.0522 43.6732 34.0483 34.039 33.6344 44.1622 38.9222 33.4261 33.1395 35.9716 33.0925 32.9569 32.8168 32.3002 31.7003 31.667 31.4133 31.1823 31.1518 30.9365 30.9264 30.4484 30.3675 30.2393 30.0203 44.8489 29.6056 29.3542 29.2954 29.1618 28.7167 28.5969 28.4103 28.3673 32.7599 27.8456 27.799 27.4301 27.3642 26.9828 26.1813 26.0676 44.0959 26.0297
threshold=0.28123325109481817 0.036209771409630782 0.41036804020404821 0.071961045265197768 0.11022156104445459 0.11775959655642511 0.1051713638007641 -0.033054077997803681 9.8954834938049334 0.01744315400719643 0.077649649232625975 2.2645814418792729 0.060739997774362571 0.0033945896429941062 0.10961809381842615 1.081679165363312 -0.034661317244172089 0.0028907855739817028 2.5000000000000004 0.083589576184749617 0.081075403839349761 0.17408214509487155 -0.048618031665682786 0.043300243094563491 -0.068937566131353364 1.09867399930954 -0.0095344935543835146 0.038532512262463577 0.073824025690555586 0.1185208670794964 0.10477665439248086 -0.013816310558468102 2.1861479282379155 1.4478422403335574 0.098776031285524382 0.4337229728698731 0.018654208630323414 0.04004438407719136 0.092893302440643324 0.002342019928619266 0.15411458909511569 0.10261278226971628 0.14150177687406543 0.090258635580539717 0.055511813610792167 0.062600009143352522 4.779386281967164 -0.0012319355155341325 0.19693116098642352 24.153889656066898 0.11022156104445459 0.017288135364651683 -0.0096840970218181593 -7.3516118526458731 1.0419973134994509 -0.12035084515810011 0.12894769757986072 0.10589497908949853 0.087537057697772994 0.030969119630753997 -7.4867355823516837 6.5000000000000009 0.041148833930492408 -0.0064572039991617194 1.0000000180025095e-35 -0.048263423144817345 25.400722503662113 -0.6415702998638152 -0.045587606728076928 -0.010250987019389866 -0.054671959951519959 -1.5167544484138487 0.00056999752996489416 0.096471805125474944 -0.015470849815756081 35.293601989746101 0.87623664736747753 15.332690238952638 -0.088248267769813524 0.069204937666654601 -0.038799120113253587 0.032833263278007514 -0.66940802335739125 0.0040685888379812249 -1.6737577915191648 0.067581273615360274 0.022831667214632038 -0.07760008797049521 -0.73784470558166493 -0.031863007694482796 1.4645418524742129 0.21403253823518756 60.596761703491218 0.23971963673830035 -0.030959019437432286 0.14250728487968448 -0.013816310558468102 0.71897158026695263 -0.0027693837182596322 0.089003529399633421 6.9033737182617196 0.50464877486228954 0.309750646352768 0.018720923922955993 -0.07760008797049521 0.1156265251338482 0.073074232786893858 0.1278709024190903 7.8311166763305673 -1.1251345276832578 0.26790612936019903 -0.44206893444061274 0.084440760314464583 1.6351367235183718 0.032041797414422042 -0.002490728627890348 -0.0023714791750535365 66.00724029541017 1.2063139677047732 -0.45627303421497339 -0.035342143848538392 7.5767903327941903
decision_type=2 2 2 2 2 2 2 2 2 2 2 2 2 2 2 2 2 2 2 2 2 2 2 2 2 2 2 2 2 2 2 2 2 2 2 2 2 2 2 2 2 2 2 2 2 2 2 2 2 2 2 2 2 2 2 2 2 2 2 2 2 2 2 2 2 2 2 2 2 2 2 2 2 2 2 2 2 2 2 2 2 2 2 2 2 2 2 2 2 2 2 2 2 2 2 2 2 2 2 2 2 2 2 2 2 2 2 2 2 2 2 2 2 2 2 2 2 2 2 2 2 2
left_child=1 13 15 4 6 38 7 17 91 10 11 -10 22 81 18 16 -2 23 54 35 93 47 -11 32 75 27 69 80 29 59 48 -31 67 -28 44 56 37 51 53 -25 104 -15 117 -38 46 106 -17 -22 50 -50 -30 76 -39 -6 55 -4 62 78 -21 -29 -61 101 -20 89 -65 -32 -67 -3 -55 70 -27 92 -23 110 99 -5 -18 -34 121 90 -26 -1 -60 -84 -85 -82 87 -7 -48 -64 -80 -9 -47 -19 -81 115 -41 -58 -83 -75 -14 -54 103 -73 -16 108 -46 -88 -78 -89 -71 112 -108 -12 -70 118 -103 -8 -37 -36 -121 -57
right_child=2 3 14 24 5 86 42 8 9 12 113 -13 100 41 40 34 36 20 19 58 21 72 -24 39 25 26 33 28 30 31 65 -33 77 -35 119 95 43 52 -40 96 -42 -43 -44 -45 45 71 88 -49 49 -51 -52 -53 61 68 -56 57 97 -59 82 60 -62 -63 63 64 -66 66 -68 -69 114 73 -72 102 -74 74 -76 -77 105 -79 79 94 85 98 83 84 -86 -87 107 109 -90 -91 -92 -93 -94 -95 -96 -97 -98 -99 -100 -101 -102 116 -104 -105 -106 -107 111 -109 -110 -111 -112 -113 -114 -115 -116 -117 -118 -119 -120 120 -122 -123
leaf_value=-0.020263991907463384 -0.012013346024873866 0.044401218227637464 -0.01033916352124741 0.033686256768446027 0.0076081444326676646 0.022842027721452697 -0.0056192388016662312 0.048018656485400185 0.0072330112688911916 0.014566712217138239 -0.022181887833315438 0.030793991477526417 -0.020733353346559541 -0.022553440884804342 -0.012949709997257241 0.029951963265638724 0.043292135915322015 -0.011910019159651185 -0.009052992912787966 0.045551717206010103 0.022309609098914031 -0.01223881539340077 0.036804413007792781 0.034643681953184922 -0.0065617517820705891 -0.016362007272044739 0.0075783627297788432 -0.0012327934322632695 0.00062495416833671484 0.016485136344488067 0.0035323196810656244 -0.015370999095077085 0.037538877375832939 0.045082271876532333 0.046033601909560504 0.0022057971237653693 0.0096417538322360087 0.026929812804121711 0.037818778991555349 0.026011331874323293 0.043393578295311062 0.011585084799706892 0.017071484929735117 0.03335630054170189 -0.021086225843207601 0.015839007513177572 0.033171833591456763 -0.0056366566504231557 0.043227959943914616 -0.014267081891258549 0.023051975462722949 0.0076564558410088229 0.00087787685123722902 0.0041960594910384653 0.039279726461269295 0.041079236032323233 0.030021174306863067 0.015570010015166013 0.0060562979857405122 -0.0091824795812988809 0.035511182443547756 -0.0038228208016286547 0.014952318941249007 -0.012125263485189363 0.014918343222372397 0.0056782279131502213 0.030732566056612155 0.014815723350061771 0.035430616367433443 -0.016988678045925968 0.026896026977644882 -0.013448234875884427 0.01339835986622521 0.058242140451652664 -0.010100984022435028 0 -0.014837547235685417 -0.010485973895788418 0.01995571267206955 0.026749996086735273 -0.0063322839040081298 -0.00091503266304785716 0.038823492815244845 -0.0066392872042690416 0.026364789710409953 0.032443115975281177 -0.002938794923063438 0.025514592015569403 -0.026631799750630274 0.037922817803659949 0.034520801149169313 0.013634023055731803 -0.012687855454120532 0.011652013641643644 0.035540666001367682 0.00012848881318924349 -0.0099866570095178062 0.0034132547091818475 0.046372118070276254 0.0078287064279064893 0.016510623360437838 -0.0072600574836862632 0.023489146977332707 0.026232732678759592 0.030019781543623513 0.033129972732344262 0.017842173347222195 0.023031590280556232 0.034433172365253228 -0.0060843762175502355 0.017395325451223426 -0.0059711789030249028 -0.013026711245804774 -0.0016750924379402698 0.0072771848445156518 0.043264278737070866 0.019678328665379139 -0.022378042097172514 0.047005673120970891 -0.025650012620568027 0.022808099926528668 0.012109940810117889
leaf_weight=7.6715865880250957 25.014920376241207 18.486650019884109 9.5354333594441396 116.66500978171825 67.82737348228693 24.408909924328327 246.24759864062071 38.756964929401875 975.44045335799456 103.30142010003328 57.455856464803219 86.591602101922035 27.010610170662403 220.9982943162322 6.6607093438506118 80.282407060265541 94.89150857925415 217.12166057527065 25.066055797040462 70.75550102442503 24.044599384069443 23.277787804603577 113.0739237293601 11.526257365942 10.237461917102335 10.241311460733412 41.551633015275002 26.858716085553169 120.54570169746876 30.875773653388023 28.162368454039097 83.406409054994583 6.6913187056779853 23.267851375043392 18.663877591490746 15.733637019991876 36.539241530001163 202.93070538341999 89.489705495536327 10.424625836312769 274.50736058503389 15.99360630661249 29.938869468867779 267.34016066789627 23.531672582030296 31.136060357093811 5.4249973967671421 295.42832173407078 40.609972462058067 15.743486814200876 46.675347656011581 25.86599200963974 41.00889614969492 25.06678956001997 251.33367659896612 188.95253103971481 139.87214717268944 69.351298347115517 25.25132367759943 13.146249569952486 57.476289458572865 34.667839705944061 48.423544600605965 31.827855631709099 193.73651733994484 28.422657757997513 244.16386494040489 294.97410109639168 101.61313722282648 77.399269483983517 31.374426372349262 24.458379372954369 234.95837260037661 8.1871873810887354 18.383951559662819 13.871157094836233 12.486747555434706 47.815355651080608 241.57415723800659 252.79886887967587 9.0033023431897146 8.5591292083263433 136.88004922866821 15.493709333240984 133.45077414810658 156.49604132026434 23.282581441104412 12.411767497658728 11.184133499860762 55.27473147213459 86.425663501024246 16.264104850590229 30.855333007872105 25.034636184573174 514.77929326146841 10.633117675781248 105.98487099260092 20.764241844415665 13.888201527297493 12.626779586076735 12.655029177665709 15.005911029875277 149.21388728916645 21.012635007500648 78.650363363325596 42.110085189342499 62.920898534357548 60.780032500624657 7.5088783949613562 133.64349666237831 10.687833383679388 74.511162616312504 17.192497365176678 50.67414391040802 17.156284458935261 71.732708312571049 515.93897777795792 46.086867816746235 8.111338369548319 7.6311144158244124 185.31056329607964 14.173450119793413
leaf_count=39 229 32 84 213 237 163 939 63 3740 293 161 158 115 696 27 256 265 1512 75 126 54 87 199 65 91 24 158 121 462 60 77 258 16 39 19 68 99 526 194 37 642 84 97 591 134 104 23 1008 72 52 187 167 147 67 544 380 349 218 85 27 84 104 229 43 541 43 613 1241 228 293 88 78 633 11 69 29 43 253 601 760 20 33 328 39 333 426 189 75 49 112 170 27 125 149 982 71 469 63 27 58 35 40 406 59 290 127 170 298 32 899 30 270 54 153 69 71 1361 223 24 23 547 53
internal_value=0.0171995 0.00853826 0.0261361 0.00987283 0.00736644 0.0164979 0.0057369 0.00708175 0.0106584 0.0095967 0.00713907 0.00916239 0.0207942 -0.0161657 0.0304108 0.0199377 0.0228498 0.00304875 0.0291746 0.0249988 -0.000672119 0.00298727 0.0262287 0.00921782 0.017084 0.0155911 0.0056447 0.0181309 0.0157424 0.00518003 0.0199916 -0.0066879 0.0134524 0.0211782 0.0147495 0.020834 0.0235294 0.0213757 0.0257871 -0.00289387 0.0394277 -0.0202127 -0.005908 0.0305337 0.0114058 0.00866801 0.0236017 -0.00350571 0.0120368 0.0270116 0.00693749 0.0316758 0.0190381 0.0206582 0.0317404 0.0303585 0.0182253 0.0306485 0.0317511 0.019182 0.0270684 0.0163835 0.0143873 0.0161982 0.0110636 0.0258758 0.0281522 0.0165892 0.026751 -0.000265794 0.0160409 0.0149178 0.0110535 -0.00566607 0.00995723 0.0301179 0.0355773 -0.00442711 0.0314469 0.0300197 0.0280852 0.0153865 0.0285832 0.0305428 0.0228731 0.030281 0.00547256 0.000360038 -0.0065699 0.0272818 0.0238206 0.0380154 0.00150019 -0.00943799 0.0326571 0.0333984 -0.00668705 0.0266361 0.0279598 0.0280885 -0.00863115 0.0176235 0.0191454 0.00469888 0.0265623 0.0236465 -0.000287754 0.0157356 0.00323586 -0.00333857 -0.0127171 0.00282207 0.0111087 -0.0126526 0.0314376 0.0370086 0.0189005 -0.00829146 0.0178185 0.0231097 0.0208457 0.0391011
internal_weight=10274.5 5218.14 5056.39 4951.03 3674.95 555.68 3119.27 2796.99 1481.22 1426.2 1170.16 1062.03 256.041 267.111 2991.75 2064.64 1321.31 1315.77 2631.93 1003.01 819.865 577.709 216.375 495.903 1276.08 1145.54 233.72 911.824 736.087 211.763 524.323 114.282 367.967 64.8195 743.33 621.176 1296.29 992.416 301.153 127.936 359.818 236.992 322.273 303.879 531.724 434.833 96.8915 319.473 223.575 56.3535 167.221 182.863 809.552 211.664 1628.92 1377.59 514.965 1368.06 381.831 97.4813 70.6225 606.622 354.329 329.263 225.564 300.749 272.587 313.461 143.836 168.901 41.6157 256.676 258.236 127.285 39.1979 130.536 156.997 54.5067 1298.7 1095.58 175.737 30.1189 311.076 285.825 148.944 165.499 254.527 170.464 16.6091 103.698 328 55.0211 61.9914 242.156 767.578 106.211 116.409 160.636 22.4473 20.814 39.6656 571.954 194.685 45.471 85.3111 62.1057 178.156 84.0626 19.9956 146.055 88.0871 154.625 80.1134 108.13 118.769 95.5777 530.945 292.334 23.845 211.606 192.942 203.126
internal_count=32018 18662 13356 17783 14178 2419 11759 10500 4944 4854 4212 3898 642 879 7308 6048 3731 5556 6349 2557 3443 1782 492 2113 3605 3363 770 2593 2056 550 1506 318 1542 197 2317 1646 3502 2812 795 571 959 780 1259 690 1728 1400 328 1062 773 124 649 634 2178 601 3792 3248 1412 3164 911 232 111 1652 1000 925 584 733 656 1273 364 573 112 772 720 461 138 242 467 269 2946 2513 537 99 785 700 372 446 1624 1137 72 341 771 90 229 1661 1742 234 506 412 60 69 150 1548 543 137 317 202 628 487 75 974 323 494 224 314 297 163 1401 1162 92 589 570 433
is_linear=0
shrinkage=0.0199696


Tree=7
num_leaves=123
num_cat=0
split_feature=19 19 19 19 40 41 40 40 40 37 40 41 41 40 9 16 39 23 19 32 6 23 8 32 12 2 20 40 41 15 16 36 40 40 12 40 20 40 16 27 2 39 21 15 40 24 40 32 40 40 40 19 2 30 13 40 2 40 40 13 40 24 12 41 36 8 20 2 40 8 37 40 40 24 16 19 41 40 40 8 12 21 40 37 31 16 41 31 23 40 9 40 40 12 23 8 13 41 40 20 40 6 20 36 12 16 19 37 21 7 1 24 15 32 16 32 32 23 12 20 23 40
split_gain=2916.03 707.123 308.385 206.438 123.008 107.446 102.503 94.9909 90.1377 76.6762 65.5565 72.4304 64.7656 63.7639 62.8878 61.1755 59.7135 59.609 64.5719 59.1681 51.5149 50.6317 71.0814 76.2399 68.1631 53.1219 47.5974 47.5089 47.1871 46.3914 45.8247 65.7124 45.1664 44.2845 44.0662 70.4025 90.3128 77.5182 50.7992 44.0363 48.3019 42.6561 49.4178 44.3303 55.1084 42.604 40.9755 42.8846 37.6056 54.3752 75.111 51.9424 50.3057 46.6911 39.2193 36.9475 36.5031 36.2782 35.9622 67.728 35.9074 41.0372 35.8756 43.0641 41.7412 47.8679 37.2295 62.4129 68.582 44.739 35.4593 47.4784 76.7863 35.4233 35.1074 45.534 34.5386 34.5159 34.4488 35.0798 34.3466 34.3258 33.7493 33.7293 33.3127 33.0126 32.3749 33.2838 31.6828 31.5568 31.5516 31.2454 30.5951 30.2506 53.8984 33.5346 30.2467 39.7376 32.6171 30.1883 41.9105 31.2798 29.7353 29.5804 29.0624 28.9366 28.806 29.3987 36.2029 28.7251 28.6922 28.1388 27.8912 27.8241 47.9487 42.3082 33.8255 55.4869 28.3985 27.6524 27.8533 32.1658
threshold=0.027652796357870105 0.020112834870815281 0.012340522371232511 0.041546221822500236 0.094171788543462767 -0.056943099945783608 0.10961809381842615 0.011739695444703104 0.10961809381842615 0.041682517156004913 -0.032725065946578973 0.40941449999809271 -0.07760008797049521 0.11998654156923295 0.054999254643917091 -5.5082619190216056 2.5000000000000004 0.27265620231628424 0.022369001060724262 0.02520257513970137 24.085818290710453 0.2394131273031235 -1.4394154548645017 0.0222629439085722 11.274249553680422 -0.054824722930788987 0.095915187150239958 0.081075403839349761 -0.020112681202590462 1.4451750516891482 1.1576660275459292 0.12167833000421525 0.065867461264133467 0.055511813610792167 49.163108825683601 0.081075403839349761 0.4172732830047608 0.027643014676868919 -3.5582063198089595 -0.025583432987332341 0.098731230944395079 2.5000000000000004 0.066774670034647002 0.29718959331512457 0.083589576184749617 1.0497077703475954 0.10664935782551767 -0.065352886915206895 0.1183823272585869 0.11022156104445459 0.1044939123094082 0.014274964574724438 0.0052939709275960931 0.057939711958169944 -5.3850514888763419 0.061930011957883842 -0.075805686414241777 -0.075051207095384584 0.11060167849063875 5.3872041702270517 0.002342019928619266 1.2980820536613467 55.815275192260749 0.15978424996137622 0.081933520734310164 1.0000000180025095e-35 0.20766369253396991 -0.043617073446512215 0.055511813610792167 -0.088533487170934663 -0.0027441220590844746 0.087048795074224486 0.081075403839349761 0.78278848528862011 -0.3358932882547378 0.015910717658698562 -0.030959019437432286 -0.075051207095384584 0.10474283248186113 0.0054718190804123887 92.866134643554702 0.94257113337516796 0.091079346835613265 0.048981713131070144 -0.061619020998477929 3.5714312791824345 -0.10836824402213095 -0.14968157559633252 0.12721595913171771 0.087537057697772994 0.14960358291864398 0.098525255918502821 0.1278709024190903 17.839981079101566 0.66426149010658275 4.843529701232911 3.6366723775863652 -0.087329268455505357 0.091932572424411788 0.12861748039722445 0.092283103615045561 75.192111968994155 0.092537090182304396 0.081933520734310164 23.422630310058597 -2.156110286712646 0.067957159131765379 0.17078933119773868 0.15119094401597979 -5.7380983829498282 0.03837105073034764 1.8630692362785342 0.27023780345916754 0.019551999866962436 0.74441078305244457 0.010151108261197807 0.0078996033407747763 0.25263060629367834 87.508369445800795 0.28958345949649816 0.30367252230644232 0.093010954558849349
decision_type=2 2 2 2 2 2 2 2 2 2 2 2 2 2 2 2 2 2 2 2 2 2 2 2 2 2 2 2 2 2 2 2 2 2 2 2 2 2 2 2 2 2 2 2 2 2 2 2 2 2 2 2 2 2 2 2 2 2 2 2 2 2 2 2 2 2 2 2 2 2 2 2 2 2 2 2 2 2 2 2 2 2 2 2 2 2 2 2 2 2 2 2 2 2 2 2 2 2 2 2 2 2 2 2 2 2 2 2 2 2 2 2 2 2 2 2 2 2 2 2 2 2
