tree
version=v4
num_class=1
num_tree_per_iteration=1
label_index=0
max_feature_idx=41
objective=binary sigmoid:1
feature_names=dist_ema_fast dist_ema_slow dist_ema_trend dist_ema_200 ema_fast_slow_ratio ema_slow_trend_ratio rsi rsi_delta macd_hist macd_hist_delta adx stoch_k stoch_d stoch_k_minus_d rsi_slope_3d macd_hist_slope_3d adx_slope_3d stoch_k_slope_3d vol_ratio_slope_3d atr_ratio bb_width bb_pctb rvol_5 rvol_20 vol_ratio vol_delta vol_trend ret_1d ret_3d ret_5d ret_10d ret_20d ema50_slope ema200_slope higher_high_5 higher_low_5 dist_to_support dist_to_resistance entry_score day_of_week spy_sma200_dist vixy_relative
feature_infos=[-0.88047152757644653:0.4875151515007019] [-0.89400458335876465:0.76895833015441895] [-0.90141791105270386:1.1927715539932251] [-0.9057498574256897:2.6778063774108887] [-0.60347378253936768:0.26220744848251343] [-0.63411891460418701:0.33237344026565552] [7.5988736152648926:89.56707763671875] [-57.008754730224609:28.406278610229492] [-197.04545593261719:53.395503997802734] [-99.670982360839844:23.154708862304688] [6.4042625427246094:76.904464721679688] [0:100] [0.034256916493177414:99.84002685546875] [-64.694847106933594:58.8792724609375] [-60.237251281738281:36.339035034179688] [-185.67686462402344:68.547607421875] [-9.521052360534668:12.828498840332031] [-99.568702697753906:97.747108459472656] [-8.6434249877929688:8.880615234375] [0.16763316094875336:3.4306178092956543] [0.016309330239892006:6.0319781303405762] [-0.58364927768707275:1.5484404563903809] [0.010538822039961815:6.5317540168762207] [0.05466320738196373:3.2970728874206543] [0.04358387365937233:9.2728176116943359] [0.03690551221370697:16.377595901489258] [0.22362680733203888:3.2437946796417236] [-0.90080970525741577:0.5560266375541687] [-0.90817838907241821:0.75229358673095703] [-0.9105563759803772:1.0542452335357666] [-0.91309112310409546:1.692307710647583] [-0.92180204391479492:2.0914826393127441] [-0.16430160403251648:0.25672763586044312] [-0.086279332637786865:0.24709126353263855] [0:1] [0:1] [-8.7345666885375977:0.68826532363891602] [-0.28792133927345276:11.952662467956543] [0:12] [0:4] [-0.13476203382015228:0.14829014241695404] [-0.20094062387943268:2.0429816246032715]
tree_sizes=12663 12806 12783 12780 12781 12813 12804 12774 12812 12728 12785 12782 12674 12803 12743 12793 12830 12811 12772 12810 12805 12799 12740 12803 12859 12848 12806 12860 12796 12787 12785 12790 12820 12833 12772 12864 12773 12772 12864 12837 12786 12829 12851 12831 12883 12869 12874 12850 12793 12773 12846 12888 12863 12821 12825 12837 12854 12879 12810 12862 12839 12890 12845 12829 12838 12841 12851 12813 12818 12862 12863 12873 12884 12797 12825 12849 12820 12811 12871 12866 12851 12781 12803 12854 12911 12842 12874 12803 12897 12822 12828 12837 12879 12831 12816 12869 12885 12838 12876 12855 12876 12751 12915 12864 12870 12866 12886 12896 12809 12855 12837 12921 12839 12884 12922 12913 12856 12840 12959 12883 12855

Tree=0
num_leaves=118
num_cat=0
split_feature=23 23 23 40 3 40 37 40 37 37 37 33 33 26 33 40 40 37 4 40 40 33 25 23 40 40 40 40 32 26 4 3 23 15 33 33 13 40 33 40 8 8 32 1 0 17 15 16 3 16 40 25 8 14 15 27 33 3 16 39 4 15 25 40 15 21 28 14 40 27 33 3 33 40 16 27 17 25 26 26 37 8 26 8 26 21 33 16 14 4 37 0 40 27 16 33 40 23 16 33 26 1 40 14 14 23 8 23 40 40 40 13 4 27 26 40 15
split_gain=3286.91 788.936 577.597 265.959 235.298 206.736 160.015 146.787 144.33 122.551 121.755 111.017 161.106 111.803 93.0505 77.3408 74.9414 106.135 180.713 128.646 90.0013 81.6096 73.8888 72.8928 62.7204 60.9615 59.7422 174.191 130.469 95.53 59.0087 56.6626 56.5014 52.9619 50.8802 50.8403 50.385 53.4598 50.3039 48.6614 47.0627 46.2291 45.0378 53.381 45.0786 43.7001 43.4788 43.4029 43.3544 43.1603 42.9401 41.7237 43.8063 41.0689 40.1673 45.6995 40.1083 39.2214 38.4358 37.779 37.6375 36.7847 36.2451 44.2253 35.8876 38.2244 35.7269 38.2876 34.6841 34.2328 33.6955 32.7503 32.6805 55.4264 37.7252 32.1393 31.9542 41.9758 40.0189 31.5188 35.9318 31.2305 54.6037 45.2425 31.1112 30.9538 30.8468 30.0728 35.7866 52.5873 29.7651 29.4294 29.2289 32.9638 28.8885 28.5299 28.1548 30.0526 27.6866 27.5442 27.5375 27.3349 27.1248 26.1389 25.4302 25.423 25.2781 25.0975 26.1402 25.0599 30.6828 44.9629 51.5966 29.8929 26.1199 24.7637 24.2684
threshold=0.25994071364402777 0.39595106244087225 0.14377219229936603 0.10961809381842615 0.43850725889205938 0.067508082836866393 0.070370700210332884 0.061365896835923202 0.025401550345122818 0.23028300702571872 0.28199888765811926 -0.0015270892763510344 0.0039829614106565723 0.51974666118621837 0.0039829614106565723 0.091932572424411788 0.057168101891875274 0.096211675554513945 0.01069540297612548 0.034874061122536666 0.11050898209214212 -0.0019523024093359707 1.3541508316993716 0.17123947292566302 0.11254350095987321 0.13159478455781939 0.038532512262463577 -0.0095814047381281835 -0.012198461219668387 0.62384322285652172 -0.040549155324697488 0.40511296689510351 0.89578619599342357 0.92516228556633007 0.020502318628132347 0.011148551478981973 1.6637378931045534 1.0000000180025095e-35 -0.0038285631453618403 0.11050898209214212 -0.27737505733966822 -4.1379497051239005 -0.00049576241872273375 0.012783954385668041 0.025857113301754001 35.27159500122071 -1.2738416790962217 3.4469243288040166 0.25619554519653326 4.5913336277008066 -0.0095814047381281835 2.2732189893722539 0.43227110803127294 -0.58874669671058644 -0.13199079781770703 -0.014792176894843577 0.0013835999416187408 0.0371923465281725 6.2291212081909189 1.0000000180025095e-35 -0.028042513877153393 2.8720484972000127 1.3838121891021731 0.034874061122536666 2.2159651517868046 1.0897697210311892 -0.031440623104572289 3.9822455644607548 0.055511813610792167 -0.011471930425614117 0.012637867592275144 0.095836065709590926 -0.0022589917061850424 0.093195069581270232 -4.191499948501586 0.021746531128883365 1.0994389057159426 1.2117113471031191 1.2772220373153689 0.95778188109397899 0.12473155930638315 0.41985738277435308 1.199335038661957 -0.10071744024753569 0.89163601398468029 0.72498202323913585 -0.012431634590029715 -0.15189247578382489 -10.438632011413572 -0.0078288153745233995 0.035353558138012893 -0.0021970096277073021 0.073074232786893858 -0.04744411073625087 -2.1920908689498897 0.0069561367854475984 0.10030884668231012 0.5474013388156892 2.7669229507446294 0.01487343665212393 1.0035023093223574 -0.033114576712250703 0.057168101891875274 8.4957098960876483 3.9113464355468754 0.45420202612876898 2.2585582733154301 0.41089235246181494 0.11585168540477754 0.045537682250142104 0.091079346835613265 7.9327547550201425 0.036085398867726333 0.089395519345998778 0.686834216117859 0.12916906923055652 4.6689324378967294
decision_type=2 2 2 2 2 2 2 2 2 2 2 2 2 2 2 2 2 2 2 2 2 2 2 2 2 2 2 2 2 2 2 2 2 2 2 2 2 2 2 2 2 2 2 2 2 2 2 2 2 2 2 2 2 2 2 2 2 2 2 2 2 2 2 2 2 2 2 2 2 2 2 2 2 2 2 2 2 2 2 2 2 2 2 2 2 2 2 2 2 2 2 2 2 2 2 2 2 2 2 2 2 2 2 2 2 2 2 2 2 2 2 2 2 2 2 2 2
left_child=2 9 8 4 5 10 11 34 57 16 26 72 25 53 56 30 17 18 50 35 22 103 49 95 -22 42 27 45 -29 102 -9 47 61 39 62 -20 40 -38 -10 -25 69 -17 44 94 -13 -3 -43 70 -26 64 -2 52 -52 -14 55 -21 79 -1 -51 -31 -48 105 100 -64 65 -18 92 -68 -40 -23 85 -59 74 -74 -4 81 77 78 -32 106 -81 83 -83 -76 -72 107 -62 -70 -89 -90 -91 -73 -24 -94 -44 -15 97 -58 -97 -56 -8 -65 -28 -19 -78 -16 -7 -5 -109 -6 111 114 -113 -114 -111 -50 -66
right_child=1 3 6 31 109 14 7 15 38 -11 -12 12 13 23 32 41 20 21 19 54 24 36 66 33 48 -27 29 28 -30 59 76 -33 -34 -35 -36 -37 37 -39 68 -41 -42 46 43 -45 -46 -47 60 -49 115 58 51 -53 -54 -55 99 -57 96 71 -60 -61 86 -63 63 101 116 -67 67 -69 87 -71 84 91 73 -75 75 -77 104 -79 -80 80 -82 82 -84 -85 -86 -87 -88 88 89 90 -92 -93 93 -95 -96 98 -98 -99 -100 -101 -102 -103 -104 -105 -106 -107 -108 108 -110 110 -112 112 113 -115 -116 -117 -118
leaf_value=-0.78127259079855849 -0.77073179159351257 -0.74939072588051181 -0.75727466809559818 -0.80132266566717569 -0.73482346303411561 -0.75931292787943461 -0.80104677933998425 -0.79121372237182086 -0.75131862614461731 -0.74772303787515637 -0.74427883012857732 -0.79877744306687626 -0.74567538766493935 -0.79700642686823264 -0.75431366749328299 -0.75262194295842189 -0.76946319630642823 -0.75297276986473105 -0.76471179176993043 -0.80372029482827234 -0.79748064397216156 -0.77091255496149436 -0.73759870737097333 -0.77635756044798399 -0.77753362097122369 -0.75866857165137191 -0.80198859851790261 -0.78809640950830218 -0.7615738111712379 -0.7408469656867418 -0.78371729619983088 -0.76023961310101906 -0.74580689352413576 -0.78854999090807276 -0.7521555056613084 -0.74012991780027071 -0.75464838370569021 -0.79833154218871194 -0.80131171456041816 -0.78784593415236392 -0.79090650188098666 -0.7971298146194512 -0.79092570630542269 -0.79392571009018376 -0.74250086825653072 -0.77009851470154567 -0.74718909557701418 -0.79288795970892467 -0.75249573149218774 -0.75278244412199324 -0.78670597591479907 -0.747197592891919 -0.80237735144891509 -0.78466053628022825 -0.77829383063003676 -0.76489786870927068 -0.79713619034730132 -0.80411740841182944 -0.77738383307553072 -0.75296109010389856 -0.7419507863479432 -0.78999952247125349 -0.79521276705226762 -0.74145394078782367 -0.79025259716320495 -0.74906276766368352 -0.76790922117216331 -0.75711332720779378 -0.78930123927381424 -0.74672995856496682 -0.79612771281847172 -0.75895725416684157 -0.77924316673195415 -0.75125913429458868 -0.78629821994652083 -0.76001193831573211 -0.74658830107563234 -0.75245957484512493 -0.75809833814879912 -0.77746713563894099 -0.76569776648796151 -0.78918611667749972 -0.76730314848125369 -0.76898069752474552 -0.774309868425759 -0.75369918597223473 -0.77770871488917259 -0.79720117772144972 -0.79004476449796701 -0.78579755732976553 -0.74849468063401081 -0.79626868639264181 -0.78428084334092307 -0.75245906208124724 -0.77621781516720123 -0.78237491986168672 -0.76144102344671716 -0.76579200496151678 -0.79606907601030386 -0.80013720123317211 -0.78396226260680801 -0.78264363277594995 -0.75950141777593061 -0.78584304210552292 -0.76400796437310303 -0.76181715432018815 -0.77560320110632386 -0.78140022211972016 -0.75958368305830548 -0.77372063680460779 -0.74196876483557206 -0.74703760054658719 -0.79068610860170385 -0.75551030496625293 -0.74561478859305175 -0.79027357853569669 -0.76417371177698901
leaf_weight=25.548882268369198 28.644451685249805 225.68097149580717 25.926650822162628 6.9014933183789244 48.692360386252403 195.83165097981691 50.304037362337112 14.080130755901335 11.333220452070234 63.994227267801762 278.03457359969616 165.2270885258913 31.508107848465443 59.914353080093861 160.12477275729179 22.08134251832962 1089.3121428117156 94.302649319171906 45.251288488507271 8.5160059779882413 32.77402476221323 33.696649201214314 25.29234554618597 918.87288668751717 156.41326421499252 14.631349861621855 11.737896136939527 72.404499039053917 122.65873447805643 77.114229254424572 34.718052290380001 69.48238430917263 77.694357946515083 118.68407563120127 10.27165351808071 38.774418249726295 8.771121606230734 31.018750004470348 27.761459119617939 100.36901359260082 15.671784788370131 22.226035058498383 47.903042107820511 156.34692001342773 3.500886231660842 28.560046523809433 12.089154154062269 33.695706285536289 29.099968962371349 69.857933416962624 119.89104963839054 5.0678752288222304 69.359869994223118 8.3235986530780774 31.334483996033669 55.754411406815052 25.329046539962292 298.49699242413044 20.331771075725555 387.00779028236866 6.1709454134106627 9.8638622313737851 12.849054343998434 10.62237371504307 33.01041118055582 23.121185205876827 193.73646823316813 140.41045486181974 66.894907735288143 25.517106421291828 23.485886342823505 5.3304417803883544 31.904811605811119 38.588549360632896 51.497487977147102 25.769744545221329 70.173369832336903 43.309613913297653 26.176430881023407 89.214470587670803 227.77769280970097 109.29732095450163 37.625781677663326 131.22132788598537 50.39103764295578 29.25525040179491 128.79502514749765 12.997027426958082 17.228383421897885 6.5310368090868058 25.429670751094818 129.81894151121378 9.6883774623274785 43.708444386720657 103.68710149824619 195.68165326118469 13.634534597396849 10.595476828515528 44.456850871443748 25.749694220721722 43.31643508374691 6.4028646498918524 5.2961596325039855 6.2566262781620017 30.087205581367016 381.16366697102785 26.974328465759754 25.548088900744915 28.943863317370415 8.7480382248759252 175.19431784749031 23.290742807090282 17.798710614442829 8.8131934255361539 162.93202478438616 4.9055444821715346 11.872467048466204
leaf_count=133 218 1358 84 32 67 671 153 22 37 97 716 707 40 328 423 55 3409 328 314 20 113 116 40 3209 791 98 21 173 468 143 159 216 151 518 29 101 56 86 92 550 34 60 212 805 13 216 29 149 126 190 333 6 171 19 80 101 70 1178 72 663 17 42 55 18 104 51 594 403 356 58 102 21 151 88 240 82 198 130 77 353 579 416 82 584 207 103 528 49 82 30 60 734 48 116 420 829 48 44 219 48 224 24 28 26 122 1174 142 91 144 25 285 43 35 16 268 40 27
internal_value=-0.770122 -0.762752 -0.781882 -0.757466 -0.756073 -0.757999 -0.778989 -0.771302 -0.795548 -0.769157 -0.7534 -0.780716 -0.782326 -0.779739 -0.762563 -0.766648 -0.769701 -0.774327 -0.778846 -0.768236 -0.768122 -0.765344 -0.766865 -0.780459 -0.777482 -0.790102 -0.75613 -0.760261 -0.771424 -0.752278 -0.760272 -0.772425 -0.758362 -0.778645 -0.785554 -0.753327 -0.77441 -0.788637 -0.783129 -0.77749 -0.766835 -0.773943 -0.791073 -0.787498 -0.797586 -0.751708 -0.776743 -0.77671 -0.774029 -0.768772 -0.788616 -0.791262 -0.792461 -0.753845 -0.77858 -0.770079 -0.767049 -0.800099 -0.758305 -0.75094 -0.773648 -0.760139 -0.788358 -0.773359 -0.769591 -0.769036 -0.761107 -0.763364 -0.785432 -0.76044 -0.773385 -0.801211 -0.773707 -0.76389 -0.775529 -0.776869 -0.758132 -0.764267 -0.772712 -0.76581 -0.769004 -0.778195 -0.783568 -0.773868 -0.781269 -0.766981 -0.776044 -0.782019 -0.774166 -0.768042 -0.756149 -0.794776 -0.751564 -0.758252 -0.780876 -0.78733 -0.780585 -0.787839 -0.784907 -0.788131 -0.793163 -0.756804 -0.788659 -0.755032 -0.751786 -0.759592 -0.761276 -0.773357 -0.769773 -0.745589 -0.746922 -0.750855 -0.764053 -0.779048 -0.747035 -0.757988 -0.783306
internal_weight=9322.96 5730.98 3591.98 3139.87 2872.17 2426.7 2964.61 543.674 627.371 2591.11 1208.49 2420.94 1969.11 1477.81 1218.2 409.907 2527.11 643.578 428.344 205.38 1883.53 215.235 1660.34 1437.98 223.193 491.296 930.46 449.304 195.063 481.156 218.545 267.704 628.847 1137.93 133.766 84.0257 114.675 39.7899 168.176 1019.24 74.8855 191.363 476.665 307.937 168.728 254.241 169.281 198.221 190.419 1247.51 222.963 194.319 189.251 39.8317 121.355 64.2704 589.357 459.195 90.1897 464.122 147.055 551.152 123.495 29.8743 1157.32 1112.43 412.836 334.147 156.842 59.2138 164.526 433.646 451.832 70.4934 381.338 355.412 204.465 104.204 60.8945 539.798 316.992 329.642 146.923 182.719 73.8769 90.6487 134.966 129.081 62.1861 49.1891 31.9607 135.149 78.6892 53.3968 151.59 300.053 49.5591 35.9245 240.139 57.0842 93.6205 17.0252 17.0341 100.559 100.261 541.288 222.806 61.3934 54.492 445.469 396.777 221.583 49.9026 26.6119 171.68 34.0055 44.8829
internal_count=31949 17583 14366 9266 8222 7483 11594 1900 2772 8317 3786 9694 7967 5712 3697 1397 8220 2096 1392 664 6124 704 5054 5653 1070 2255 3070 2215 641 855 708 1044 1790 4277 503 415 350 142 706 3759 208 689 2157 1437 720 1574 634 828 957 3853 728 510 504 59 249 121 1907 2066 262 806 574 1639 474 97 3591 3460 1201 997 669 174 679 1933 1727 239 1488 1404 686 366 236 1745 932 1322 498 824 309 370 545 577 221 172 90 755 204 164 632 1376 162 114 1048 128 377 42 49 354 320 1597 813 267 235 739 672 387 94 51 293 166 131
is_linear=0
shrinkage=1


Tree=1
num_leaves=118
num_cat=0
split_feature=23 23 23 40 41 3 40 40 37 37 41 1 37 40 41 37 5 40 41 33 33 33 26 10 40 33 41 5 36 3 2 41 3 40 24 18 23 21 37 40 40 11 40 26 36 37 1 23 33 36 15 40 40 40 5 10 32 3 23 33 41 10 5 10 41 5 40 3 5 3 27 10 26 15 3 40 5 3 5 23 2 23 6 25 26 31 5 14 36 15 41 41 41 7 1 23 7 3 10 5 11 15 26 40 41 40 37 31 24 37 33 23 31 5 7 32 26
split_gain=3143.67 747.538 561.105 251.685 235.973 220.585 194.783 165.514 190.481 141.37 125.475 114.2 111.796 93.6055 102.489 102.06 150.044 125.637 88.9038 88.1091 85.3877 129.758 109.449 79.3771 77.4509 77.3834 76.5316 108.146 80.0005 75.2024 65.0668 54.6889 54.0836 53.4791 65.7881 53.3618 53.0463 51.8826 66.4808 51.2091 96.3576 51.0718 50.8851 50.8311 62.2841 60.2835 48.6103 48.3503 48.2168 47.6657 48.8322 47.4932 46.5245 46.3823 45.7902 43.5881 42.1787 41.0338 40.4209 40.2839 40.1838 39.5985 63.908 39.4079 42.251 39.0961 38.9286 38.4809 37.0659 36.8921 36.5715 35.916 45.1642 35.1248 33.8506 33.8475 33.0672 33.7959 33.0021 32.5879 31.7132 30.8414 36.652 29.7021 28.8498 41.9889 28.5345 28.333 28.2279 28.0456 26.8711 26.771 26.6793 26.3763 25.8695 25.5459 25.0518 24.3917 23.6784 34.7699 23.6643 23.6132 23.2133 23.203 30.9293 47.2289 43.4485 28.1916 24.8965 22.6972 22.5379 23.1981 27.69 22.1052 20.6841 20.4034 20.2438
threshold=0.25994071364402777 0.39595106244087225 0.14377219229936603 0.10961809381842615 -0.10280781611800192 0.43850725889205938 0.067508082836866393 0.057168101891875274 0.070370700210332884 0.025401550345122818 -0.10836824402213095 -0.032140167430043214 0.23028300702571872 0.057168101891875274 0.020110435783863071 0.096211675554513945 0.035773159936070449 0.034874061122536666 -0.034346364438533776 0.0039829614106565723 -0.0015270892763510344 0.0033834559144452219 0.60689100623130809 12.365320205688478 0.084545869380235686 -0.0019523024093359707 0.0345677137374878 -0.079426001757383333 0.049841878935694701 0.14534910768270495 -0.21503423899412152 0.012663244735449554 0.40511296689510351 0.091932572424411788 1.1326427459716799 -0.96491214632987965 0.89578619599342357 0.81356513500213634 0.055859182029962547 0.038532512262463577 -0.0095814047381281835 14.723415851593019 -0.023310910910367962 1.2314308285713198 0.030775672756135467 0.14031470566987994 -0.10461483523249625 0.23967358469963077 -0.0038285631453618403 0.036874046549201019 0.92516228556633007 0.13487257063388827 -0.0095814047381281835 0.05343913100659848 0.0093585895374417322 21.292160034179691 -0.018219124525785443 -0.14094140380620954 0.39302840828895574 0.0026186200557276611 -0.13062698394060132 37.237545013427741 -0.09082534164190291 14.95888137817383 -0.043587606400251382 0.046584077179431922 0.10865238308906557 0.0371923465281725 0.019926439039409164 0.52344292402267467 -0.0056039926130324593 49.251064300537116 0.60689100623130809 2.8720484972000127 -0.1455072611570358 0.055511813610792167 0.029707982204854492 -0.021004473790526387 0.0039851057808846244 0.50382387638092052 -0.090303737670183168 0.10942957177758218 57.941846847534187 0.93734836578369152 1.2414827942848208 -0.026245127432048317 0.047573426738381393 11.43893623352051 0.11866189166903497 -0.39565604925155634 -0.036259362474083894 0.056439848616719253 -0.0060794509481638661 -7.6129813194274893 0.023531491868197921 0.69346868991851818 5.8804984092712411 0.12723580002784732 16.374217033386234 0.061148080974817283 15.603082656860353 2.2159651517868046 1.3681355714797976 0.045537682250142104 0.0031187926651909952 0.062169443815946586 0.090006530284881606 0.1327297389507294 0.70484822988510143 0.079305306077003493 -0.010254640597850083 0.32037425041198736 -0.064812552183866487 -0.051670609042048447 -5.6170613765716544 -0.032845621928572648 0.9433240294456483
decision_type=2 2 2 2 2 2 2 2 2 2 2 2 2 2 2 2 2 2 2 2 2 2 2 2 2 2 2 2 2 2 2 2 2 2 2 2 2 2 2 2 2 2 2 2 2 2 2 2 2 2 2 2 2 2 2 2 2 2 2 2 2 2 2 2 2 2 2 2 2 2 2 2 2 2 2 2 2 2 2 2 2 2 2 2 2 2 2 2 2 2 2 2 2 2 2 2 2 2 2 2 2 2 2 2 2 2 2 2 2 2 2 2 2 2 2 2 2
left_child=2 10 9 5 98 6 11 31 20 67 110 39 13 15 69 16 18 86 -12 35 54 51 70 -24 37 96 60 42 -29 -19 -10 53 63 34 97 79 73 38 -16 40 87 55 -28 45 -45 57 -42 -47 -11 50 -41 78 -43 76 61 -27 -35 -33 -20 65 -13 62 -9 89 -65 -37 91 -1 -69 71 -23 72 -15 92 -58 -50 77 116 -22 -8 -62 -70 -83 94 -77 -86 -18 -3 -61 -5 -53 -26 -21 -51 -46 -66 -17 -32 114 -100 -59 -81 -85 -7 105 -105 107 -106 -109 -34 -2 112 -112 115 -4 -14 -6
right_child=1 3 4 32 7 103 19 8 30 48 12 26 113 14 24 25 17 29 58 36 21 22 23 -25 66 41 27 28 -30 -31 33 43 109 56 -36 59 -38 -39 -40 49 46 52 -44 44 83 47 -48 -49 75 93 -52 90 -54 -55 -56 -57 74 100 -60 88 80 -63 -64 64 95 -67 -68 68 81 -71 -72 -73 -74 -75 -76 84 -78 -79 -80 101 -82 82 -84 102 85 -87 -88 -89 -90 -91 -92 -93 -94 -95 -96 -97 -98 -99 99 -101 -102 -103 -104 104 106 -107 -108 108 -110 -111 111 -113 -114 -115 -116 -117 -118
leaf_value=0.0019309701087901168 0.01338730479558755 0.038001536446020806 0.022187758213605017 -0.0078613145488703167 0.0028594743708074124 0.046820144916390007 -0.019760505302118241 0.048850470581943403 -0.012113692211154168 0.031053923335208254 0.016151515786126006 0.0042825228769603598 0.037059421121271162 0.027172476345464304 0.0061719316804410987 0.029310918903478977 0.012899646614426104 0.029027238862442479 -0.0084946950565854135 0.025763257916201002 -0.011179978424501098 0.037889984509728206 0.019276439861768073 0.0033855812787222774 0.0050353106880482229 -0.0050703394001940507 0.036650059466231323 -0.014920121874295375 0.024594099269955115 -0.0028569436606137354 0.01693355703612949 0.0085008790797509361 0.016067069764079487 0.045736213433106146 0.03191415429815031 0.017202514704362681 0.036339409566769267 0.041596505227255283 0.028831783396168875 0.033914596861276403 0.031083810551381656 0.02766405176658274 -0.012330598594280522 -0.0099210361192758334 0.019379760256589634 0.039628574010909884 0.0070146359094795142 -0.0078712276828873072 -0.017915507857566494 -0.014059739946832336 0.0038079644894891476 0.038526831915545276 -0.0079339018880480328 -0.022587841223841085 -0.01042398468852441 0.027389888825736314 0.042428718156170483 6.8742909299469407e-05 0.020503667571957672 -0.015814189513537736 0.043890926841702413 -0.00636153201269827 0.013573652478276584 -0.0084183806266816055 0.0055426235615623929 0.038907471676738879 -0.0076036120295230967 -0.020622388271832885 -0.022644496892429995 0.046736380611790224 0.015396724912764375 -0.0081264420793846857 0.013242215013538323 -0.0066753863076833998 0.008284266217735271 -0.0027638195784072147 0.025796030509994624 -0.0024359309561810746 -0.0010517519561218352 -0.00039045026619736052 0.028477451994301156 0.033017421835686865 -0.0078626048396486774 0.040463363437601076 0.035793366737874727 -0.0021219008412423196 0.043658622091634694 0.010687603293554088 0.020509170599153997 0.028933335739681539 -0.016663151326339321 0.020789050973231634 0.018548087506271807 0.043270424049801089 -0.022409493906348724 0.026657711392327497 -0.0054519161900107201 -0.0092000478652935376 -0.018529132107947276 0.04136767439526616 -0.013887765050503273 0.028880752412702833 0.0014743061622068776 0.0063577098403165824 -0.0052837110761295705 0.040035156196491804 0.036791720190299387 0.041606788764248497 0.017257288233311054 0.035157367603655357 0.029282182235466022 0.0043736382140965036 -0.013846484020242753 0.04257502375396701 -0.0082915296686241098 0.0079664656739682829 0.028024079326795175
leaf_weight=25.567563131451607 19.696944609284401 133.27434856444597 6.1103631108999243 6.1811935007572165 13.599295422434805 49.553874783217907 14.507771559059618 13.210251569747923 18.237775325775146 11.466334983706473 50.658573850989342 15.487455815076826 12.473045259714128 60.078239798545837 40.000127620995045 96.001891225576401 9.3882943764328939 25.514748863875866 209.17294577509165 341.84864553809166 169.8281018063426 28.869408071041107 83.388734325766563 1054.0308907479048 35.71744517236948 13.316227324306963 6.0256449729204169 13.320031508803366 208.52942752838135 62.675490126013756 99.255367815494537 25.951236799359322 46.835759907960892 8.4280437827110273 108.95383647084236 502.41803181171417 78.762059852480888 54.854871936142445 159.71610530465841 162.3230953514576 31.709202565252781 10.996728636324404 35.903526715934277 30.868781745433807 9.3854944035410863 11.068256296217443 59.546058803796768 9.8913218006491643 27.573098346590996 1.9283861368894566 14.551201343536375 9.0410695746541005 48.877957098186016 12.320916593074797 20.612594909965992 41.852571941912174 7.4405179545283309 34.03300067782402 12.438216313719748 14.956969663500788 37.649042040109634 22.456304527819157 277.59799700975418 51.967608846724033 97.140999592840672 21.361943617463112 17.93115272372961 314.11631567031145 34.602540284395218 8.2728599756956083 47.3712058365345 18.393862567842007 1295.4467745572329 9.8389274477958661 158.19728519767523 100.35592332482338 23.709132604300976 56.015391878783703 148.60674152523279 21.942833289504055 292.89896021783352 5.727654241025447 76.271641463041306 17.025851719081405 13.01721388846636 15.762903228402136 39.243385098874569 10.257475852966307 8.0138294845819456 26.911133959889412 2.7662732154130927 106.32324543595314 204.16344423592091 198.33958417922258 5.846770152449607 16.494037054479122 5.2934748083353034 9.5209753438830358 119.00079726427794 2.357704944908618 233.12608952820301 9.6784206777811033 4.9105097576975814 10.814711809158323 9.481672599911688 243.71313975006342 85.141090758144855 14.345060296356676 38.563055768609047 23.236778527498245 3.8339439183473578 39.544598788022995 56.459324814379215 38.781768128275871 47.13891239464283 11.593232601881025 19.034857913851738
leaf_count=133 78 740 22 25 106 67 41 10 27 37 354 126 13 140 116 327 44 64 557 938 754 46 282 4293 177 41 34 26 589 110 395 28 157 17 306 1662 151 68 324 277 119 70 46 164 38 17 165 14 92 3 26 50 122 15 106 117 19 121 13 37 65 45 1037 219 397 35 163 1285 216 21 90 45 4100 42 593 491 136 452 611 79 1237 22 410 39 25 61 92 78 34 107 27 563 659 255 23 80 25 30 648 5 680 19 25 23 17 433 110 24 65 59 12 222 258 66 214 15 109
internal_value=0.0128452 0.0200107 0.00133136 0.0251253 0.00417302 0.0264705 0.0246108 0.00527832 0.00707438 -0.0121771 0.0137854 0.0290464 0.0145402 0.0140028 0.0158225 0.00877217 0.00416061 0.0175528 -0.00256694 0.0201935 0.00495888 0.00340253 0.00577413 0.00455284 0.0226664 0.0174824 0.0242306 0.0178471 0.0222118 0.00636705 0.0167568 -0.0028269 0.0105981 0.0181059 0.0232921 0.0158373 0.024259 0.028045 0.0243036 0.0338403 0.0280488 0.00865832 -0.00521311 -0.00577074 0.00650017 -0.0084341 0.0154093 0.0171935 0.000103403 0.0374367 0.0314477 -0.00530857 -0.00135021 0.00618259 0.0121496 0.0195337 0.0116047 -0.0102747 -0.00685544 0.0172035 0.0290884 0.0136411 0.0151914 0.00640775 0.00327273 0.0180951 0.0140908 -0.0167057 -0.0178152 0.0137679 0.023957 0.0135662 0.0138619 0.0225407 0.00984241 -0.00216468 0.00936084 0.00493421 -0.00645878 -0.00032807 0.0302455 -0.010234 -0.00496653 0.0201678 0.00119538 0.0150228 0.0377738 0.0360647 -0.00306107 0.0220179 0.0254623 0.0168413 0.0230704 0.0427072 0.00322368 0.00863297 0.0274786 0.0146296 -0.013505 -0.0173326 -0.0121052 0.00856734 0.0318274 0.0365485 0.0352717 0.0386115 0.0294859 0.0194661 0.0239281 0.0224439 -0.00189482 -0.00493016 -0.0110527 0.0351941 -0.00474567 0.0231605 0.0176056
internal_weight=9367.83 5774.16 3593.67 3169.62 2969.21 2900.85 2449.24 2794.6 2287.81 624.461 2604.55 1221.74 2485.01 2422.17 1796.73 625.431 409.092 136.822 272.27 1227.49 1877.78 1543.9 1213.66 1137.42 414.543 216.339 609.814 263.779 221.849 88.1902 410.034 506.787 268.768 391.796 217.73 592.88 634.613 254.571 199.716 611.929 234.787 115.043 41.9292 382.107 68.0374 314.07 91.2553 20.9596 168.175 377.142 176.874 330.242 59.8747 124.68 333.877 55.1688 174.066 293.11 221.611 546.751 346.035 313.265 290.808 198.695 165.603 523.78 159.972 456.286 430.718 1382.19 76.2406 1373.92 1355.53 555.851 165.638 156.709 112.359 88.6495 318.435 46.129 330.548 116.602 81.9993 37.1686 129.136 28.7801 48.6317 143.532 22.9708 33.0923 11.8073 142.041 546.012 200.268 15.2323 113.635 101.295 108.776 174.608 121.359 267.159 31.6213 21.9364 451.613 402.059 254.528 147.531 62.3898 52.9081 70.0725 119.535 99.8379 60.2933 62.848 53.2493 24.0663 32.6342
internal_count=31949 17583 14366 9266 11594 8222 7483 10705 8738 2772 8317 3786 7747 7653 5717 1936 1234 310 924 3697 7351 6153 4711 4575 1411 702 2123 695 615 174 1387 1967 1044 1360 731 1907 1790 508 440 1663 1102 350 80 1149 289 860 284 31 706 561 303 1442 192 818 1198 158 629 829 570 1768 1428 1092 1047 828 696 1697 903 2066 1933 4306 136 4285 4240 1639 612 669 803 667 1365 139 1302 648 432 125 577 86 136 818 71 132 77 740 1597 258 61 477 352 425 889 653 801 98 64 739 672 456 216 106 89 216 570 492 270 94 236 28 215
is_linear=0
shrinkage=0.0156793


Tree=2
num_leaves=118
num_cat=0
split_feature=22 22 3 40 31 31 5 3 33 5 19 26 10 8 33 36 28 0 40 27 40 32 36 19 24 31 40 36 40 40 8 40 40 19 19 8 40 11 19 36 5 10 40 10 28 5 21 33 29 5 31 27 27 19 40 5 19 26 7 32 40 9 31 31 27 3 36 11 3 7 19 40 40 21 9 3 40 10 33 22 26 22 33 36 36 24 31 0 40 8 9 28 10 5 31 29 26 9 7 26 40 36 40 22 10 27 31 8 9 33 27 11 40 10 3 40 17
split_gain=2043.26 511.101 335.915 346.025 193.466 164.973 193.198 162.187 142.62 129.551 110.532 107.989 106.754 105.271 97.8817 122.749 95.4822 86.8758 86.5058 82.7936 80.3486 77.9434 77.1978 74.8272 71.8707 69.0776 66.3011 63.8491 62.7719 68.4698 62.3842 62.2974 114.982 61.8462 60.132 63.5723 55.8793 54.754 54.1498 53.6324 53.0709 50.0052 47.3592 69.9104 46.5327 46.4082 46.1389 44.9242 44.4636 44.4265 43.2676 43.2489 43.0394 44.7345 42.0911 40.8934 40.1296 36.3563 35.986 35.4815 34.4172 33.7652 81.5015 34.1211 34.7835 33.6833 33.5639 46.7747 33.3833 32.5619 32.2423 32.1183 51.4064 31.5608 32.1955 31.3491 30.7997 30.3743 33.9181 30.2812 32.8885 29.9608 29.8672 32.9633 29.8585 29.2059 28.7685 28.4999 28.1609 27.8036 49.5028 27.5866 27.5143 31.3142 27.3766 27.2564 45.2205 26.7258 29.307 26.6055 27.2076 26.3421 26.2054 25.8518 39.5229 29.2878 25.7104 34.8323 25.7036 25.6598 25.1361 25.0337 24.9764 24.5855 33.879 24.5012 24.4792
threshold=0.33504475653171545 0.14407226443290713 0.40511296689510351 0.067508082836866393 -0.09730872884392737 -0.051649607717990868 0.046584077179431922 -0.06236621551215648 0.013009305577725174 0.016553905792534355 1.1241026520729067 0.60689100623130809 49.251064300537116 1.6169924139976504 0.0064118364825844773 0.11420565843582155 -0.015636242926120755 0.028396085835993293 0.10961809381842615 -0.019011316820979115 0.035477923229336746 -0.051298068836331361 0.17836470901966098 1.11880099773407 1.5481747388839724 1.0000000180025095e-35 0.071080639958381667 -0.0023714791750535365 0.061365896835923202 -0.0095814047381281835 1.3525987267494204 0.04312661103904248 -0.0095814047381281835 1.1812889575958254 0.94231829047203075 1.0177056789398196 0.094171788543462767 23.361426353454593 0.93746477365493786 0.1465466916561127 0.038020567968487747 32.550897598266609 0.099699258804321303 23.838175773620609 0.0021331901662051682 0.081858795136213316 0.88793045282363903 0.01487343665212393 0.0044389092363417157 0.0067975600250065335 -0.15617034584283826 -0.011777378618717192 -0.03360913693904876 1.2438138127326968 0.11050898209214212 -0.022230129688978192 1.0016919374465945 0.87125834822654735 -9.0950646400451642 0.012868348974734546 0.03207815624773503 0.45235511660575872 -0.11572787910699843 -0.13049681484699246 -0.020507123321294781 0.090839155018329634 0.055422144010663039 24.620123863220218 0.24479164928197863 1.3231858611106875 1.0233150124549868 0.034874061122536666 0.02927674446254969 -0.057515192776918404 -0.13969790935516355 0.23347562551498416 -0.075051207095384584 18.464446067810062 0.06433409079909326 0.64285430312156688 1.2175790667533877 0.79509174823760997 0.0032750668469816451 0.014240910764783623 0.0435456931591034 0.71212315559387218 -0.1688084006309509 -0.03017103765159845 0.027643014676868919 2.7922691106796269 1.1100655198097231 -0.0080133937299251539 24.582780838012699 0.047573426738381393 0.048034925013780601 -0.084171634167432771 1.6042553782463076 1.5496251583099367 -4.736149549484252 1.1027403473854067 0.038532512262463577 0.1465466916561127 0.058433672413229949 0.11892893165349962 17.880401611328129 -0.0031557178590446706 0.11781765893101694 2.4239878654479985 -1.0310168862342832 0.001092776714358479 -0.0022756567923352118 5.666990041732789 -0.010264144744724034 41.674823760986335 0.26195736229419714 0.046097379177808769 31.845376968383793
decision_type=2 2 2 2 2 2 2 2 2 2 2 2 2 2 2 2 2 2 2 2 2 2 2 2 2 2 2 2 2 2 2 2 2 2 2 2 2 2 2 2 2 2 2 2 2 2 2 2 2 2 2 2 2 2 2 2 2 2 2 2 2 2 2 2 2 2 2 2 2 2 2 2 2 2 2 2 2 2 2 2 2 2 2 2 2 2 2 2 2 2 2 2 2 2 2 2 2 2 2 2 2 2 2 2 2 2 2 2 2 2 2 2 2 2 2 2 2
left_child=1 7 3 4 33 21 11 13 10 -10 14 38 20 60 44 16 51 19 30 36 -8 -3 23 -21 28 -18 41 -12 29 -6 39 32 76 71 35 -31 102 -36 55 52 70 46 43 57 82 -14 -22 -45 -49 -40 -33 -16 95 81 115 -7 79 -11 -38 -59 94 63 -63 64 -52 -65 67 73 -68 -64 91 72 -2 74 -35 -43 -23 -28 -79 80 -20 -54 85 -84 -55 -9 -34 -44 116 -19 -91 -32 -42 -94 -1 -5 -97 98 108 -88 -101 -89 -13 105 -105 -62 -72 -108 -58 -41 -107 -75 -29 -111 -115 -4 -26
right_child=2 5 54 18 24 6 12 8 9 42 27 17 45 -15 15 -17 25 89 56 22 26 31 -24 -25 88 -27 77 112 -30 34 40 50 86 66 37 -37 58 -39 49 109 92 75 87 47 -46 -47 -48 48 -50 -51 61 -53 53 84 -56 -57 97 59 -60 -61 103 62 69 65 -66 -67 68 -69 -70 -71 106 -73 -74 111 -76 -77 -78 78 -80 -81 -82 -83 83 -85 -86 -87 99 101 -90 90 -92 -93 93 -95 -96 96 -98 -99 -100 100 -102 -103 -104 104 -106 110 107 -109 -110 113 -112 -113 -114 114 -116 -117 -118
leaf_value=-0.015657844893482455 0.033044619672612907 -0.0075469379426462823 0.045341890409382711 0.030420080598188255 0.029013450601165371 -0.0030143297433761411 0.038920178285678703 -0.0083043617146821343 0.037986533272345191 0.031833993863831116 0.035999059376418098 0.0090636952511941263 -0.022056188797040195 -0.014377017597826175 -0.010161101411346404 0.023085252567757706 0.0020420138644766397 0.016201674620851578 0.017255070494306378 0.0054815642295415355 0.028465899072344963 0.038233545496317974 0.030413762274948006 -0.0013476990562729951 0.027987845867719904 -0.015559196245044449 0.040424128124563807 0.0090888235493881732 0.032790480949025272 0.030983805453531077 0.023142323409108188 0.028240688831461046 0.026128351492696451 0.039257501524564635 0.02377155344093021 -0.0013663692608500522 -0.00936471790714947 0.0088759635175031104 0.026755999469214718 0.015025657640494339 0.03902476053526429 0.0073342213189369768 0.047200444540413902 -0.014742218966861925 -0.0026168812032631153 0.016302028162954063 -0.0096081151371080788 0.018715901330123411 -0.0013413014477234792 -0.0019444257284323614 0.0081511974042263007 0.023081022459987884 0.01605785916094269 -0.0019928277170705097 0.021553833499426141 0.037541696971443689 -0.016816174742672961 -0.002117150977337866 0.011383856268640682 0.031763855726021105 0.036755392559193321 -0.018681986971989049 -0.0023011950708385145 0.015742598658504393 0.038982320664510288 0.028857441155593279 0.038238006112917229 -0.014987597340618464 -0.01304173715540482 0.02394765840781905 -0.010536858715169899 0.04146759643941246 -0.018840103536704737 0.0011820063336211459 -0.0096400393916034575 -0.015297530484241753 0.015631074828339461 0.01863451710274144 0.042858972317694123 0.038446521664951029 -0.012282064397085381 0.029142628268371391 -0.006950959184009748 0.018046036124011865 0.012311872877081818 0.0068828292161435206 -0.012256083115694212 -0.0078732142442525851 0.037231258221588834 -0.0040642185030976682 0.026594784610451297 0.0050452628805785719 -0.019766199414118772 0.022486022986989318 0.032636015627149358 0.020862566068048351 -0.020445832934646867 0.027365519683524471 -0.0043957078672789921 -0.0051014304949492236 0.0394507819145219 0.017919406743719758 0.023038877557692329 0.033155586509894926 0.0024430995965729193 -0.015920795299349165 0.036705592611359771 -0.0073924995380345599 0.013479383502817761 0.030866036465642909 0.022050568727762052 0.02303378948899364 -0.019230344940251873 0.033412213586417695 -0.012178775098244049 0.03378619706176509 -0.0014016131428209724
leaf_weight=11.325483590364454 86.775468572974205 33.162933610379696 52.158048450946808 79.417582541704178 103.10534445941448 6.8810385465621939 48.958772636950016 42.991399079561234 29.438806131482124 36.236746370792389 5.5028097927570334 46.549764439463615 22.338877573609352 27.452103242278099 14.314274519681929 29.236517064273357 65.965683229267597 254.01419767737389 49.066106595098972 1657.3390613645315 34.063387155532837 21.094643391668797 27.198641330003738 517.19106120616198 27.895202837884426 320.04516468197107 19.961343958973885 7.9303869456052771 73.861007779836655 86.575621321797371 28.822119764983654 105.51211285591125 6.6607140377163878 39.431042581796646 76.521064385771751 17.941596187651157 32.947293050587177 296.19228763133287 23.464515201747417 44.193723857402802 18.042490363121033 36.034592293202877 2.5131447911262503 31.355298794806004 257.54241737723351 11.762862950563429 10.054328352212904 44.236797258257866 69.961697101593018 30.17559415102005 12.143034882843493 28.822992905974388 665.66913361847401 51.727327242493629 65.413104444742203 50.054086409509182 7.8340812698006621 22.650654256343842 54.226810052990913 11.314765244722365 38.898236446082592 20.965586982667446 15.557224087417124 377.84613951295614 36.498293548822403 55.619632959365845 64.05365352332592 7.8139107227325431 3.2096875458955756 44.669427298009396 44.429643370211124 215.45632541179657 4.8881617188453665 16.635238327085972 3.5406656041741362 25.704186834394932 51.487172544002533 223.48421662300825 15.266497075557707 12.618602752685545 11.316906370222567 46.357660010457039 15.432690113782881 77.932764396071434 115.75276693701744 111.92672592401505 60.335268124938011 104.3690339922905 85.603173859417439 45.731728665530682 17.961154878139496 74.379283502697945 5.365868546068671 20.537345759570599 3.7925734221935263 119.25018082559109 6.8075312897562972 9.8850012794136983 98.429895207285881 8.9203785657882673 5.2972267195582381 10.646035693585871 117.40425212681293 15.039236284792421 32.771784603595734 4.6693348884582511 7.7015176266431835 10.040497966110705 52.244731411337852 136.24786148965359 43.088409394025803 59.375239685177803 163.01137216389179 7.7520171701908103 8.1135147809982282 417.82039701938629 9.1570380181074125
leaf_count=52 455 73 75 177 634 42 145 203 58 93 11 159 72 68 52 127 254 920 235 6904 91 114 104 1480 158 1581 42 61 313 351 109 186 18 131 139 88 166 523 124 205 33 97 3 125 1302 52 42 119 231 143 39 98 1938 162 205 95 39 91 205 35 79 45 47 1141 70 139 264 31 6 106 169 255 7 64 10 58 371 763 25 59 58 112 79 290 282 517 160 456 191 203 49 257 16 49 14 325 21 39 479 62 12 41 304 38 114 16 20 46 189 372 131 185 465 8 24 707 62
internal_value=0.0125856 0.00690459 0.0219825 0.0199451 0.0261356 0.00983771 0.00825806 -0.000398683 -0.00207123 0.00649033 -0.00479516 0.00676812 0.0178426 0.0137922 -0.00270503 -0.00795292 -0.0100738 0.00616066 0.0153756 0.00516028 0.0200423 0.0159795 0.00418626 0.00385668 0.0212276 -0.012548 0.0174969 -0.0162041 0.0191537 0.0174122 0.0167863 0.0169301 0.0079124 0.033737 0.0148993 0.0254202 0.0136912 0.0119414 0.0219635 0.018084 0.00883356 0.00701913 0.0036973 0.00806087 0.00204839 -0.00877968 0.019757 0.00184945 0.00642268 0.0106026 0.0190008 0.0120203 0.0167137 0.0151974 0.0334307 0.0326187 0.00665637 0.0209063 0.00352534 0.00916932 0.018975 0.0172646 0.00787298 0.0188421 0.0313346 0.0174326 0.0267644 0.0219654 0.0357606 0.0171498 0.00474903 0.0381316 0.0302515 0.0244105 0.0351886 -0.00207262 0.0222473 0.021776 0.0202005 0.0163635 0.0116896 0.0169143 0.0068925 0.0138978 0.00788666 0.00265778 -0.00488993 -0.00430181 0.0322617 0.0138772 0.00457881 0.010124 0.0241434 0.0136536 -0.00336494 0.0231905 0.0186116 0.0024354 0.000861482 -0.00769983 0.0115084 -0.00546519 0.0190845 0.0214971 0.0121643 0.0266176 -0.00415267 0.0117387 0.00949243 0.0256422 0.018293 0.0182743 -0.0179057 0.0287099 0.0100584 0.0350777 0.0206986
internal_weight=9410.38 5864.95 3545.43 3010.04 1278.03 4184.54 3328.77 1680.42 1503.38 362.723 1140.66 2881.14 447.629 177.037 964.211 458.385 429.148 2770.56 1732 2452.86 413.527 855.77 2201.73 2174.53 776.852 386.011 364.569 176.445 654.197 580.336 1490.61 822.607 153.795 501.179 477.231 104.517 251.128 372.713 110.575 1281.29 209.319 105.856 333.284 215.756 505.826 34.1017 44.1177 145.554 114.198 53.6401 668.811 43.1373 1084.98 879.507 535.392 56.9351 241.395 70.2022 87.1741 33.9654 149.585 563.299 81.1922 482.107 48.6413 433.466 194.059 126.796 67.2633 60.2267 165.373 307.12 91.6636 118.982 42.9717 61.7388 72.5818 258.712 238.751 73.0016 60.383 712.027 248.284 93.3655 167.48 154.918 81.2136 117.528 122.655 317.707 63.6929 103.201 43.9457 25.9032 15.1181 205.475 126.058 168.394 158.509 74.5529 14.2176 115.015 163.954 134.467 47.811 86.656 62.1717 17.742 60.0788 196.307 47.7577 76.0105 170.942 152.113 15.8655 469.978 37.0522
internal_count=31949 21672 10277 9290 3867 14868 12285 6804 6292 1252 5040 10898 1387 512 4503 2112 1985 10494 5423 9322 1263 2583 8488 8384 2459 1835 1118 537 2048 1735 4325 2510 737 1408 1101 439 834 662 404 3626 699 288 1194 694 2391 124 133 475 350 267 1773 150 3017 2494 987 137 1098 219 371 126 444 1587 198 1389 109 1280 691 421 270 153 601 717 462 390 141 155 485 830 788 352 293 2050 1089 369 444 720 252 500 411 1172 252 366 98 65 66 523 346 746 707 234 74 497 463 378 152 226 235 66 228 609 147 249 526 404 32 782 220
is_linear=0
shrinkage=0.0156793


Tree=3
num_leaves=118
num_cat=0
split_feature=23 23 23 23 37 37 19 33 37 6 10 23 10 18 4 25 23 26 16 26 35 7 5 37 23 5 33 20 5 37 19 26 6 1 37 20 10 37 38 33 20 15 20 23 33 31 33 37 5 33 19 10 16 14 16 26 0 5 22 22 15 5 19 38 22 16 22 14 19 19 10 20 4 6 31 26 31 16 4 5 33 33 22 14 18 5 33 23 4 6 20 1 25 5 19 37 5 16 19 5 19 26 26 13 16 20 13 16 38 23 14 30 30 5 18 23 15
split_gain=2907.7 678.376 533.154 196.197 144.7 136.764 113.409 106.821 106.445 99.6816 84.315 82.0058 73.8665 70.8561 68.5597 70.2743 67.1233 76.2016 65.7767 58.5954 62.6619 67.7411 57.7086 85.0584 83.5453 62.8347 58.4308 54.2731 59.1281 52.0653 49.6376 64.9406 59.8898 49.7139 49.6102 47.1494 61.3876 46.3918 46.0158 45.5529 45.1594 55.6508 42.677 41.7292 40.8198 39.2883 38.6293 38.5352 70.6561 62.8408 53.1621 46.5488 40.1688 49.8114 43.8217 38.5255 65.0829 58.2079 51.1719 39.1702 38.5187 38.2781 37.8887 45.8062 45.5017 37.6432 37.6828 45.0155 37.407 37.3801 36.8067 34.6986 42.8698 34.123 57.0588 34.0457 33.5089 31.2698 30.471 30.3055 29.8848 76.2807 29.6633 34.0476 29.5186 29.3845 33.9781 30.3507 32.0344 27.0537 26.7622 26.6448 25.884 25.8727 25.8721 35.4473 48.6049 25.7997 30.7903 25.7072 25.6563 25.6502 25.4581 25.0438 25.0262 24.9735 24.8587 26.8827 24.7331 45.1117 24.4367 24.3036 24.1837 24.0537 23.9376 23.7011 30.7704
threshold=0.25994071364402777 0.39595106244087225 0.14377219229936603 0.6307378113269807 0.068764891475439086 0.025401550345122818 1.0000053048133852 0.013956298585981132 0.23028300702571872 22.236684799194339 15.490467548370363 0.19753197580575946 13.870414257049562 -0.96491214632987965 0.050981020554900176 1.5273731350898745 0.17278717458248141 0.4958107471466065 3.2731380462646489 1.2772220373153689 1.0000000180025095e-35 9.045816898345949 0.071467492729425444 0.25470794737339025 0.84229508042335521 -0.085196051746606813 0.014158382080495359 0.13042554259300235 -0.09082534164190291 0.022683229297399524 1.0133637189865115 0.84121704101562511 25.38133525848389 -0.0035703890025615688 0.090006530284881606 0.050359768792986877 21.812130928039554 0.032487185671925552 7.5000000000000009 0.016180238686501983 0.096675079315900816 0.05141322314739228 0.085892084985971465 0.11701007187366487 -0.0013747886987403033 0.0082683456130325812 -0.0057184079196304074 0.092311751097440733 -0.01986236963421106 -0.010254640597850083 1.0515351295471194 39.785429000854499 2.1735978126525883 -4.5101530551910392 4.6906621456146249 0.92363435029983532 -0.0064377454109489909 0.046584077179431922 0.2090215086936951 0.25972716510295873 0.39400723576545721 -0.015464189928025006 1.1980646252632143 2.5000000000000004 0.33255587518215185 -3.8081634044647212 0.24302778393030169 -2.6473449468612666 0.98245850205421459 1.0824846625328066 19.065682411193851 0.26929457485675817 -0.018874111585319039 19.924520492553714 -0.25170727074146265 0.59840437769889843 0.025958794169127945 1.9186992645263674 -0.062139563262462609 0.04119399935007096 0.0027640105690807108 -0.0016684101428836582 0.36560960114002233 16.107715606689457 -0.46529439091682429 0.020157079212367538 0.0047656421083956966 0.10942957177758218 0.0063072452321648606 39.405796051025398 0.096675079315900816 -0.11138394847512244 0.64062112569808971 -0.051670609042048447 1.3982284665107729 0.1308981850743294 0.16085685044527057 3.4469243288040166 1.2303856015205386 -0.1296124383807182 0.82501941919326793 1.1541028022766116 1.2414827942848208 -28.972166061401364 -2.6847133636474605 0.076396185904741301 -19.563174247741696 -2.5021086931228633 5.5000000000000009 0.50382387638092052 7.5825102329254159 0.10796570777893068 0.21817276626825335 0.02182743884623051 0.58351925015449535 0.19074159860610965 -0.63284415006637562
decision_type=2 2 2 2 2 2 2 2 2 2 2 2 2 2 2 2 2 2 2 2 2 2 2 2 2 2 2 2 2 2 2 2 2 2 2 2 2 2 2 2 2 2 2 2 2 2 2 2 2 2 2 2 2 2 2 2 2 2 2 2 2 2 2 2 2 2 2 2 2 2 2 2 2 2 2 2 2 2 2 2 2 2 2 2 2 2 2 2 2 2 2 2 2 2 2 2 2 2 2 2 2 2 2 2 2 2 2 2 2 2 2 2 2 2 2 2 2
left_child=2 8 5 13 6 85 12 11 14 -5 -9 42 60 34 15 47 17 -14 30 20 38 -22 23 24 25 89 -27 29 -29 68 32 -32 -6 77 79 69 43 -30 -13 -31 41 -15 46 -37 45 -19 -8 48 50 -50 51 -2 71 61 -55 56 76 59 -59 -57 100 -54 63 84 97 -25 67 -67 -18 -7 -58 72 -49 -65 -75 -51 -12 105 -66 -3 81 115 83 -21 -42 86 -1 -87 -89 -11 -44 -80 -86 -10 -24 96 104 98 -64 -68 -4 -34 -52 -17 -96 -33 -45 -108 109 -36 -26 -105 -98 -112 -79 116 -20
right_child=1 3 4 9 18 35 7 10 93 22 55 19 16 40 -16 103 27 44 80 82 21 -23 94 65 110 26 -28 28 37 39 31 33 101 -35 108 36 -38 -39 -40 -41 62 -43 90 106 -46 -47 -48 52 49 75 102 -53 53 54 -56 57 70 58 -60 -61 -62 -63 64 73 78 66 99 -69 -70 -71 -72 -73 -74 74 -76 -77 -78 114 91 -81 -82 -83 -84 -85 92 87 -88 88 -90 -91 -92 -93 -94 -95 95 -97 112 -99 -100 -101 -102 -103 -104 111 -106 -107 107 -109 -110 -111 113 -113 -114 -115 -116 -117 -118
leaf_value=-0.0048299042045409062 0.0083133114636883346 -0.014215553072646124 0.025193728332023307 0.009588789558144753 -0.012366330837987743 -0.00037595918734025446 0.019323587394571268 0.032381476625041247 0.020298232911192846 0.019735653319249837 -0.00079879869602701291 0.0039870215426756027 0.042052218978874539 0.01815149566872859 0.031225778742607787 0.0014592934132345628 -0.0030960846082658052 0.018833462353705682 0.034821217028562189 0.019233857456610087 -0.0071549610112604757 0.024221460257785609 0.036886734486350804 0.0063671350236262159 0.034091027476951752 0.024464914424026263 0.0081223179455893833 0.043852378592120683 0.0065646781002756099 0.0055785153985587034 -0.011623406047469123 -0.0014678951386504437 0.013406629778179037 0.034549838861091947 -0.005387991721921238 -0.01778119810312383 -0.0083770583962919434 0.031389941801331339 0.035063116800796171 0.020973728331533714 -0.013603484185493942 -0.016521806284059807 0.020439749809461595 -0.021672552516686452 -0.0085067282794608085 -0.0098794614254598557 -0.013511200025573343 0.02466351750883761 0.027189444623417516 0.024669642591705461 -0.019725121335429315 -0.020695665098039811 0.030988865853901051 -0.0049019615294711317 0.023654212754664145 0.0075803889568252045 0.019374170771695631 -0.00089076081499457323 0.032103291443979803 -0.011878327089998433 -0.00030215646540328192 0.0078152706420561453 -0.004707985480838236 0.044835136630102045 -0.0097175622188753214 0.038007055034459301 0.041732264022483846 -0.010728864592781891 0.015378276591264055 -0.022044289340816991 -0.011685624152322369 -0.015076688014939875 0.01386060966487104 -0.0063492838015753476 0.024130761382886116 0.010072026788238368 0.03447694492703314 -0.0084633314120835957 0.038443083325644882 0.015109336415714474 0.031097763426072692 -0.0094416516728004721 -0.010380635716032571 -0.02249072252240128 -0.013635132049760046 -0.022404436550782642 -0.020572587087632471 0.048305578970512998 -0.0062548235014542554 -0.010646726976481774 -0.0046748962393256084 0.020189848592542026 0.018425737457241697 0.040679123104892995 0.014056122615050393 0.036847493373377539 -0.023087634201085241 -0.0095412762974859434 0.016967627406019387 0.031950530794645077 0.01267312372709262 0.026973210495292627 0.015182797264782265 0.020215436804975562 0.032215143075195504 0.013701332419440349 -0.010763370269927288 0.031871710068446329 0.032763821805323105 0.029369992057923282 0.014835532903010894 0.0012841005493283437 0.017021553540323996 0.040258807431528966 0.026516253299476478 0.031686210522792628 -0.010480932688798574
leaf_weight=38.285244360566139 135.22912458330393 29.210510618984699 57.234055794775486 66.892055101692677 18.904899723827839 55.568105094134808 9.0034776479005796 27.447633989155293 25.457299768924713 9.9596629962325078 11.719085581600668 48.630344517529011 8.6538245826959592 34.520230479538441 48.422713570296764 20.483643062412739 244.66521708667278 29.796193152666092 6.2257174998521796 63.224533408880234 308.01004560291767 17.818727619946003 270.67924571782351 13.344633162021635 141.99132447689772 201.76127403229475 73.8215361982584 15.41898065805435 98.540373288094997 297.47172708064318 53.641709066927433 36.643318399786949 135.50129741430283 15.676644079387186 20.70363887399435 6.405388616025447 32.027225933969021 22.810820117592812 15.430345416069029 56.258621156215668 9.8134991526603681 16.866440132260323 15.486032858490942 2.5829024314880362 185.47536540031433 19.158805295825005 282.07562779635191 153.38580399006605 58.145164526998997 40.633013524115086 35.376994363963604 15.033998884260653 31.1395478323102 72.116925522685051 16.103685282170773 103.10016731917858 10.352589540183542 16.558402121067047 37.569962434470654 33.654351897537708 41.250827796757221 40.579902812838554 20.57309103757143 19.281429387629032 7.8764032125473014 8.469502307474615 91.160185791552067 10.149123728275297 30.201975502073765 30.261346161365509 92.145823940634727 7.7396890595555297 223.04045288264751 15.221941649913786 1057.0766647011042 1281.3546709269285 14.924867853522299 46.419045798480511 21.105471737682819 12.209093578159807 46.964506298303604 21.985389299690723 12.185454547405241 5.1197199225425711 6.7644179016351691 32.270812943577766 299.9053472802043 2.6679745316505423 78.709969617426395 25.474052466452122 31.483187764883041 337.53725738078356 63.285300172865391 40.707621946930885 25.796032652258873 88.084419146180153 7.3663534820079786 15.636278234422205 72.362281836569309 264.55505922436714 139.56178943067789 46.410495609045029 5.912228249013423 360.62132035195827 72.011680074036121 96.46696712076664 3.9438755661249152 37.441922560334206 17.20793804526329 16.331259958446026 37.485635995864868 17.648850865662098 7.2661104425787926 12.265451222658156 5.2872196510434142 38.571476727724075 8.7840927019715291
leaf_count=222 540 115 222 202 29 262 41 73 30 38 38 174 9 86 167 93 1179 85 7 195 1166 55 414 44 468 933 274 11 414 1271 155 117 594 33 73 34 173 69 30 199 33 57 61 11 999 82 1056 410 214 117 94 27 90 221 72 329 33 46 88 161 178 126 73 21 19 11 161 37 127 76 305 17 697 29 3202 4133 36 135 87 50 106 109 54 15 19 205 1207 5 427 58 181 909 211 67 40 154 13 41 261 703 596 157 20 1114 139 386 28 122 55 50 140 68 19 27 17 114 57
internal_value=0.0123338 0.0191554 0.00124594 0.0239785 0.00399878 -0.0119805 0.00230396 -0.00123261 0.0132434 0.0283174 0.00603545 -0.00435827 0.00558458 0.020521 0.012735 0.0123776 0.00372781 -0.00344581 0.0110461 -0.000121946 -0.00264015 -0.00543039 0.0292359 0.0268743 0.0226034 0.017568 0.020095 0.00600804 0.0149606 0.00405663 0.00829289 0.00368034 0.0141203 0.00778404 0.00736366 7.96656e-05 0.0085557 0.0112568 0.0115217 0.00803429 0.0212612 0.006738 -0.0102483 0.019345 -0.0051424 0.00757077 -0.0124868 0.0112373 0.00998876 0.0112273 0.00105705 0.00539417 0.0148397 0.00821632 0.000309066 0.00376543 -0.0028399 0.0082408 0.0219963 0.00277846 0.0134417 0.0179149 0.0217134 0.0232337 0.0179593 0.0324047 0.033328 0.0114242 -0.00105805 -0.00804242 -0.00852494 0.0175919 0.0182697 0.0240738 0.0236965 0.0105229 0.0189469 0.00549492 0.0206033 -0.00552877 0.0212479 0.0150866 0.0120455 0.0160699 0.0117237 -0.0164731 -0.0187957 -0.00954283 -0.00441196 -0.00204812 0.00359381 0.0212746 0.0153006 0.0328858 0.0336915 0.0293609 0.023466 0.00901389 0.0121548 0.0344684 0.0163285 0.0168837 -0.0146778 0.0184216 0.0274523 0.00951666 0.0248027 0.0277656 0.0172279 0.00992767 0.0307552 0.0193361 -0.00309146 0.0211752 -0.0048313 0.0251754 0.00828957
internal_weight=9451.24 5851.25 3599.99 3222.12 2979.92 620.07 2402.44 1155.94 2629.13 1428.53 347.473 808.467 1246.5 1793.58 2562.97 2514.55 1008.45 243.084 577.483 470.419 389.889 325.829 1361.64 890.437 502.759 311.017 275.583 765.368 136.77 628.598 454.952 254.135 200.817 200.493 95.6624 168.231 82.4013 121.351 64.0607 353.73 1697.92 51.3867 338.048 50.3741 234.43 48.955 291.079 2115.79 1571.69 1380.13 191.552 150.263 544.106 159.94 88.2206 320.025 129.142 190.883 54.1284 136.755 238.047 71.7195 1646.53 1171.44 475.091 387.679 374.334 18.6186 274.867 85.8295 102.498 384.166 376.426 1091.58 1072.3 1321.99 26.644 184.817 366.519 41.4196 122.531 75.5667 80.5297 68.3443 79.8632 451.839 338.191 113.649 81.3779 35.4337 46.9692 358.643 70.0497 66.1649 471.204 200.525 112.44 108.572 92.9354 355.715 196.796 181.912 41.2892 398.754 97.8077 133.11 43.9687 41.3858 54.2428 37.0349 191.742 378.27 14.6325 49.7511 51.7063 53.5813 15.0098
internal_count=31949 17583 14366 9266 11594 2772 9578 4137 8317 3875 1109 3028 5441 5391 8220 8053 4445 1175 2016 1689 1425 1221 3673 2894 1938 1303 1207 3270 494 2776 1623 843 780 688 343 706 368 483 204 1470 5048 143 1339 195 1166 167 1097 6778 5145 4464 681 567 1633 509 293 1036 412 624 134 490 996 216 4905 3515 1390 956 912 48 1306 338 338 1124 1107 3252 3231 4250 74 655 1015 165 393 287 264 210 263 2066 1429 637 432 96 242 996 230 97 779 365 211 375 334 864 818 751 114 1275 179 503 161 150 178 123 635 1182 32 167 152 178 64
is_linear=0
shrinkage=0.0156793


Tree=4
num_leaves=118
num_cat=0
split_feature=23 23 23 40 41 3 40 40 37 37 41 37 37 40 41 37 4 40 40 3 41 23 8 5 8 41 39 24 30 40 13 41 16 5 32 40 24 29 4 41 3 3 16 3 32 40 5 23 40 24 6 37 16 24 24 3 38 6 3 16 4 41 24 9 41 6 37 3 40 5 23 5 14 11 27 40 27 3 4 5 3 0 39 8 8 27 3 3 3 14 41 41 13 40 8 40 41 15 4 23 40 23 3 24 0 11 32 4 37 41 24 6 15 41 40 41 13
split_gain=2785.91 645.366 518.078 226.278 225.953 184.926 173.139 155.962 172.638 133.979 118.907 97.3332 95.7573 87.8148 95.6738 93.4209 166.959 133.116 71.2664 70.3944 70.008 68.9165 69.0722 62.6632 61.9216 56.3924 63.528 59.1157 57.8314 52.3448 53.9817 52.188 51.9352 50.6524 50.0236 49.3346 59.5759 49.0818 48.9734 48.1588 48.0631 46.9271 67.131 47.7528 47.1056 44.3388 43.6859 43.2746 43.1882 42.4391 42.4169 65.4946 41.1307 40.9669 40.3611 50.124 42.5086 59.1838 41.5867 40.1724 40.0979 39.9978 39.4978 38.6988 37.477 69.5428 45.8262 36.9902 36.7106 36.675 36.5507 36.0597 34.6742 33.7442 38.4976 37.776 35.2109 32.6959 32.5582 30.8853 31.9063 29.986 29.6475 28.6753 28.2317 28.0697 27.7532 26.4479 26.4399 32.3466 38.9295 26.1236 36.275 26.4682 25.471 27.7901 25.3425 25.0003 24.5307 26.1729 23.7084 23.6531 23.146 23.0314 22.7691 22.513 22.3733 22.1062 30.1224 22.0453 21.9019 20.918 24.4211 19.8582 19.8081 28.5068 52.6768
threshold=0.25994071364402777 0.39595106244087225 0.14377219229936603 0.10961809381842615 -0.10280781611800192 0.43850725889205938 0.067508082836866393 0.057168101891875274 0.070370700210332884 0.025401550345122818 -0.10836824402213095 0.23028300702571872 0.28199888765811926 0.057168101891875274 0.020110435783863071 0.096211675554513945 0.01069540297612548 0.034874061122536666 0.084545869380235686 -0.046706387773156159 0.063053838908672347 0.19622743129730227 1.8959887623786928 0.037511704489588744 1.9727571010589602 0.23046740889549258 1.0000000180025095e-35 0.79915237426757824 -0.12303978577256201 0.11050898209214212 -20.768705368041989 0.012663244735449554 2.2124197483062749 -0.017841199412941929 0.012868348974734546 0.091932572424411788 1.1326427459716799 0.041730798780918128 -0.027174337767064568 -0.0064572039991617194 0.40511296689510351 0.11234096065163614 3.7820183038711552 0.0042907767929136762 -0.00049576241872273375 0.05343913100659848 0.022194345481693748 0.3778147697448731 0.055511813610792167 1.4927241206169131 33.910943984985359 0.17782802879810336 -4.1080610752105704 0.5499875843524934 0.86956650018692028 0.1067543886601925 6.5000000000000009 67.289890289306655 -0.1784933805465698 3.4469243288040166 0.011419533286243679 0.049525581300258643 0.78925839066505443 0.34865601360797888 -0.0012504997430369256 70.137119293212905 0.036336978897452361 0.0371923465281725 0.10865238308906557 0.047573426738381393 0.29994000494480139 0.019926439039409164 -13.425089836120604 16.967927932739261 -0.02168773207813501 0.036457758396863944 -0.010400685481727122 -0.046706387773156159 0.0045302403159439572 0.029707982204854492 -0.021004473790526387 0.034778637811541564 1.0000000180025095e-35 -0.061641564592719071 -3.5662876367568965 -0.065763041377067552 -0.1455072611570358 -0.08853538334369658 0.059477133676409728 -13.425089836120604 -0.0060794509481638661 0.074799515306949629 11.432266712188722 0.084710069000720992 -0.94778060913085926 0.11775959655642511 0.056439848616719253 3.9873472452163701 0.0048829878214746722 0.32037425041198736 0.12916906923055652 0.10942957177758218 0.12723580002784732 0.82519820332527172 -0.0017683035111986099 8.2934265136718768 0.019544439390301708 0.077690031379461302 0.038794260472059257 0.35371446609497076 0.94507524371147167 46.417076110839851 -0.014738052152097223 -0.031728863716125481 0.046097379177808769 0.0031187926651909952 5.6057746410369882
decision_type=2 2 2 2 2 2 2 2 2 2 2 2 2 2 2 2 2 2 2 2 2 2 2 2 2 2 2 2 2 2 2 2 2 2 2 2 2 2 2 2 2 2 2 2 2 2 2 2 2 2 2 2 2 2 2 2 2 2 2 2 2 2 2 2 2 2 2 2 2 2 2 2 2 2 2 2 2 2 2 2 2 2 2 2 2 2 2 2 2 2 2 2 2 2 2 2 2 2 2 2 2 2 2 2 2 2 2 2 2 2 2 2 2 2 2 2 2
left_child=2 10 9 5 84 6 12 31 21 67 82 13 25 15 37 16 39 69 52 63 32 41 29 34 35 26 72 -28 -27 30 -23 45 -21 -30 50 36 102 64 -37 -12 59 43 62 83 -45 79 -31 100 -11 -41 61 -52 -16 -19 73 58 57 -57 -56 81 -54 -8 -43 70 66 -66 -15 -1 96 -18 -17 -69 -3 75 -75 -33 -77 -50 -73 80 -6 87 98 -9 -4 -22 -40 111 -25 -90 -91 92 -79 -93 -89 -96 -20 -24 105 -100 -39 -80 -10 -65 -103 -2 -83 -42 -109 -60 -107 112 -5 -14 -7 -116 -117
right_child=1 3 4 40 7 114 23 8 24 48 11 -13 113 14 18 19 17 53 68 20 85 22 97 88 -26 28 27 -29 33 46 -32 54 -34 -35 -36 38 -38 47 86 49 107 42 -44 44 -46 -47 -48 -49 77 -51 51 -53 60 -55 55 56 -58 -59 109 -61 -62 -63 -64 103 65 -67 -68 71 -70 -71 -72 78 -74 74 -76 76 -78 91 101 -81 -82 106 -84 -85 -86 -87 -88 94 89 90 -92 93 -94 -95 95 -97 -98 -99 99 -101 -102 104 -104 -105 -106 110 -108 108 -110 -111 -112 -113 -114 -115 115 116 -118
leaf_value=0.0019425176842396421 -0.017902164423578362 -0.017572384858548847 0.043860138825504984 -0.015717131886675874 0.016909825495566272 0.042923629325366149 0.0081427859675848695 -0.0027653315152177532 0.016123644916438279 -0.017735182089936231 0.011088820393082569 0.032672707566173 0.010302756020911463 0.0073062713843782259 -0.0047955955076750189 0.006320833837068161 0.018706106786400944 0.029661091886948869 0.0045234974913696477 0.025873511548899622 0.042688617355273864 0.024216988325261039 -0.0083765324287868401 0.037199465909874073 -0.01207009740522485 0.035176418314625438 0.018621910717015133 0.027535378649565567 -0.010986597369879877 0.0063964845600983089 0.0089705736129266356 -0.022315463366589221 -0.009954661024970975 0.024371926019869948 0.0032652458425867521 0.040428761908888486 0.03021349147597063 0.020816197015324368 0.041003675809098937 -0.010968612700479458 0.025549854318092913 0.01839986392672564 -0.012305231173431932 -0.015451797134976594 -0.0015776141177214513 -0.022395526260518519 -0.013756526906694298 -0.0011201113611508547 0.028979803457545424 0.018993872768274155 0.015903232688229997 0.025996437957155508 0.023994620129555548 0.00087625302792715106 0.014233480509102277 0.028095282369511688 -0.012606070824671108 -0.014945783304400271 -0.010171027090425177 -0.0097617051066651618 0.03825645757111578 0.02639974897809013 0.0051864682289201663 0.021062692652117604 0.0022780427776048248 0.039617326468356084 0.015044780392227343 -0.020234610330359414 -0.0077253660335073384 0.041041083483962092 0.034538441518633604 0.042511396492735616 0.036663262938717703 0.025586848208448355 -0.016769567307956517 -0.018512559767882918 0.034494875674618238 -0.00532441219777315 -0.022253415186593604 0.024718906350897317 -0.0024884584936477106 0.03055305913751126 -0.008263797665006168 0.0096189743172504713 -0.014101333039411306 -0.0081083398667007815 0.0073220648079548806 0.013683864720578146 0.038812048406116247 0.026066915336608761 0.012956694599548898 0.027037052781483283 0.022061100792532568 -0.012109233480736985 -0.011620212200563168 0.0076371728739551593 0.019759093122961945 0.024173355630898272 -0.017308496756766378 0.017257454840287328 -0.0051583398602556901 0.024574820992400742 -0.0092885471345269324 -0.014994677183487437 -0.0088000400151084894 0.0068124847262777209 -0.00074129756023042827 -0.018985518578255808 0.023210255570294311 0.020742656188936986 0.040565246692466576 0.036410036390130032 0.021325413855270495 0.035676698516638607 0.035704764766551988 0.032488633118805697 0.011219651816829875
leaf_weight=25.560293167829514 3.3312351703643825 2.89105300605297 2.0179097652435294 6.4703721180558249 33.01091305911541 52.722429394721985 164.57944478094578 71.320983320474625 100.55102121084929 27.829658553004265 35.170227691531181 64.844734326004982 8.0121345072984678 271.11797439306974 9.7817883938550931 13.542708292603491 33.775475516915321 13.659668885171412 36.09673822671175 51.877092316746712 2.7549040988087645 61.881261914968491 79.069888778030872 38.554868578910828 18.514035403728485 16.419173218309879 310.37877544760704 452.93703841418028 29.785665862262249 69.076429091393948 752.81824474781752 7.8213123083114651 12.20354378223419 14.878065980970858 62.669788561761379 12.82138481736183 111.4040255472064 287.88975910097361 6.2150872573256484 170.08397065103054 55.091048374772072 84.795743808150291 39.330790899693966 74.450176097452641 313.99623538553715 12.193250119686125 42.732007324695587 25.688750483095646 11.419553197920321 12.383644491434096 426.06678961962461 253.1237870529294 182.94467313587666 107.3302188962698 21.822436019778252 34.719933062791824 14.252956189215181 10.054051108658312 140.49188181012869 33.803338453173637 67.008022330701351 36.050765633583069 162.8889469280839 9.3497460708022135 172.5489255040884 13.14684061706066 622.25199772417545 307.93785589933395 17.992631860077381 40.098987892270088 72.610429167747498 2.7665162235498419 135.21021318435669 5.4242776632308951 126.07044613361359 4.1728927940130243 11.081307515501972 93.459841825067997 33.673017650842667 24.083378992974758 56.085921123623848 23.146124154329303 75.277794443070889 128.37367435544729 171.94345169514418 49.755164198577404 156.88480123132467 32.511197783052921 29.428445763885975 154.64556267857552 88.172205559909344 16.309430502355102 13.549126192927359 5.6350646615028372 40.822801135480404 33.397858023643494 108.03675848245621 6.1789608448743811 13.726675122976305 8.7482573986053449 8.7967530339956266 5.3119738847017279 9.5452251359820348 8.0090229138731939 73.641362801194191 8.6139685362577456 7.2947573959827414 7.2607351541519192 9.520276412367819 5.8224375620484343 10.799111939966677 10.64602245390415 13.044456206262112 283.65351292490959 262.81013771146536 113.06661654263735 38.741434648633003
leaf_count=133 8 10 2 35 215 72 343 288 394 98 253 94 58 988 21 65 226 12 177 143 5 176 316 80 32 81 1093 1211 159 389 2667 31 38 62 298 30 306 816 14 389 163 267 196 343 1423 15 218 106 36 40 1450 609 387 224 22 53 72 27 536 149 100 144 600 26 470 16 1849 1285 163 90 233 6 454 4 329 11 24 442 215 136 452 76 415 454 887 172 581 135 61 415 297 50 46 34 138 172 563 14 53 40 61 22 30 20 405 35 29 30 23 40 19 29 65 658 453 146 68
internal_value=0.0120899 0.0187329 0.00122551 0.0234142 0.00393044 0.0246683 0.0229776 0.00500442 0.00673799 -0.0118509 0.0129755 0.0137029 0.0270997 0.0132006 0.014948 0.00816105 0.00375438 0.0142959 0.0215001 0.01641 0.00803126 0.00472106 0.00750815 0.0188503 0.0158824 0.024706 0.0256951 0.0239147 0.0100758 0.00875142 0.0101321 -0.00286514 0.0190261 0.000780074 0.0168301 0.0171898 0.0221195 0.0129738 0.0109693 -0.00567937 0.00974161 0.00149709 0.00669433 -0.00103735 -0.0042424 0.0059043 -0.00129726 0.0183503 7.63786e-05 -0.00892163 0.0177944 0.019669 0.0265975 0.00415153 -0.00574937 -0.00153599 0.0108789 0.0183925 -0.00590499 0.00579611 0.0278324 0.0114376 0.00971925 0.0258234 0.0113653 0.00494192 0.0126985 -0.0163224 0.0133181 0.0308735 0.0301267 -0.0174286 0.0355103 -0.0119295 -0.0150002 0.0055029 0.0198889 0.00362387 -0.00992148 0.00897628 0.00469073 0.00894963 -0.00222988 0.0051897 -0.0134049 -0.00536762 0.0086298 0.0058005 0.0249675 0.0232217 0.0213167 0.00135438 -0.00183293 0.0169173 0.00211813 -0.00293749 0.0159567 -0.00598464 0.00778254 -0.00378286 0.0200405 -0.0112454 0.0139039 0.00435513 -0.00651893 0.0192482 0.023024 0.0207491 0.00487015 -0.00892286 0.0257313 0.0187539 0.00896301 0.0349868 0.0337324 0.0325538 0.0270769
internal_weight=9490.07 5889.06 3601.01 3247.81 2983.92 2974.8 2507.46 2809.96 2302.85 617.094 2641.25 2520.75 1254.17 2455.91 1823.3 632.605 412.502 194.864 421.861 220.103 116.591 1886.91 1011.76 1253.29 415.936 962.5 901.417 763.316 61.0829 926.508 814.7 507.107 64.0806 44.6637 942.491 397.422 221.5 1401.44 175.921 217.638 273.009 875.157 287.015 588.141 388.446 125.373 111.808 322.375 168.203 182.468 879.821 679.191 259.734 120.99 381.734 227.164 59.0269 44.774 168.137 201.137 249.953 200.63 247.685 103.512 1079.07 185.696 893.37 448.891 162.126 73.8745 86.1531 423.331 138.101 154.57 131.495 23.0755 15.2542 140.373 115.393 113.18 89.0968 167.334 120.497 199.695 173.961 52.5101 163.1 136.893 310.801 272.246 242.818 128.953 107.009 21.9445 106.732 74.2207 144.133 85.2488 45.2192 22.4749 296.687 112.626 110.096 17.3588 78.9533 22.7443 30.4409 71.8721 16.781 146.314 19.4131 30.1609 19.5148 291.666 467.341 414.618 151.808
internal_count=31949 17583 14366 9266 11594 8222 7483 10705 8738 2772 8317 7747 3786 7653 5717 1936 1234 552 1411 702 358 7351 3780 3697 1387 3070 2768 2304 302 3450 2843 1967 181 221 2844 1355 730 4306 625 682 1044 3571 1063 2508 1766 818 607 983 706 429 2546 2059 508 236 1149 750 152 80 598 828 487 487 867 344 3323 486 2837 2066 903 316 298 1933 464 399 333 66 35 608 648 803 667 679 570 742 889 177 595 574 853 773 712 572 488 84 445 310 740 330 155 93 877 642 424 46 427 62 105 216 53 576 54 129 100 716 739 667 214
is_linear=0
shrinkage=0.0156793


Tree=5
num_leaves=118
num_cat=0
split_feature=23 23 23 41 40 33 40 40 37 37 41 37 6 40 41 37 4 40 33 33 33 26 10 33 40 41 16 22 2 23 4 41 22 41 29 10 26 36 37 40 23 13 40 40 33 23 6 37 33 22 26 41 41 6 24 16 24 26 14 4 33 4 40 9 16 17 40 4 41 6 33 27 16 22 41 9 17 22 30 14 33 40 16 30 10 40 36 41 16 14 4 13 10 37 13 33 33 23 41 30 41 10 9 41 41 37 29 17 10 40 30 9 10 23 37 13 4
split_gain=2670.89 614.702 503.439 219.327 215.235 156.365 153.815 150.654 165.762 131.288 114.256 92.6134 90.7694 83.9496 91.1956 89.6623 161.124 126.974 83.0408 78.0217 121.642 99.1886 73.4353 68.2315 67.654 66.4481 57.3501 56.8496 56.5926 55.9986 52.738 50.6272 48.3577 55.5349 46.8508 49.0745 46.775 57.106 55.4494 45.9086 45.7346 45.6565 48.8632 43.1029 43.0835 42.711 41.4282 73.7381 45.6749 41.3282 39.3694 39.3581 66.6541 42.2655 39.2177 39.202 38.72 38.7188 40.5817 37.997 37.9934 37.7195 37.5581 37.5039 35.7444 35.6386 35.3093 34.7973 34.9114 33.7318 33.4566 32.8929 32.7793 44.0146 32.2817 32.1451 32.4945 31.8607 31.804 31.7961 31.4046 31.329 30.9468 34.603 29.5782 29.2688 28.9758 27.8532 27.6412 32.7749 47.825 27.3739 27.3556 26.4468 26.3604 26.2612 31.6026 27.7774 25.5073 24.6353 24.2131 23.2577 24.4107 23.0107 22.2898 23.9349 28.3055 21.1891 20.9501 29.2308 20.8701 26.551 24.9357 22.0061 19.782 19.7312 42.0406
threshold=0.25994071364402777 0.39595106244087225 0.14377219229936603 -0.10280781611800192 0.10961809381842615 0.044613305479288108 0.067508082836866393 0.057168101891875274 0.070370700210332884 0.025401550345122818 -0.10836824402213095 0.23028300702571872 43.573095321655281 0.057168101891875274 0.020110435783863071 0.096211675554513945 0.01069540297612548 0.034874061122536666 0.0039829614106565723 -0.0015270892763510344 0.0033834559144452219 0.60689100623130809 12.365320205688478 -0.0019523024093359707 0.084545869380235686 0.036250835284590728 3.2731380462646489 0.32478711009025579 -0.12019669637084006 0.89578619599342357 -0.032008668407797806 0.012663244735449554 0.47918558120727545 -0.0064572039991617194 0.041730798780918128 21.464079856872562 1.2314308285713198 0.030775672756135467 0.14031470566987994 0.13487257063388827 0.71556136012077343 1.6637378931045534 1.0000000180025095e-35 0.05343913100659848 -0.0038285631453618403 0.23967358469963077 36.551347732543952 0.22346327453851703 -0.018470449373126026 0.23979603499174121 0.97068640589714061 0.045781448483467109 1.0000000180025095e-35 15.474278926849367 0.5499875843524934 -4.1080610752105704 0.81472277641296398 1.5848909616470339 -5.5178017616271964 0.02191118244081736 -0.0022589917061850424 0.011419533286243679 0.093195069581270232 0.79079711437225353 -4.191499948501586 -6.4405887126922599 0.10865238308906557 -0.025329740718007084 -0.01640313025563955 15.474278926849367 -0.016407167539000508 -0.0056039926130324593 6.2291212081909189 0.52394166588783275 -0.13062698394060132 0.34865601360797888 13.27422094345093 0.14407226443290713 -0.014905030373483895 16.951533317565922 0.011148551478981973 0.055511813610792167 3.5699467658996586 0.052775813266634948 29.058762550354007 0.044754419475793845 0.1385203301906586 -0.06313533708453177 -0.15189247578382489 -10.438632011413572 -0.0078288153745233995 -16.169330596923825 37.237545013427741 0.035353558138012893 3.3935892581939702 0.0046175215393304834 0.0088137462735176104 0.10942957177758218 -0.036259362474083894 -0.028467162512242791 0.056439848616719253 16.374217033386234 1.5496251583099367 0.032338279299438007 -0.043587606400251382 0.11160926893353464 -0.064293365925550447 37.768152236938484 17.436972618103031 0.11178215965628625 -0.0097756995819509012 -0.28106412291526789 13.773115634918215 0.33338260650634771 0.018597021698951725 7.9327547550201425 0.077690031379461302
decision_type=2 2 2 2 2 2 2 2 2 2 2 2 2 2 2 2 2 2 2 2 2 2 2 2 2 2 2 2 2 2 2 2 2 2 2 2 2 2 2 2 2 2 2 2 2 2 2 2 2 2 2 2 2 2 2 2 2 2 2 2 2 2 2 2 2 2 2 2 2 2 2 2 2 2 2 2 2 2 2 2 2 2 2 2 2 2 2 2 2 2 2 2 2 2 2 2 2 2 2 2 2 2 2 2 2 2 2 2 2 2 2 2 2 2 2 2 2
left_child=2 10 9 101 5 6 12 31 19 95 110 13 27 15 34 16 32 80 51 60 39 71 -23 75 55 74 30 46 94 72 -10 43 33 -12 57 86 38 -38 70 65 82 49 -43 77 -11 -40 47 -3 -48 -25 -34 52 53 -8 -19 -16 -30 58 -15 78 64 -57 -62 -54 92 -21 100 -32 -69 -42 -33 -22 73 -20 -14 -17 -77 85 -39 -37 -18 -46 83 104 -66 -5 -36 -29 -83 -90 -91 -76 -9 -92 -27 -1 -97 -98 -41 -64 -26 -4 -103 -89 -6 107 -107 -106 -85 -110 111 -2 -113 -112 -99 -7 -117
right_child=1 4 3 7 40 115 18 8 26 44 11 -13 25 14 24 23 17 54 29 20 21 22 -24 41 66 28 -28 87 56 -31 67 36 50 -35 35 79 37 59 45 98 69 42 -44 -45 81 -47 48 -49 -50 -51 -52 -53 63 -55 -56 61 -58 -59 -60 -61 62 -63 99 -65 84 -67 -68 68 -70 -71 -72 -73 -74 -75 91 76 -78 -79 -80 -81 -82 88 -84 108 -86 -87 -88 103 89 90 93 -93 -94 -95 -96 96 97 114 -100 -101 -102 102 -104 -105 105 106 -108 -109 109 -111 113 112 -114 -115 -116 116 -118
leaf_value=-0.0037105294450076273 -0.022499700073617616 -0.01152369999459492 -0.0045685085774143219 -0.0086621039343319703 -0.0090671312080901588 0.033958421807880522 -0.010376722227701515 0.035837724301575467 -0.012102818282436662 0.028888760139788708 0.010700469090275106 0.031836071316514718 0.0045666574860278517 0.016856332731994265 -0.004728853864316606 0.029931336993409066 0.019627121302381749 0.02889820722428434 0.023326045985288289 4.4501050254329662e-05 0.035558540974800885 0.018313341205243968 0.0031404974797769715 -0.014512853751255628 0.0044455699591393529 -0.022680512550721076 0.026474622688719921 0.0044930967762998016 0.010326383220052486 0.035030615637899151 0.038935050412573252 0.0088203508430468661 0.047354223411112006 -0.011351901022740441 0.026233107072962485 0.013531851369548332 -0.0098070326927314228 -0.0060832989541994625 0.036594772214597365 0.037350494982976282 -0.019109387966518759 0.026097595390419108 -0.015107674886304878 -0.022240491501679196 -0.017447398674390564 -0.0077294289685530043 0.0054991008344012059 0.026780372268169116 0.035038136079960515 0.019382478179806012 -0.0022902890327309196 0.024026424731012359 -0.00023365858686965902 0.017091050695517879 0.00086224747044211833 0.023428098732798677 0.023348730245693283 -0.0041545547350000378 0.0098490796158426513 -0.01948865056076526 0.0055201407566832393 0.037184727611602991 -0.0047468231232900638 0.023862975629481004 0.0095611478432658745 -0.010675757467971126 -0.0076263248894857007 0.0066559562935141247 0.017626942956744801 0.023166500426930147 -0.011540772553055703 0.014471135900105417 0.039233999693494323 0.013996302889426231 0.0077838952645468132 0.025255083604994545 -0.012026351206802066 0.014629504791782294 0.032882128770518708 -0.019023195576280055 0.040142746257961645 -0.0059226925045949797 -0.0083315868579014601 0.033651195612569532 -0.005652345502695587 0.031008224275264888 0.00096103904159108367 0.038179950861927374 -0.013658284469115881 -0.0067574220265453743 -0.0025654008415474292 0.028395087303388779 -0.0047461358218431572 0.032484798520905613 0.01712869833002641 -0.020798064660038477 -0.021832615327998697 -0.0099367347646570642 -0.01647382741281082 0.037222941292950139 0.019317704980347912 -0.018134903425860893 0.03029934930942144 0.030955046624393315 -0.01138370328661927 -0.0017493017539341172 0.024673670683164648 0.026280466130330533 -0.014741860786422959 0.016874313517258505 -0.011273333083270477 0.036562671810613033 0.0045622468672821305 0.006262118664691849 0.010194169102409455 0.030626554247027486 0.0034016555569824957
leaf_weight=38.307229645550251 5.6789247393608084 22.050178907811642 52.991192229092121 32.153263375163078 29.603775374591351 379.80306993424892 14.196096085011957 19.234249845147136 20.075859487056732 11.798540107905863 33.590071499347687 65.501788668334484 16.105469010770321 277.95696803927422 9.7653660625219327 81.244596995413303 36.700992248952389 13.801033481955526 357.38921703398228 125.90507664531469 29.694962367415428 84.686023630201817 1059.5356782078743 10.099000617861746 36.154286973178387 12.964235976338388 92.281888164579868 8.5309200733900052 96.102018289268017 78.147197850048542 13.236604519188402 21.291901625692844 7.2866817936301223 167.96924532204866 144.34321711212397 160.21600376069546 30.749463357031345 6.3108325675129882 11.471410945057871 9.1718666478991491 4.899333916604518 9.081087760627268 31.019308894872665 12.087026774883268 26.994706489145756 9.8449278771877271 16.768625266849995 27.859226234257221 57.343281134963036 66.669396631419659 8.3120879232883436 90.724901922047138 112.97720874845982 373.13044243305922 107.36416767537594 184.42039280384779 137.16802416741848 39.04838228225708 766.31057601422071 5.3510171547532073 19.150957971811295 67.853420652449131 3.7687528356909743 18.389826938509941 222.02230545133352 192.21805546432734 17.941778533160686 125.46925245970488 167.06213950365782 67.333343006670475 269.58188790082932 48.114054419100285 23.018944971263409 192.71501878648996 16.89464744925499 13.006697326898577 10.148599430918692 76.124436236917973 26.237340189516544 7.6417453438043585 37.89654516428709 66.617918975651264 32.258607424795628 14.234493628144262 36.432056531310081 5.2561697438359252 12.213142350316046 164.13718745112419 12.850195489823816 17.200757369399071 6.5304538235068312 329.94719521701336 5.0888912528753272 26.171450734138489 5.8660732656717292 251.04852419346571 47.289972901344299 95.668212831020355 2.7455957680940619 32.280390292406082 108.76824802905321 117.54081976413727 2.5373599827289572 347.21397767961025 20.897191844880584 16.056056655943394 25.79357922822237 4.3744026497006407 8.2935079261660558 50.126335561275482 61.966754361987114 8.624213360249998 19.715115070343018 24.402740560472012 13.601736806333063 81.784604214131832 16.966412246227264
leaf_count=231 20 57 236 278 125 591 32 58 33 37 241 94 126 839 21 284 236 12 1029 498 46 282 4293 24 177 19 269 66 293 143 37 21 7 392 384 513 164 42 17 50 17 56 86 15 92 14 52 72 144 184 42 401 249 1190 224 387 335 108 2376 18 86 100 12 37 827 867 163 488 560 237 808 90 38 566 65 31 37 500 65 34 80 356 147 51 133 25 52 280 49 82 30 1255 13 60 24 927 322 516 27 69 563 650 3 998 93 85 84 14 28 163 310 12 68 160 70 127 33
internal_value=0.0118539 0.0183269 0.00120555 0.00386351 0.0228749 0.0240906 0.022527 0.00491737 0.00661671 -0.0117231 0.0127162 0.0134257 0.0264072 0.0129355 0.0146381 0.0080125 0.00369148 0.0140068 0.0186498 0.00463908 0.00315102 0.00543269 0.00426564 0.0160666 0.0210102 0.022086 0.0155508 0.03053 0.0158813 0.0225472 0.0124483 -0.00282453 -0.00560277 -0.00766786 0.0127129 0.0179479 -0.00567328 0.00602913 -0.00825162 -0.00529255 0.00955816 0.00781385 -0.00571533 0.00579957 7.46611e-05 0.0160996 0.0209402 0.00983754 0.0283836 0.0148973 0.0209153 0.0144806 0.0128055 0.0160792 0.00408068 0.0259485 0.017994 0.0111429 0.0117165 0.0189081 0.0114666 0.0271423 0.023376 0.00313955 0.00913216 -0.00642957 0.0130492 0.0140669 0.0129286 0.0202656 -0.010044 0.0225595 0.0208389 0.0200621 0.0263883 0.0252813 0.00886925 0.00880779 0.0252886 0.0120349 0.0300936 -0.00210208 0.00571039 0.00839487 0.00741052 -0.00300765 0.0242715 0.0328122 0.00109668 0.0085683 0.0143292 0.0273967 0.0273015 0.0254531 -0.0101911 -0.0161747 -0.017342 -0.0117851 0.0248152 0.0327972 0.0156205 -0.0132631 -0.0170842 0.0332814 0.00223342 0.00724162 0.0145171 -0.00475966 0.0165696 0.0123513 -0.00219726 0.00817742 0.0144102 -0.00630226 -0.0074139 0.0323162 0.0259681
internal_weight=9526.56 5924.78 3601.78 2987.7 3272.06 2998.19 2519.64 2814.63 2308.17 614.08 2652.71 2532.32 1258.95 2466.82 1832.63 634.19 412.921 195.763 1260.69 1890.05 1552.07 1222.03 1144.22 221.269 424.903 615.048 418.126 643.903 252.1 651.27 325.844 506.46 217.158 201.559 1407.73 324.414 380.839 68.6487 312.19 330.041 273.871 116.869 40.1004 125.621 168.164 21.3163 124.021 49.9094 74.1119 76.7684 15.5988 609.418 518.694 387.327 121.165 262.039 233.27 1083.32 1044.27 37.8992 337.978 252.274 55.2001 131.367 282.778 318.123 162.864 305.768 292.531 72.2327 290.874 77.809 573.123 550.104 362.947 104.4 23.1553 113.534 32.5482 167.858 74.5975 156.365 201.638 169.379 258.454 37.4094 156.556 519.882 129.371 62.7529 49.9027 346.842 24.3231 32.7019 18.8303 445.916 407.608 156.56 11.9175 36.0491 144.923 173.069 120.078 511.351 96.725 67.1212 41.8496 25.2716 72.6543 58.4198 120.388 34.0183 28.3393 86.3695 109.27 478.554 98.751
internal_count=31949 17583 14366 11594 9266 8222 7471 10705 8738 2772 8317 7747 3786 7653 5717 1936 1234 552 3685 7351 6153 4711 4575 702 1411 2117 1387 1669 671 1776 1118 1967 682 633 4306 983 1149 289 860 1442 1044 350 142 818 706 31 325 129 196 208 49 1909 1508 1222 236 508 628 3323 3215 125 1198 487 167 286 1031 1365 903 1085 1048 254 829 136 1633 1595 1446 352 68 803 107 547 316 669 790 643 960 303 436 1344 577 221 172 1320 71 90 43 2066 1835 908 77 81 740 889 653 1278 401 276 169 107 242 191 570 100 80 470 586 751 160
is_linear=0
shrinkage=0.0156793


Tree=6
num_leaves=118
num_cat=0
split_feature=20 20 20 41 40 37 41 33 3 40 27 40 40 33 37 24 37 41 27 29 36 6 10 37 41 3 22 4 36 41 36 10 22 10 6 22 3 20 33 40 20 33 37 41 17 33 27 41 40 41 13 41 41 13 40 32 41 27 32 40 10 10 22 10 29 41 10 17 4 17 40 10 41 20 3 10 6 20 20 13 2 27 20 37 9 4 2 41 22 40 41 27 7 6 13 37 41 4 22 40 17 10 3 24 3 41 40 41 14 14 40 2 37 33 41 29 22
split_gain=1998.1 570.885 540.997 190.585 176.018 203.139 170.612 134.403 122.638 147.461 121.627 107.983 101.849 98.7321 96.8556 87.8715 80.4212 69.8869 67.0344 66.5182 69.3115 66.2378 64.6161 62.837 61.9735 60.6944 58.9054 55.763 54.8247 54.1427 53.0698 51.7094 51.2135 51.0136 47.4219 47.1831 45.5033 63.8642 45.2167 44.8183 45.741 44.6151 44.4694 44.7558 43.5236 40.6206 40.2123 50.0047 43.9482 40.0278 39.9443 38.935 38.0764 37.1497 36.3418 36.0106 36.0102 35.2251 43.8068 41.6931 37.5706 34.7143 34.1674 42.713 33.8826 33.7401 33.4508 32.4302 32.3289 32.2604 32.1345 36.6877 37.1042 31.9727 30.7673 30.6574 29.854 29.6217 29.6034 28.9925 27.8339 37.6419 26.4048 26.2952 46.71 25.1331 25.3119 24.824 24.7944 24.5298 30.2811 30.8193 31.7878 27.6714 30.5224 26.4915 27.1845 29.83 24.1866 23.8843 23.8407 23.3184 22.7663 22.5687 33.4414 21.7604 21.2743 21.2641 30.107 33.8099 20.7877 40.0356 20.2079 20.1915 20.11 19.6224 19.5753
threshold=0.10939930006861688 0.21736790239810946 0.047904741019010551 -0.10454630479216574 0.057168101891875274 0.037286236882209785 -0.10454630479216574 0.053574886173009879 0.43850725889205938 0.068318143486976637 0.024502085521817211 0.094171788543462767 0.11050898209214212 -0.00059538698405958701 0.033461375162005431 1.2504633665084841 0.25470794737339025 -0.068618673831224428 -0.026412197388708588 0.026746153831481937 0.1465466916561127 15.474278926849367 13.221052169799806 0.096211675554513945 0.055069984868168838 0.12030206248164178 0.49828660488128668 -0.0022265374427661295 0.024957065470516685 -0.030193786136806008 0.058101722970604903 20.323596954345707 0.13734624534845355 34.191402435302741 72.314113616943374 0.23039361089468005 -0.017565364018082615 0.058070169761776931 -0.011650853790342806 0.047698965296149261 0.056912260130047805 0.013009305577725174 0.018203501589596275 0.014125511981546881 61.895702362060554 0.0070529389195144185 0.011190506163984539 0.028627479448914531 0.024033796973526481 -0.13900636136531827 -3.2716524600982662 0.23046740889549258 0.35371446609497076 -22.881956100463864 0.015161557123064997 0.0081254350952804106 0.010222213808447124 -0.03360913693904876 0.017510525882244114 0.04004438407719136 49.251064300537116 29.515600204467777 0.77350974082946788 18.317615509033207 -0.0012019022251479326 0.045781448483467109 36.16899490356446 35.27159500122071 -0.0018236133037135003 54.569662094116218 0.11775959655642511 20.162297248840336 -0.038526182994246476 0.093951843678951277 0.31541070342063909 11.605149745941164 58.329946517944343 0.071785364300012602 0.102290116250515 -5.2678039073944083 -0.014310968108475207 -0.020507123321294781 0.066066503524780287 0.040731357410550124 0.17149149626493457 0.0039482475258409986 0.0090225888416171091 -0.019986240193247792 0.36560960114002233 0.11050898209214212 0.0031187926651909952 -0.0035917670466005798 0.76248866319656383 59.471046447753913 7.2019691467285165 0.079305306077003493 -0.043587606400251382 0.077690031379461302 0.35938552021980291 0.052435049787163741 -6.4405887126922599 12.851104259490969 0.15478792041540149 1.2504633665084841 0.09198343008756639 -0.12083530798554419 0.046097379177808769 -0.057368261739611619 -3.0886725187301631 -0.7314942181110381 0.12916906923055652 0.023238826543092731 0.16423959285020831 0.013206272851675751 0.080755628645420088 -0.006769513012841343 0.36241970956325537
decision_type=2 2 2 2 2 2 2 2 2 2 2 2 2 2 2 2 2 2 2 2 2 2 2 2 2 2 2 2 2 2 2 2 2 2 2 2 2 2 2 2 2 2 2 2 2 2 2 2 2 2 2 2 2 2 2 2 2 2 2 2 2 2 2 2 2 2 2 2 2 2 2 2 2 2 2 2 2 2 2 2 2 2 2 2 2 2 2 2 2 2 2 2 2 2 2 2 2 2 2 2 2 2 2 2 2 2 2 2 2 2 2 2 2 2 2 2 2
left_child=2 6 13 35 15 10 54 12 9 16 22 18 14 80 19 23 33 28 26 20 34 29 55 27 30 42 87 52 79 -11 -20 50 41 49 -8 -4 114 -38 -25 40 -17 -24 -15 68 62 -30 47 -35 -49 -3 -21 69 56 75 -2 82 -5 -16 59 -59 -60 -34 63 88 100 -65 -33 70 -44 -51 71 72 -14 -55 -73 -19 105 -42 -37 -13 81 -1 -6 84 -27 86 -70 -7 -23 90 -10 -92 -93 -94 -95 96 -91 -98 -79 -41 -40 -82 -26 -12 -105 -56 -9 -108 -109 -110 113 -112 -64 -72 -29 -53 -101
right_child=1 8 3 4 5 11 7 106 89 21 103 17 67 25 57 39 -18 53 24 31 -22 44 32 38 102 83 -28 36 45 -31 -32 66 61 46 -36 78 37 -39 64 99 77 -43 43 -45 -46 -47 -48 48 -50 51 -52 115 -54 73 76 -57 -58 58 60 -61 -62 -63 112 65 -66 -67 -68 -69 85 -71 110 74 -74 -75 -76 -77 -78 98 -80 -81 101 -83 -84 -85 -86 -87 -88 -89 -90 95 91 92 93 94 -96 -97 97 -99 -100 116 -102 -103 -104 104 -106 -107 107 108 109 -111 111 -113 -114 -115 -116 -117 -118
leaf_value=0.035242643335626628 0.037475579473106438 0.0023625722939822785 -0.01622008362328254 0.0021134737605377615 0.015541373338425458 0.018887117487401215 0.004988865560356371 0.042250890759650592 0.03607729142564458 -0.019323583018202486 0.025731772489218055 0.013707510895009115 -0.014766368988646321 -0.018469890428306886 0.022979322985590692 -0.014785098296609216 0.032759192275297458 0.04078800015416402 0.0092884301966444007 -0.00078655186093421077 0.023698614209002683 0.033420570883771053 -0.0083327991932610427 0.035555982745435269 0.024359081722748539 -0.014263570778083986 -0.0045603787197562229 0.0072654627779096684 0.030086303531056485 0.026638043541896882 0.022204953036544094 0.0081678281808693458 0.0044931481221981862 0.023593291508545507 -0.015526741459717389 -0.0052786065758180208 0.012485920446393128 -0.007874108476329765 0.0074461710074130456 -0.021684087146640468 0.033816051948215319 0.0049848204140672528 -0.018865838819215851 -0.017256243099035833 -0.011377717692497926 0.008148144126581252 0.026588074476488307 0.027535453212843817 -0.011541618942531825 0.02885716193005966 0.024409408163792019 0.020942757757929462 0.030412526267428783 0.0036062779498934202 -0.0056810978516753114 0.037765794459345157 -0.01587149022092792 0.0096949953332587484 0.025016566363241406 0.01641258716521983 -0.011098874232564161 -0.0062198757674027218 0.016600542385750049 0.01414727357303288 0.033496987185822891 0.02512244588394235 0.018928911359381594 0.02537086597839542 -0.0026665072935134785 -0.0013525464132916596 0.0055438109878244001 -0.014022201686818749 0.019030125529348629 0.013637005329880148 0.012591038203196238 -0.014960451389428184 -0.0099728564136661174 0.005705805832860354 0.020823438435935118 -0.0097594683342190156 0.031288448960557227 -0.008684605892797877 -0.00013625996958998744 0.032646246261370693 0.020726346582748131 -0.011649521601919574 0.014785763422132678 0.037805174600941766 0.018753406074977986 -0.014612314502865707 0.035992105698441891 -0.0023151864804711406 0.037422130221781501 0.027556344303895683 0.0017491004612484021 0.03663682407954573 0.034419584430382046 0.0017125620315897564 0.026952904916612012 -0.0046210344712327867 -0.018199544201861751 0.0050458673764311509 -0.002569509058444064 0.021859971234726654 -0.0014414219374010928 0.0099050294000809849 0.036404117766243575 0.033858259654033426 -0.021432139467695996 0.019781007543525606 0.017849841954300324 -0.01176482089428553 0.027878222093968091 0.021183553126166713 0.033067573920232601 -0.0090289420504181886 0.041850102166347172
leaf_weight=5.5679677650332442 5.6152286753058425 17.587602026760578 114.59460537880659 32.638320550322533 70.985605917870998 23.909796163439751 310.39959000051022 32.972201317548752 245.09566727280617 20.504460901021961 57.534211091697216 30.9105603992939 11.122020840644835 264.2127555757761 202.06387612223625 10.307673156261442 342.67488569021225 2.5457255765795699 399.5467419847846 17.247250571846962 45.794275812804699 57.616046108305454 224.40660046041012 14.420028544962404 153.84577414393425 23.373024247586727 11.711794085800646 21.194276593625546 70.881344370543957 9.0054144784808141 97.543051734566689 276.22808147221804 564.85839251428843 25.724682755768299 30.324143335223198 42.536176010966301 48.646761424839497 169.77793492376804 22.806447893381115 13.377613730728628 26.451258756220341 85.172396458685398 27.29088044911623 99.005500361323357 11.660612568259237 29.678797632455826 36.179531663656235 8.7383712828159315 35.810775049030781 318.51334203779697 141.37251380831003 10.743135392665865 5.0419292524456969 342.50626989454031 38.064254269003868 12.511688955128191 164.97241254895926 280.81156252324581 166.76127646863461 1221.8671388179064 7.3068417608737937 85.476773969829082 55.22950479388237 509.94161113351583 7.685911498963832 80.193125255405903 96.103151045739651 16.983212225139141 48.715730853378773 8.8403112664818746 42.434252366423607 62.368991337716579 27.63408151268959 101.4376088604331 12.77695173025131 32.608361259102821 77.488079711794853 35.69470401853323 14.1822517439723 22.1149947270751 15.861491009593008 32.053030587732792 41.763402298092842 6.9844261854887 15.56973773986101 32.309195213019848 34.979609847068787 64.662196762859821 57.733048282563686 6.8788202404975882 56.408176802098751 12.232324898242949 27.409770846366882 28.983833283185959 18.610059157013893 18.007386326789856 15.529888592660429 12.406460754573343 21.05885074287653 6.8916056007146818 14.507876962423326 17.805605724453926 8.0182231664657575 35.653160214424133 26.09092154353857 51.871559105813503 33.147785976529121 19.317791447043419 6.9570098072290447 15.972957283258436 18.559157885611057 28.17060062289238 143.27302753180265 39.478702329099178 11.568411350250242 10.545529201626776 3.1921678259968758
leaf_count=10 29 142 610 220 265 86 1101 18 432 45 159 70 46 1071 520 36 817 9 1320 79 170 117 1139 29 517 130 35 147 108 38 242 906 2175 112 123 181 126 615 55 27 89 322 132 297 32 53 119 51 54 1152 481 69 31 1468 289 32 397 1282 375 3428 18 381 196 1437 12 340 221 62 184 41 241 275 92 379 42 150 417 188 49 54 48 110 178 16 49 140 120 108 178 31 65 28 28 50 37 41 43 39 70 40 35 87 29 105 108 133 60 25 13 34 91 189 330 196 19 61 6
internal_value=0.0116253 0.0177327 0.00321257 0.00567669 0.00653263 0.0083369 0.0136425 0.0144715 0.0239302 0.0220726 0.00362035 0.0124169 0.0138616 -0.0102084 0.0147339 -0.00089839 0.0269626 0.00762765 0.016405 0.0105527 0.00559732 0.0178511 0.00196654 -0.00369556 0.0145806 -0.0124501 0.0283625 -0.00568293 0.0168328 -0.00522397 0.0118283 0.0141563 0.000582603 0.0227536 0.00315639 -0.010433 -0.000739973 -0.00333102 0.0114504 0.0113587 0.0162227 -0.00466417 -0.0140156 -0.00914919 0.0185966 0.0236346 0.0131608 0.00621032 -0.00381707 0.0255354 0.0216621 0.0266998 -0.0118008 0.00467201 -0.00150987 0.0125555 -0.0128945 0.0167745 0.0160251 0.0151586 0.0234892 0.00308252 0.0189855 0.0173584 0.00365537 0.0156436 0.0109519 0.00445682 -0.00353312 0.0280371 0.00298036 -0.00307535 0.00928802 0.00590294 -0.00947219 -0.0108165 -0.00283965 0.0200889 0.00124087 0.00389489 0.00714005 -0.00209737 0.00972554 0.00478128 -0.000228251 7.10076e-05 0.00461724 0.0327313 0.0261061 0.0313291 0.0327009 0.0269167 0.0210103 0.0248311 0.0175099 0.0211799 0.0130925 0.0199808 0.0136355 -0.00796165 -0.00250325 0.0174864 0.0230163 0.0186457 0.0120007 0.00329405 0.031639 0.0269476 0.019451 0.00719259 0.0083515 0 0.0247538 0.0131089 0.0164652 0.00605064 0.0101326
internal_weight=9560.94 5539.29 4021.65 3397.92 3226.61 2596.37 3337.21 3164.18 2202.08 1760.52 1204.45 1391.92 3055.81 623.729 2796.28 630.234 815.358 632.684 759.238 917.469 386.518 945.157 1085.17 513.26 658.954 552.441 100.284 453.84 153.586 29.5099 497.09 530.951 959.914 472.683 340.724 171.313 251.187 218.425 59.4203 116.974 93.5125 309.579 506.514 242.301 915.647 100.56 106.453 70.2738 44.5491 366.23 158.62 348.642 202.653 479.098 173.039 125.261 197.611 1878.81 1676.75 1502.68 174.068 650.335 903.986 705.484 45.0002 590.135 372.331 259.528 143.295 327.354 242.545 113.902 38.7561 443.944 75.1459 35.1541 167.424 83.2048 56.7184 53.0256 71.2881 37.621 112.749 45.9272 38.9428 116.005 83.6953 88.572 115.349 441.562 388.74 143.644 87.236 75.0037 47.5939 52.8226 34.8152 27.9363 56.7536 23.4614 37.3143 33.6671 161.864 119.278 61.7441 89.9358 108.368 75.3955 42.2478 22.93 128.643 46.7298 198.503 81.913 32.7627 21.2887 10.0838
internal_count=31949 17081 14868 12474 11634 9492 10956 10088 6125 5331 4864 4628 9938 2394 8704 2142 2618 2291 2337 3081 1394 2713 4492 1686 2108 2139 229 1555 285 83 1562 1687 4017 1801 1224 840 907 741 131 456 383 1461 1944 873 2630 161 336 217 105 1465 560 1323 648 2006 868 475 617 5623 5103 4710 393 2556 2598 2072 102 1777 1127 1234 576 1193 1172 455 138 1847 317 159 839 347 230 124 255 120 443 195 179 444 304 194 295 794 640 208 143 115 87 154 113 82 258 73 90 135 546 372 213 422 150 132 72 47 717 280 526 437 166 130 46
is_linear=0
shrinkage=0.0156793


Tree=7
num_leaves=118
num_cat=0
split_feature=23 23 23 41 40 19 40 23 37 41 37 20 6 40 20 41 19 6 41 40 32 19 37 41 30 40 24 41 41 41 31 19 30 31 37 15 40 37 8 16 12 8 2 21 20 23 1 19 16 8 20 16 23 40 30 2 32 40 32 40 19 23 8 23 2 32 40 27 12 41 19 32 41 7 20 41 40 24 12 27 1 40 40 32 40 27 32 40 19 19 39 19 32 31 27 8 19 8 8 15 32 40 2 23 41 19 2 31 6 20 19 9 2 21 40 32 19
split_gain=2473.48 561.264 476.241 207.591 198.814 155.234 165.696 128.004 126.996 106.076 97.2896 90.989 86.88 87.8185 169.413 83.4929 73.4694 71.7018 68.3924 63.6756 82.4685 60.2685 55.6938 54.5408 51.2178 49.0602 74.0041 80.184 62.3857 92.626 51.701 48.4997 47.3581 47.1626 52.1894 46.529 46.4445 49.5084 45.9787 45.7282 47.4621 45.542 44.0988 46.9059 43.1854 42.887 41.5603 41.2356 40.7241 39.9639 41.5158 37.21 37.1746 40.9735 75.0222 55.4237 50.367 36.3666 36.3645 36.2964 35.8927 35.0645 38.2043 35.0549 34.8027 42.684 34.1292 33.9929 33.9292 33.7844 33.325 35.602 32.1391 32.0463 32.7432 31.775 31.0727 30.8541 63.2404 36.3245 30.7339 30.6764 30.6108 30.58 34.3278 30.5452 29.702 29.6495 29.2004 29.0429 28.4715 32.3755 28.0456 26.9986 26.4849 26.2913 25.2251 43.8258 24.6902 24.6652 23.6636 26.459 26.2083 23.3205 23.3171 28.5498 23.1937 30.3858 21.727 23.0162 21.1359 23.5004 24.2651 20.675 20.5443 20.4823 20.4319
threshold=0.25994071364402777 0.39595106244087225 0.14377219229936603 -0.10280781611800192 0.10961809381842615 1.0186653137207033 0.057168101891875274 0.6307378113269807 0.025401550345122818 -0.10836824402213095 0.052212378010153777 0.059219362214207656 25.38133525848389 0.057168101891875274 0.11652294546365739 0.020110435783863071 1.2050197720527651 22.236684799194339 0.0061224310193210849 0.036457758396863944 0.014141947496682407 0.54325947165489208 0.096211675554513945 -0.13062698394060132 -0.088444177061319337 0.06661767885088922 0.75659471750259411 0.032338279299438007 -0.0060794509481638661 0.045781448483467109 0.051019914448261268 0.89599171280860912 -0.030008306726813313 0.11781765893101694 0.018203501589596275 -1.4491270780563352 0.093338664621114745 0.009575789328664543 -1.5410017967224119 2.0828987360000615 76.092334747314467 3.8229496479034428 -0.025310141965746876 0.23380348086357119 0.050359768792986877 0.71556136012077343 -0.052297484129667275 1.2050197720527651 -2.9577332735061641 4.0883121490478525 0.20653546601533893 4.2469165325164804 0.86800220608711254 0.083296246826648726 0.0098940157331526297 0.042117942124605186 -0.016977523453533646 0.030718027614057068 -0.017642164602875706 0.098187863826751723 1.0824846625328066 0.38328386843204504 0.819971263408661 0.12946855276823047 -0.040172688663005822 -0.0019355628173798321 0.10865238308906557 0.02795798517763615 94.611808776855483 0.0037592370063066487 0.97906515002250682 0.03520325385034085 0.35371446609497076 -1.2228993773460386 0.31894172728061682 0.041623633354902274 0.088629487901926055 1.1967347264289858 64.309993743896499 -0.023511402308940884 -0.037125460803508752 0.097192063927650466 0.020169155672192577 0.0085158087313175219 0.06661767885088922 -0.024116071872413155 0.0072479215450584897 0.12916906923055652 1.1038326025009157 1.1376262307167055 1.0000000180025095e-35 0.95595312118530285 -0.0091045736335217935 0.048034925013780601 0.01618953421711922 -3.5662876367568965 1.1164414882659914 1.3141374588012698 -1.6346673965454099 -0.23224250972270963 0.0092694084160029906 0.13487257063388827 0.030954817309975628 1.0323649644851687 -0.0079710311256349069 1.0443460345268252 0.0039958066772669562 -0.047928061336278908 63.462438583374031 0.055395415052771575 1.1294058561325075 0.18689983338117602 0.0520432647317648 0.8200812339782716 0.10822451114654542 0.017510525882244114 1.3321554064750674
decision_type=2 2 2 2 2 2 2 2 2 2 2 2 2 2 2 2 2 2 2 2 2 2 2 2 2 2 2 2 2 2 2 2 2 2 2 2 2 2 2 2 2 2 2 2 2 2 2 2 2 2 2 2 2 2 2 2 2 2 2 2 2 2 2 2 2 2 2 2 2 2 2 2 2 2 2 2 2 2 2 2 2 2 2 2 2 2 2 2 2 2 2 2 2 2 2 2 2 2 2 2 2 2 2 2 2 2 2 2 2 2 2 2 2 2 2 2 2
left_child=2 9 8 95 7 10 24 23 100 90 33 48 41 14 19 38 46 75 35 20 80 -12 88 -3 -7 26 27 94 49 47 -29 -16 -24 34 67 -13 37 -20 42 40 -33 -11 98 -44 60 70 -17 -30 86 50 -27 -37 53 54 -19 85 -56 -23 -59 -60 -10 87 -63 104 -35 -66 -48 93 81 -57 92 110 77 -28 -75 96 -18 79 -79 -26 -14 -36 -41 84 -50 -55 99 -40 -21 -85 91 -2 -6 -5 -25 -4 97 -9 -15 -8 101 -1 -103 -47 -46 -106 107 -65 109 -102 111 -72 -113 -67 -31 -38 -73
right_child=1 4 3 5 45 6 11 17 44 12 21 18 13 15 31 16 76 52 36 22 -22 57 32 25 72 28 73 30 29 114 -32 39 -34 64 68 51 115 -39 61 82 -42 -43 43 -45 63 103 66 -49 83 -51 -52 -53 -54 55 56 69 -58 58 59 -61 -62 62 -64 106 65 113 -68 -69 -70 -71 71 116 -74 74 -76 -77 -78 78 -80 -81 -82 -83 -84 89 -86 -87 -88 -89 -90 -91 -92 -93 -94 -95 -96 -97 -98 -99 -100 -101 108 102 -104 -105 105 -107 -108 -109 -110 -111 -112 112 -114 -115 -116 -117 -118
leaf_value=-0.018388022324269167 0.021039204364405054 -0.0024370409514516325 0.041544386885256537 0.0037680417883900882 -0.0013792520447536225 0.023974481033437762 -0.0071020096933363643 0.038044618293392056 -0.00027447750708597382 0.035402040122106675 -0.012453023611568949 -0.013067206965976769 0.022417756624898207 -0.0097934437348348932 0.026285566058677944 0.031740247397638768 0.034207885664823107 0.032323750695093689 -0.0026847902349604867 -0.0042812698963222255 0.040751453814725884 -0.0077777434493924366 -0.0072941973885406212 0.026964356003607082 0.014442710092318307 0.018377176095270856 0.031229498123111869 0.010254594468422125 0.01080244273239442 0.023116175940689123 -0.020410775123394228 0.019065731373949572 0.036338013761781002 0.043915965921216576 0.01001119235580605 0.0057554870023270579 0 0.019677698153839965 0.014270396058577732 0.018456674338675372 1.6056671239841508e-05 -0.0038612162146235206 0.024660638318736616 0.00080595640746177887 -0.014967778851378434 0.026514175608497375 0.015030520419760222 -0.0043529400963072855 0.010643550168091478 0.00062577494512848562 0.027293601568562243 -0.010176802886621926 0.030304021197908468 0.023109125374466993 0.0046019490436601859 0.031091778067758289 0.024227654380517293 0.036100370254937932 0.019467655977151093 0.0093016172239605757 -0.021670464463896588 0.010203599503659165 -0.016071244772297783 -0.01281903703906689 -0.022720138028144248 0.029401173221429398 -0.01044407593058405 0.02144257598953769 0.045259255012351771 0.011176686743682489 -0.0033230721099469182 -0.0032421012566775202 0.02090661463583705 0.02486257809507678 0.0057955912895319575 0.024784607424778105 0.016031511887833996 -0.011689382753215977 0.021918650786750551 -0.015091932922894367 -0.0026878494773727489 0.0027663048680891104 -0.0026232479035827524 -0.0089281894901252958 -0.012184931198174483 0.0062737587740280681 -0.015401065738518146 -0.00022680706559925667 -0.019410780825349232 0.028953660557681317 -0.0080925758177107319 -0.0054000402396268297 0.024145280106459732 -0.0045955742991750969 0.0042605132360785678 -0.013721084562419055 -0.010447927545014011 -0.012840487826410167 0.02351531965519818 0.03345102800040449 -0.016847733901306342 0.031044039430957904 -0.021343636221408214 0.0082490011240374476 0.026114289133674376 -0.014075833797803666 -0.0015611537347626145 0.029852971298023844 -0.011164564832236818 0.034161265874693064 -0.0075065415975967189 -0.0057220594587488807 0.03257744945606348 0.0099782427501897905 -0.0072586782425866766 0.0307704206758702 0.023206277872999052
